3116 32
107 0.1002984 0.1309344 0.13606822 0.41952497 0.071658626 0.3423919 -0.0400316 0.023825578 0.21521845 -0.056057204 0.10970497 -0.017782316 -0.39788586 0.15083288 0.19132447 0.061629135 -0.19152004 0.002540921 0.37453315 0.16358982 0.23760931 -0.08829604 0.13681589 -0.09467065 -0.0633399 -0.17539512 0.30964828 -0.11218993 0.2786919 0.013065612 -0.08406572 -0.09162254
1286 0.04602692 -0.03511626 0.09943988 0.2848977 0.005002608 0.41341743 0.07208684 0.13323262 0.19087489 -0.14840528 -0.01549234 -0.07065548 -0.22785345 0.16218518 0.3079157 -0.026312005 -0.1765373 0.059707247 0.39375618 0.09987269 0.24758469 -0.18966512 0.19689816 -0.1939126 -0.008367759 -0.31802732 0.19587411 -0.02583019 0.17061928 -0.022422578 -0.12324421 0.0651545
201 -0.11614596 0.16177602 0.06280159 0.31438282 -0.2054507 0.12057096 0.0019045046 0.26687163 0.047880903 0.17554824 -0.06462072 -0.13537657 -0.22433917 0.12690005 0.42211184 0.29274014 -0.23324776 0.27782613 0.36716452 0.20699352 0.15399328 -0.29242784 0.0895133 -0.18490663 -0.27613285 -0.14604102 0.28649953 0.29491365 0.02712039 -0.14902437 -0.20959368 -0.008207115
56 -0.032373592 0.09805156 0.3203326 0.39719307 -0.1447795 0.22857706 0.13918206 -0.053839397 0.12484128 -0.11290603 -0.11222233 0.03013213 -0.32243153 0.22616352 0.29065326 -0.020844603 -0.24178423 0.10677472 0.43577066 0.123680115 0.026500009 -0.03486242 0.020731136 -0.25715178 -0.05318093 -0.19772509 0.50112134 -0.020596102 0.18510059 0.06867082 -0.21104218 -0.1149527
1287 0.17001113 -0.030139623 0.18043816 0.3007957 -0.29669642 0.12387072 0.020005267 0.1885251 0.16396211 -0.085838504 -0.08299432 0.019649046 -0.4898062 0.31170037 0.06549386 0.06850311 -0.284767 0.15191963 0.34190348 0.17758602 0.12954652 -0.0463801 0.034193464 -0.23571666 -0.16346158 -0.06981792 0.42726195 -0.029097391 0.17746231 0.08426686 -0.25077152 0.10657672
2553 -0.36436003 0.06431354 -0.008125438 0.4787533 -0.21514499 0.036237814 0.32454595 -0.2670795 0.0804116 -0.19485156 0.07213727 -0.0622712 -0.59919995 0.5455199 0.08648351 -0.373025 -0.23174651 0.13652982 -0.0023452588 0.37418956 0.38605753 -0.05854809 0.1848518 -0.048724674 -0.016068697 -0.19824769 0.18048656 -0.2839858 0.4057168 -0.27291542 -0.3613193 -0.046449624
2556 -0.028583404 -0.039420776 -0.27671894 0.5702294 0.4248567 0.1637077 0.06734774 -0.23266189 -0.3370064 0.03709939 0.46315667 0.16597466 0.14715384 0.74125636 0.08933367 0.078538276 -0.12348406 -0.027788026 0.2244039 -0.04966264 -0.046281587 0.11556049 -0.20721924 -0.026652567 -0.11461469 -0.22391424 0.408519 0.19289273 0.0931955 0.17648874 0.50739974 0.730364
78 0.28659943 -0.30280408 -0.034453817 0.3038619 0.22835724 0.25004163 0.0916102 -0.032607228 0.18520617 -0.12620994 0.05282587 -0.035895538 -0.19128999 -0.0069477116 0.29218277 0.16155045 -0.2091227 0.07925121 0.480725 -0.009763823 0.049048733 -0.15539746 0.047234453 -0.40067804 0.07203334 -0.24337742 -0.04656827 0.21621838 0.12115939 -0.20184398 0.003975732 0.04921913
2726 -0.26488134 0.10584603 0.18974185 0.47666672 0.023204979 -0.6304468 -0.14406955 0.3213702 -0.22602338 0.05749374 -0.14524364 -0.09711178 -0.09369667 0.4624982 0.15018499 0.2640494 -0.17309488 0.1781474 0.11705642 0.1676752 -0.32915205 -0.25189313 -0.06486349 -0.24917293 -0.42138225 -0.028924124 0.79104763 0.15759726 -0.009918675 -0.07385092 -0.22340955 0.22971004
53 0.16091384 0.12735106 0.27683926 0.41341686 -0.031378742 0.2608971 0.06762835 0.07003941 0.1093413 -0.28303906 0.055391435 0.10592434 -0.41224778 0.0252983 0.13837029 0.17279832 -0.22814335 -0.006006842 0.20815544 0.20397714 0.42475513 0.03260269 0.12573278 -0.22242106 -0.076798365 -0.14738543 0.3843379 -0.14922577 0.41626316 -0.07273619 0.029713457 -0.091378324
2657 0.09782791 -0.17220213 -0.10870691 0.20932834 0.13369451 -0.05440116 -0.04329986 0.22491473 0.16269302 0.051922727 -0.13116567 -0.2694019 0.10384372 0.31727812 0.007330038 -0.11121804 0.18573186 -0.056583446 -0.09470291 0.17655273 0.4918208 0.15577444 -0.38911685 -0.20199239 0.33263615 -0.09541717 0.5277993 -0.033911657 0.5835698 -0.26498032 0.18923952 0.038618393
1117 0.24835742 -0.3029496 0.1250976 0.16631204 -0.1503059 0.17400096 0.15910335 0.31374893 0.03362174 0.045197085 0.20990472 -0.14689423 -0.051124457 0.33548468 0.38940495 0.31407955 -0.11699904 -0.014095111 0.42524806 0.23078477 0.0010318208 -0.3594483 0.1965282 -0.11118801 -0.3655881 0.032535218 0.44872913 0.16785152 0.036728963 -0.046819955 -0.1720246 0.08948214
2533 -0.067495845 -0.40453187 0.44056788 0.5454949 -0.100182936 -0.09364035 0.18024397 0.13573742 -0.107174106 0.2216955 0.040315077 0.13205798 0.21079993 0.12739414 -0.087209016 -0.5265265 0.5433646 0.3459937 -0.07685619 -0.054346107 0.42696437 -0.21824518 -0.2549671 0.052921098 0.10864758 -0.4423612 0.11631518 0.66193706 0.55000156 -0.18784665 -0.25282124 0.102212146
80 0.33536524 -0.21508737 -0.30457994 0.6281266 0.18590797 0.028033875 -0.23057309 -0.013492842 0.18285938 0.042173736 0.106121324 -0.04545731 -0.31651637 0.27208897 0.129086 0.1508784 -0.3506572 0.09469081 0.3836941 -0.26412153 0.09254714 -0.037857298 0.27420065 -0.092194 -0.23781028 -0.09259491 0.23278478 0.29438102 -0.060808547 -0.14840956 0.026243575 0.16849093
2695 -0.34954116 0.006169561 -0.08361917 -0.18029475 0.287566 0.2321246 -0.07007511 -0.13315798 0.052735448 0.3162226 -0.1103946 -0.046619236 -0.10951444 -0.031141108 0.1490184 0.37712768 0.048481286 -0.4519576 0.254885 0.34745443 0.059656065 0.014845713 0.09033589 -0.42363963 -0.10839951 -0.2260478 0.5066989 0.6840001 0.42467532 0.012400828 0.13646302 -0.18564834
2458 0.2799765 -0.09694722 -0.052746397 -0.095061205 0.46277374 -0.43179587 -0.44638327 0.5112045 0.26596642 -0.032648407 0.28734916 -0.039133385 -0.0045603993 0.011791549 -0.115425155 -0.21184272 0.4058734 -0.070595294 0.36169326 0.30371663 -0.1413212 -0.072588526 -0.2121629 -0.19479625 0.04400435 -0.121683866 0.5047473 0.11791421 0.57161635 -0.0486217 -0.44197983 0.36559469
247 0.43213597 -0.07183898 -0.099908605 0.31204048 -0.29523182 0.022575079 -0.13265383 0.16889015 0.469995 0.20634857 0.028511623 -0.21832593 -0.12400412 0.29223296 -0.053409867 -0.07062457 -0.07575724 -0.11198627 0.487651 -0.036313225 0.20055151 0.16332465 0.30422312 -0.34333822 -0.022573715 -0.2681347 0.1406276 0.17182037 0.14745201 -0.37217447 0.27790433 0.19710454
1214 0.15107018 -0.15659781 0.020779954 0.25631005 -0.08332729 0.0338284 0.02426762 0.19516666 -0.0830617 -0.25338626 -0.12655021 -0.0072738486 -0.24550334 0.11297773 0.18341996 0.06675457 -0.47860578 -0.009142552 0.38863254 0.11651398 0.0430314 -0.2013187 0.099157706 -0.29203886 -0.17790724 -0.38061774 0.033761926 0.2143551 0.24816217 -0.019525243 0.0026124548 -0.097555935
2485 -0.290589 0.14639048 -0.29485604 0.12937428 0.31461483 -0.05811574 0.20825662 0.07113606 0.15394813 -0.11445865 0.31976286 0.630961 0.14171912 0.22406517 0.089512564 -0.36767727 0.20628993 0.7305696 0.1966794 0.20164259 -0.15112092 -0.48936033 -0.1186001 0.11726211 -0.10451125 -0.31620866 0.5390494 0.03658551 0.39069507 -0.6254389 -0.15917727 -0.07925404
2468 0.014610298 -0.09116436 -0.15161602 0.33251834 0.47953373 0.054736372 -0.21971838 -0.201357 0.3288895 -0.24854253 -0.1054271 -0.23596928 0.03865916 0.2973914 0.22203048 -0.15424202 0.03342875 0.24370521 -0.042811368 0.404614 0.10140698 -0.078019194 0.06988812 0.20229761 0.052138124 0.081317894 0.03878366 0.58407044 0.34252945 -0.42671236 -0.10310924 0.021977697
182 -0.08976888 0.022263464 0.3500779 0.38017598 0.09741482 0.30205137 0.2756933 0.0496407 0.2414673 -0.16891402 -0.06554668 0.01885456 -0.16520166 0.09080662 0.24040061 0.06482854 -0.09017855 0.4226813 0.30937958 0.03402816 0.16665459 -0.13344204 -0.16755183 -0.28128797 -0.10967783 -0.4634239 -0.31644738 0.19411056 0.3278614 -0.18245451 -0.28067344 -0.11066868
2699 0.22285649 -0.9739231 -0.17206651 0.026552632 0.6705421 -0.25378796 0.17177407 0.17456311 0.08744975 0.62974626 0.43653223 0.2932303 0.008302003 -0.025215264 0.03911868 -0.13326031 -0.22750328 0.22755937 0.15267207 0.07186711 -0.15703909 -0.3723716 -0.10532227 -0.43308145 0.024011767 0.09433606 0.1732028 0.6406093 0.21270354 0.1392004 0.22344738 0.08876668
2669 0.22506955 -0.762613 0.16527012 0.5009211 -0.021101272 0.33510923 -0.026067827 -0.054212917 0.14996508 0.25632253 0.4053941 0.15552571 0.2955622 0.339003 0.16285336 0.012111168 0.38149962 -0.3752866 0.019976383 0.41257527 -0.05475382 -0.43619803 -0.01423039 -0.3280811 -0.5026024 -0.35182193 -0.084291205 -0.44141743 0.14463905 -0.19721028 -0.2027593 -0.2354977
301 0.34920266 -0.021420522 -0.021024173 0.44587785 0.18400961 0.17071208 -0.11372859 0.16150145 0.0525089 0.3380044 -0.06431898 -0.43095717 -0.07928661 0.15120834 0.25101078 -0.0030175697 -0.67550874 0.24853483 0.24195063 0.034597456 -0.13163014 -0.09203198 -0.20206068 0.065861575 -0.3067479 -0.0038697629 0.39054632 0.45862734 0.10014731 0.025954211 -0.31515637 -0.13693589
84 0.24600098 0.015334782 0.2846812 0.44597918 0.26119506 0.08949452 0.066414945 0.25548303 -0.005380265 -0.02187226 0.18168034 -0.023851179 0.042378724 0.0724171 0.26165834 0.009441602 -0.1469983 -0.074865706 0.5856754 -0.04868631 -0.0029217377 -0.13818689 0.0014034924 -0.19826348 -0.10115929 0.0157527 0.23130472 0.005893344 0.3730649 -0.09851367 -0.0059916354 0.019161236
239 0.15704702 -0.07126325 0.034096994 0.411411 0.18812747 0.11927908 -0.03651249 0.078351334 0.29231247 0.20515251 -0.047472127 -0.25029302 -0.1427979 -0.06414395 0.16914815 -0.0049210847 -0.2914756 0.20639876 0.46993786 0.14010859 -0.03054187 -0.1780873 0.016274454 -0.22880486 -0.041886836 -0.15371303 0.042027786 0.34907013 0.17884605 0.07459998 -0.07526804 -0.1842168
2498 -0.4784391 0.23209827 0.38762993 0.4996807 0.30669963 0.12429473 -0.29368258 0.053344987 -0.20365062 0.14224412 0.10416584 -0.06306548 0.01621299 0.49704576 0.35622212 -0.49474064 -0.13110062 0.2348675 0.11805889 0.23115678 0.35064924 0.099080436 0.23728496 -0.1332103 0.06474488 -0.15409878 0.3847682 -0.2785267 0.2741603 -0.14166658 0.2615277 -0.0956497
97 -0.20062631 0.22398195 0.08398161 0.4365881 0.29645616 0.027690658 -0.17320491 0.44065002 -0.025646256 0.24242094 0.17103134 -0.019141877 -0.2894551 0.21160832 0.40500244 0.069885395 -0.039119426 0.17953843 0.60371816 0.04695731 0.12171806 -0.08794148 0.26046374 -0.1632869 0.043110516 -0.27341527 0.08842122 0.019492166 0.23644193 0.010825875 0.44368494 0.062883735
2668 -0.34083816 -0.22236381 0.08732386 0.3014318 0.12824568 0.102662876 -0.0667242 0.1600731 -0.1415308 0.02941282 -0.16782057 0.196825 -0.42691833 0.3074502 -0.57366073 -0.075266056 0.07197839 -0.14689578 0.0869639 0.094260946 0.029559875 -0.17824873 0.0904595 -0.6186916 -0.09226758 0.08329479 0.17280151 0.08924346 0.35853794 -0.28215063 -0.091342725 -0.26635164
2733 -0.0063446495 -0.2672364 -0.27495173 0.30940077 0.17274415 -0.044532705 0.09649066 -0.075707085 -0.26819286 -0.31242198 0.0015117163 -0.08316867 -0.36254266 0.4018723 0.1294455 -0.3659267 -0.12855992 0.15596262 0.048225053 0.27070177 0.012630923 -0.44123545 -0.12960228 -0.24491544 -0.014276267 -0.40783864 -0.49798357 0.081588134 0.24293652 -0.6668464 0.009660015 0.19453672
2632 0.08824191 -0.4602266 -0.4621386 0.5265384 0.33326605 0.36959508 -0.09915481 -0.3123009 0.16957286 -0.21863851 0.35476467 -0.30793664 -0.76084965 -0.075155415 0.17228213 -0.5498765 0.20206724 0.15372396 0.014123567 0.59309286 0.3010041 0.012467954 0.25654334 -0.42090338 0.20037349 -0.06221738 -0.031501524 -0.39805934 0.22043362 -0.14486502 -0.13312967 -0.11193093
1350 0.10363361 -0.03280968 0.09953629 0.21469036 -0.057558753 0.47717366 0.15906951 0.144668 0.12234666 -0.39700222 0.1412821 -0.07175149 -0.31540683 0.03114077 0.3214738 0.0010040724 -0.22070195 0.09236838 0.25671223 0.1377047 0.01472967 -0.17648728 0.05662113 -0.2279787 0.15803856 -0.4738148 0.118528984 0.15498209 0.28055325 0.04581057 -0.15112853 0.14326268
117 0.20036355 -0.3692974 0.21626465 -0.00026666897 0.0022179363 0.23182148 -0.014062161 0.025346218 0.1904838 0.007225506 0.12617075 0.07583992 -0.36501917 -0.17706367 0.24243823 0.007530872 -0.7385404 0.17133187 0.396929 0.21543457 0.041325405 -0.36414307 -0.18406217 -0.47703946 0.20803002 -0.28168297 0.27304763 0.20556274 0.029158732 0.06691962 -0.07407161 0.15370247
2512 0.04532802 -0.17770588 -0.004560747 -0.16420028 0.10655297 0.13299808 -0.23923606 0.082098104 0.0609032 0.45928514 0.38167477 0.00029578697 -0.25561145 0.4022772 0.13891953 -0.35313734 -0.36406335 0.35625085 -0.16376269 -0.00038614453 0.19921912 -0.09629577 -0.0047365604 -0.23462722 -0.3756089 -0.06715633 0.07529579 0.22545649 0.51486313 -0.17227726 -0.21472812 0.17552917
1339 -0.29503548 0.12715043 0.27636838 0.49779856 0.102778986 0.3105281 0.1826316 0.06986282 0.34534195 -0.2807987 -0.04132109 0.0019768842 -0.3625605 0.20174578 0.026634375 0.031953633 -0.20969303 0.19009852 0.37649623 0.09409364 0.38757342 -0.19902854 0.17462184 -0.28122243 -0.037773047 -0.10619033 0.15017307 -0.054013524 0.120361485 0.068496294 -0.2357854 0.08758898
23 0.19501184 -0.19687761 -0.005967193 0.28312787 -0.1657549 0.21254799 0.007903774 0.50454843 -0.06832583 -0.40862793 0.057354126 0.01956862 -0.28895876 0.19779007 0.2421586 0.026529249 -0.21986848 -0.0052642883 0.29539472 -0.07165473 0.13701057 -0.2440319 0.18648043 -0.2800948 -0.27673683 -0.0020409087 0.1688688 0.15911847 0.24037278 -0.07872638 -0.21726963 0.10147154
2522 -0.14567001 -0.76834077 0.32826874 0.26222745 -0.08163408 0.08345835 0.2518733 -0.041853763 -0.010719223 -0.24534507 0.022319907 -0.039161228 -0.49185473 0.20984028 0.31369177 -0.14623532 -0.036013104 0.28542033 -0.23177922 0.4712602 -0.40747884 0.07863471 0.18632981 -0.04725987 0.3828268 -0.18412733 0.42445844 -0.06910168 0.48322195 -0.31291097 0.062755495 0.18939579
2631 0.31900147 -0.17507277 -0.00605913 0.02092426 0.2975382 -0.21228826 -0.06272402 0.1998178 0.12038922 -0.029614596 0.028944531 -0.14421482 -0.10864194 0.35746026 -0.13257258 -0.01783859 0.15565054 -0.24267226 0.041596055 0.27584848 0.24989879 0.020424938 -0.07852497 -0.24028417 0.026549596 -0.103513025 0.59535533 0.07257256 0.4065727 -0.18268426 -0.044260435 0.10077612
2532 -0.13072401 -0.58732724 0.509425 0.7803924 -0.23963843 -0.08173492 0.24123767 0.077888966 -0.18847017 0.25186595 -0.1344635 0.35756642 0.24748583 0.029194621 -0.05352947 -0.5201873 0.38132218 0.32685205 -0.038234916 -0.1178758 0.4946034 -0.13285665 -0.34883055 0.06284294 0.41987666 -0.46530336 0.052432265 0.77458745 0.53212386 -0.36651763 0.0067793694 0.12098748
2606 -0.049198832 0.0071766945 0.08458013 0.3438871 -0.34524378 -0.15367581 0.036459647 -0.1676925 0.1373422 -0.05981996 0.07510977 0.101370424 -0.8415938 0.41145378 0.041669566 -0.57893556 -0.44747078 0.20985635 -0.045469712 0.31408504 0.20360781 0.20838267 0.2020618 -0.38252538 0.17776835 -0.049088575 0.56283003 -0.30458742 0.41853595 -0.12272398 -0.40643683 -0.14826983
2610 -0.20288785 -0.43060136 -0.14893451 0.6359801 0.18004169 -0.19184268 0.15459417 -0.21048783 0.022721367 0.19459568 0.0049230764 0.074165836 -0.30076885 0.044526357 0.14935051 -0.34165907 -0.28985232 0.2802277 -0.07013427 0.36525276 0.2270368 -0.31506032 0.041329846 -0.2617477 0.15050948 0.03580038 0.16543795 0.028394349 0.21725915 -0.113820456 -0.120954886 -0.19115432
83 0.22201003 -0.09246569 0.33458942 0.42779353 0.032624844 0.20156965 0.083254315 0.18182379 0.1494012 -0.29403964 0.06436269 0.17968921 -0.2505327 -0.07019801 0.1005357 0.28777564 -0.14910518 0.12344732 0.21671794 0.20227845 0.42822897 -0.20577243 -0.3261835 -0.2480693 0.113838896 -0.2926781 -0.00016272377 -0.16769399 0.4108772 -0.42195967 0.014026822 -0.11875911
2718 -0.35539752 -0.21872462 0.047385428 0.39505026 0.29731303 0.6697127 -0.23454618 0.1449607 0.20244099 -0.1611756 0.16114244 -0.23081449 0.18083051 0.11332769 0.074653655 -0.2728595 0.30646172 -0.058165535 -0.08296942 0.22341704 0.23778789 -0.09595645 0.32099143 -0.45716703 -0.06760113 0.28220075 0.15246345 0.31078336 0.19892235 0.1714408 -0.06571159 0.18131989
2734 -0.28927147 -0.046795744 -0.0056430744 0.071817994 0.16482994 0.022170419 0.20541957 -0.23245932 0.054855037 -0.15247555 -0.05849246 -0.4058002 0.0087451665 0.22600922 0.32715374 -0.23421212 -0.26746503 0.17748533 0.030487366 0.25058267 -0.09008834 -0.18532328 -0.1412198 -0.33512664 0.33582285 -0.31931686 0.21837384 0.52904457 0.037931327 -0.7359278 -0.2157549 0.20330961
2525 0.079317324 -0.45784375 0.320878 0.57958406 0.10442315 0.08597845 0.16731043 0.086974874 -0.20144665 -0.19237447 -0.20451477 0.24901783 0.074067086 0.53941476 0.28117052 -0.13928853 0.016686577 0.20886528 -0.022178365 0.49117315 -0.3558953 0.027410697 0.12761752 -0.12129613 0.2369491 0.12925102 0.18316603 -0.12229948 0.31627458 -0.23132753 0.14077106 0.20911624
2472 -0.21716647 -0.37319446 -0.29022416 0.47015017 0.5353632 -0.4196678 -0.3565217 0.22066014 -0.035063893 -0.00773763 0.22525258 -0.02581261 -0.31110436 0.27438658 0.22590591 0.16296571 0.08728396 0.234324 -0.0012101147 -0.07073721 -0.05430286 0.11210984 0.1747265 -0.45398393 0.018935196 0.069540486 0.045214534 0.04628563 0.43635935 -0.015405087 0.0664515 0.021261936
2708 -0.13104956 -0.33346748 -0.0035786363 0.6629785 0.07296825 0.05554246 0.07616914 -0.059040125 0.20484807 0.15394512 -0.121178396 -0.0067139105 -0.37439317 0.15685773 0.102550805 -0.36713427 -0.063747086 0.22381094 -0.2148563 0.43360215 -0.22024527 0.0970058 -0.22458728 -0.12772846 -0.020474905 -0.010689701 0.23840119 0.008782336 0.31693915 0.18204798 -0.15928164 0.18368104
2516 -0.078848824 0.13751751 -0.036650278 -0.07180617 -0.2961588 -0.10959376 0.044682894 0.6784102 -0.28962293 -0.019700939 0.4211417 -0.06289727 -0.20148757 0.5056374 0.3863262 0.32638615 -0.021967812 0.21502066 -0.15947075 0.32352948 0.24287309 -0.55661523 0.0082846405 -0.3858722 -0.33902544 0.058106113 0.45398605 0.07807551 0.2460919 -0.3718491 -0.0897424 0.14647469
173 0.007770462 0.3769859 0.071576506 0.6090019 0.40919048 0.59444696 0.0087494925 0.5610341 0.005038539 0.2328999 -0.116759725 -0.07736406 0.22211604 0.23020418 0.3334035 0.026981322 -0.5239296 -0.01683745 0.24655358 -0.002743901 0.11960617 0.014237526 0.41571862 -0.29052347 0.06608278 -0.019718932 0.05063572 -0.12690628 0.21794817 -0.004455392 0.056851223 0.12567768
2648 0.51691276 -0.14853495 -0.38178444 0.8862529 0.08807256 0.002294751 -0.016763462 -0.1256284 -0.31197646 -0.1519322 -0.08754325 0.35792732 -0.4821578 0.09371711 0.12863334 -0.15143542 -0.037336953 0.28337064 -0.2645547 0.5670679 0.3376429 -0.107352585 0.07901141 -0.0628961 0.011620462 -0.109484345 0.40637624 -0.4717588 0.28034735 -0.6325224 0.45496574 -0.3482576
1236 0.107191786 -0.058044273 0.12637578 0.24107786 0.009965516 0.21550827 -0.09735743 0.09138204 0.33601493 -0.31844983 -0.082246296 -0.17796622 -0.7892393 0.4098664 -0.10556823 -0.057997227 0.040291913 -0.11951586 0.55202943 -0.0033274435 0.48985448 0.025777455 -0.088103846 -0.3049228 0.2129861 0.11739543 0.39327738 -0.35052952 0.32034278 -0.395465 -0.26118615 -0.03037015
2698 -0.043507557 -0.5010949 0.42004746 -0.040129505 0.1486221 0.09385297 -0.28610817 0.098729104 0.22348958 0.4598736 0.34557825 0.31832522 -0.06542733 -0.25407183 -0.016063824 -0.057657953 -0.16617683 -0.10963832 0.11082989 0.115613356 -0.014738527 0.15119794 0.06896101 -0.44723973 -0.32179472 -0.11835991 0.41692212 0.37204596 0.16486838 -0.51420987 -0.08876667 0.60424083
2727 -0.19923803 0.095528975 0.08417618 0.35872516 0.17634107 -0.21297455 -0.0675844 0.04172956 -0.056204364 -0.08163688 -0.2868011 -0.25078914 0.01381406 0.50044364 -0.20784035 0.2824637 -0.008496992 -0.30469573 0.249395 0.43402565 -0.14927857 -0.38572872 -0.09073662 -0.4480034 -0.5338522 -0.24832396 0.35433483 0.53670526 -0.22137477 0.22150208 0.09227817 0.07242715
2462 0.06488385 0.091168046 0.07925852 0.32527927 0.18411903 0.08137721 -0.05749941 0.1319466 -0.123820394 -0.12512955 -0.18525721 0.2595713 0.048671845 0.33059767 -0.026694795 -0.10324739 -0.21096502 -0.149785 -0.14562584 0.14779921 -0.0731746 -0.08907045 0.22334349 -0.53962237 -0.09376072 -0.23981862 0.24431998 0.24149297 0.21179388 -0.034937967 -0.13697247 0.10305561
2609 -0.44164288 0.07713603 -0.25472933 0.4791477 0.4384119 -0.07544177 0.2265934 0.24366958 -0.2642554 0.06352929 -0.19613439 0.27379692 0.027914582 -0.10582865 -0.1156059 -0.13260548 -0.20051695 -0.31820875 0.015366024 0.2849639 0.3575696 -0.1788093 -0.039246842 -0.5131797 -0.09392279 -0.5136756 0.06630066 -0.039198518 0.2785562 0.11720071 -0.34835094 0.3886381
2716 -0.31549227 -0.3717704 0.06294198 0.5122016 -0.204973 0.3875432 -0.18226755 -0.011142029 0.02314898 -0.3471752 -0.23458631 0.006122444 0.064537205 0.15600294 -0.13727696 -0.11443852 0.035508543 0.12583347 -0.014644794 0.34112602 0.62290704 -0.39111474 0.367535 -0.36189958 -0.33776462 0.59442204 0.32813254 0.07666971 0.114648886 -0.1375357 -0.21114491 0.42659494
2520 -0.14668548 -0.17005192 0.036989126 0.4247795 -0.06512356 0.021487536 0.20757411 -0.22533253 0.08112848 0.115758106 0.19667636 0.031601645 -0.2529901 0.3032424 0.27543697 -0.23508668 -0.19952475 0.10654868 -0.15846993 0.26157603 0.13918103 -0.1690744 0.109881096 -0.15167 -0.1671418 -0.28941548 0.07943203 -0.07902255 0.34219012 -0.23813744 -0.13684961 0.10752977
300 0.4232125 0.059061065 -0.054938428 0.14008121 -0.23251158 0.17843825 -0.2642623 0.5796861 0.27849695 0.4036792 0.5271057 -0.19675036 0.017268674 0.2750634 -0.06325497 0.0005512612 -0.41764662 0.27907616 0.18314758 0.04132102 -0.0989434 -0.09155126 0.12545265 -0.03949377 -0.32391247 -0.021832509 0.010266175 0.41204423 0.38123733 -0.30063376 -0.17694744 0.043189682
2680 0.2749012 -0.16949922 0.046495926 -0.14953236 0.062224742 0.4104074 0.21886775 -0.2681238 0.12779991 0.3613109 -0.19995908 0.12365698 0.022766335 0.5723572 -0.106416486 -0.21958226 -0.43999788 -0.058174487 -0.14438567 0.37679023 0.24569742 -0.37091774 0.038458638 -0.08381065 -0.45199916 -0.38747272 0.2719053 0.2717528 0.26207456 -0.02020922 -0.14090468 0.008459456
2479 0.29877764 -0.6856196 0.011316499 0.16800213 -0.040289573 -0.4034601 -0.20938149 -0.14834942 -0.29887196 -0.35775992 0.22676004 0.14216161 0.1534455 0.46172774 0.0930668 0.059361294 -0.8147178 0.3660952 -0.13925897 0.258601 -0.15034512 0.3096513 -0.3343211 -0.17255664 -0.331236 0.044462807 0.4511885 0.535363 0.29421377 0.12101976 0.10547029 0.35867205
360 0.03588792 -0.07218112 -0.08505662 0.20422003 -0.15841384 0.15918446 -0.19155118 0.3548748 0.3924656 0.5313169 0.33761355 0.07726393 -0.108334154 0.06535184 0.22880274 0.022412887 -0.43318105 0.2584808 0.30411205 -0.33859754 -0.019924406 0.20228565 0.21447232 -0.29366502 -0.31274897 -0.10185966 -0.07745389 0.46078935 0.35135898 -0.42508715 -0.049729753 0.23059568
205 0.4818277 -0.21861476 0.17507617 0.49375176 0.28578356 0.1511262 0.10297309 0.033562142 0.24713145 -0.07612048 0.11429583 0.36412054 -0.004402785 -0.4142622 0.07577693 0.30548003 -0.51934034 0.20547459 0.2186255 0.2159135 0.1604051 -0.11636605 -0.09512978 -0.3969226 -0.13695204 -0.10822669 0.16687542 0.17735156 0.13093287 -0.2942313 0.18361805 -0.096027315
2545 -0.030342076 -0.069649085 -0.39256102 0.5433144 0.33862543 0.083816014 -0.7026583 0.055078946 0.0043829526 0.062177505 -0.27206114 0.1874205 -0.25995877 0.17144018 0.17077652 0.2928597 0.3360075 -0.41842714 0.23947082 0.27969986 -0.19207527 -0.23173086 0.023960864 0.04435912 -0.2585522 -0.2749582 -0.002400292 0.18638867 0.4984953 0.14398938 0.014880055 -0.11864465
2728 -0.20884772 -0.46164456 0.103585154 0.11293517 0.07959592 -0.39611208 0.27411878 -0.11171234 0.06918013 -0.20763946 -0.16193849 -0.075841375 0.019721363 0.7017334 -0.20708425 0.18092112 -0.26413316 -0.08446551 0.21362208 0.59456563 -0.13290788 -0.12976854 -0.22731544 -0.17724183 -0.65640926 -0.19417058 0.09125242 0.16382526 0.24046353 0.35766092 0.106132984 0.41146654
98 0.16898619 -0.11682467 -0.018107621 0.27203128 0.2536026 0.19972214 0.2917576 0.21683784 -0.03514513 0.116639435 0.24807267 -0.052853275 -0.076077335 0.07921835 0.097623914 -0.045088187 -0.42733613 0.0764314 0.46923673 -0.18546155 0.0247897 0.0042787907 0.091009974 -0.37656 -0.18482414 -0.12052219 0.07197187 0.3367187 0.24589641 0.13109124 0.020863432 0.4275117
129 0.27279302 -0.35597876 0.13782696 0.23063874 -0.20141274 0.117503695 -0.04689149 0.11536623 -0.06076513 -0.20793664 -0.1622325 0.054113604 -0.15767144 0.17881955 0.13606875 0.167135 -0.49476707 0.22232842 0.35101658 0.1251468 -0.09308931 -0.1826061 0.0978838 -0.29891568 -0.03581855 -0.412893 -0.029850863 0.24357726 0.21377493 -0.030335423 -0.12217179 -0.036180217
2730 -0.41484872 0.16546835 -0.0048404443 -0.2855761 0.15154217 0.29650936 -0.123272546 -0.08696979 0.1846513 0.37531167 0.084544584 0.093341194 -0.067909904 0.23301722 0.31322315 0.49182636 -0.10615078 -0.13652499 0.21393782 0.5297629 0.20154291 0.08070116 0.23719548 -0.26626736 -0.17740822 -0.118938684 0.43867624 0.50776947 0.3633171 -0.06440781 0.1254675 0.16667196
165 0.03641359 -0.05225448 0.21218294 0.37032315 0.11868383 -0.3860047 0.08168469 0.33172983 0.028194424 0.26788294 0.12699148 -0.25895715 -0.09745292 0.11602291 0.25119585 0.4310154 -0.2795777 0.27877414 0.3807691 -0.10631627 -0.1401815 -0.34271768 0.32663202 -0.4992254 -0.038431756 -0.13331728 0.33542553 0.01728247 0.28087693 0.14682065 -0.0994891 0.012596393
2501 0.06256041 0.17745982 -0.16777387 0.16559625 0.3696448 0.4343459 0.23444653 0.33006218 0.069989905 0.30094048 -0.6735041 0.13316268 0.031197654 0.41812742 0.012854929 0.1989572 0.05821654 0.20553915 -0.37230474 0.2803915 0.17913042 0.096910596 -0.08955353 -0.1387891 -0.5639013 -0.49483657 -0.1669207 0.25999704 0.4266997 -0.38005143 0.23868561 0.26764128
2496 0.24950273 -0.3141686 0.024414528 0.06925111 0.02743824 0.13819596 -0.26606822 0.010070333 0.15526539 0.3438552 0.0062647313 -0.039975647 -0.048101407 0.5406621 0.07931097 -0.32669264 -0.2534092 0.25579074 -0.07238774 0.24887192 0.00029830376 -0.48108974 -0.1462613 0.07529846 -0.24057867 -0.067018524 0.22895521 0.10320699 0.3515211 0.053755406 -0.0836236 0.17330879
789 0.20054004 -0.13276687 -0.35312277 0.32185665 -0.2699189 0.2070956 -0.30879334 0.4096637 0.6330697 0.4891137 -0.3730939 -0.09560011 -0.109298326 0.21929786 0.09505742 -0.26762447 -0.33421177 -0.069429375 0.347562 -0.30855495 -0.2787406 -0.13427481 0.14340696 -0.34017703 -0.39332604 -0.054554813 -0.3281649 -0.072362736 0.7361712 -0.13779251 0.08305042 -0.18069935
2493 0.037510168 -0.1821394 -0.08853216 0.34014028 0.008115913 0.063149214 -0.38940936 0.16110246 0.67908823 0.10731269 -0.234799 0.09666272 -0.09608096 0.5204303 0.17041753 0.34010282 0.01795296 -0.10179341 -0.23675191 -0.16004017 -0.0075705354 -0.079317726 0.32775772 -0.26807484 -0.20953299 -0.14238769 0.119868636 0.22151488 0.34286985 -0.025029086 0.41824812 0.41396213
206 0.0022021497 -0.2544243 -0.5483752 0.66409516 -0.47064537 -0.13166785 0.08182488 0.2540005 0.36887398 0.14918746 -0.24511571 0.010741529 0.4199536 0.012415811 0.3295988 0.27773163 -0.14500369 -0.3659987 0.50158644 -0.023571452 0.0010560001 0.04821429 0.067059256 -0.476162 -0.14502886 -0.15156354 0.06709815 -0.2520078 0.514013 -0.005820243 -0.27970728 0.0682307
180 0.18063761 -0.0018360994 0.12453785 0.7100959 0.028772868 0.18019614 -0.058372635 0.28822237 -0.276699 -0.14213179 0.15061112 -0.06699232 0.022349983 0.17402746 0.09488743 0.21374199 -0.0683882 0.2927007 0.37331635 0.057532597 0.2643374 -0.3073648 0.17102757 -0.16692312 -0.38047594 -0.022355618 0.26650244 -0.22715053 0.039058547 -0.13391842 0.03179456 0.33457524
59 0.15206146 -0.5652318 0.09647636 0.606615 -0.09814898 0.5413865 -0.07055564 -0.022733185 0.32947788 -0.16792205 0.32235092 -0.22752827 -0.37735182 -0.01756052 0.093032375 -0.15883249 0.26804832 0.008561065 0.26507443 0.13156635 0.23653838 -0.1617006 0.21605265 -0.36304986 -0.31658655 -0.30418628 -0.10177953 -0.07458589 0.032798156 0.123240545 -0.20780128 -0.20222859
1215 0.23791333 0.11815452 -0.009945579 0.5694223 0.13693753 0.2511565 -0.037772756 0.09030699 0.30935335 -0.20140472 0.031315774 0.005347353 -0.57312036 -0.0032526348 0.09804783 0.13461186 -0.0050757616 0.25358224 0.22966418 0.14263836 0.28197035 -0.06555422 -0.2621917 -0.46324897 0.12875032 -0.1409128 0.03608777 -0.29533917 0.29741022 -0.07935946 -0.22391604 -0.1664169
217 0.64265263 -0.20898753 0.11064502 0.3084632 0.36964375 0.43606853 0.25558913 0.27325147 0.05601403 0.034233257 -0.42756972 0.028243091 -0.098969765 0.3479023 0.04124611 0.05655514 -0.41948897 0.042890012 0.18824233 0.29624888 0.0050953324 0.03939857 0.07887616 -0.11052839 -0.48979935 -0.35295588 0.15921232 -0.12308279 0.093610235 -0.14912653 0.025070118 -0.27241287
2656 0.19636899 -0.008887886 -0.027089046 -0.006287714 0.1792873 -0.07383122 -0.21656907 0.18256785 0.48608205 0.090224005 -0.19176106 -0.0047668135 -0.33712524 0.40362728 -0.12531164 -0.19861104 0.22710885 -0.38643813 0.34764662 0.22874886 0.16884278 -0.06909566 -0.047880378 -0.32582957 0.27594042 -0.03499906 0.55476815 -0.13743088 0.20543823 -0.62070674 0.034951475 0.47280732
1230 0.0957308 0.025665479 0.20005032 0.33012688 0.06782614 0.44055995 0.10126969 0.0042425045 0.20338622 -0.2857166 0.08851835 0.19374666 -0.32282156 0.00060747634 0.2481354 0.138573 -0.18296695 0.3059617 0.28487673 0.08397009 -0.07092513 -0.112555034 -0.15596767 -0.03674128 0.053505193 -0.3337602 0.09872753 0.09541624 0.48160732 -0.20013687 -0.28948304 -0.14674868
2490 -0.08540063 -0.31743202 -0.16707255 0.14406031 0.027618086 0.065497726 0.10686046 -0.16917509 -0.06483501 -0.33266267 -0.0019408728 -0.13484752 -0.056604993 0.22341323 0.23513712 0.00080638897 -0.1347174 -0.11155763 -0.2267783 0.13165072 -0.04249923 -0.16162077 0.109229155 -0.47600856 0.2045923 -0.6161915 0.2813465 0.30730042 0.26147828 -0.0628648 0.032409012 0.008584177
2514 0.09021927 -0.25367352 -0.024307204 0.01572815 0.38152805 0.25785115 -0.079325624 0.08810272 0.43448734 0.56115097 0.15586999 0.06249555 0.0032024034 0.5139099 -0.024880176 -0.06353486 -0.26327667 -0.29348078 -0.059159636 0.20546705 0.0829059 -0.30402198 -0.033213846 0.17523943 -0.4546728 -0.30641082 0.29495147 0.16497478 0.2477276 -0.07504638 -0.38036567 0.11915273
1338 0.19769637 0.071234524 0.1050539 0.07267906 -0.04540081 0.41635156 0.01272 0.067003384 0.22858089 -0.27502927 -0.13543038 -0.13550231 -0.2130386 0.31963256 0.12732333 -0.13197483 -0.22838064 0.26040605 0.40879634 0.13805832 0.35878992 -0.13753557 0.2030418 -0.1358841 -0.0010631422 -0.12830965 0.23820713 0.22787586 0.29426232 0.011790745 -0.2590888 -0.031429548
2455 0.33383024 0.09544647 0.0075827623 0.21830863 0.014123298 -0.036445804 -0.11260027 0.19850741 0.13447747 0.104169436 -0.00903436 -0.31524512 -0.14894797 0.33996493 -0.18935312 -0.009881054 0.34319824 0.005046514 -0.2255217 0.17088781 -0.022546457 0.115860365 -0.31357512 -0.17227778 0.2661609 -0.32887092 0.56077904 0.058379162 0.6347336 -0.30301335 -0.058181792 -0.023923276
2597 -0.22128111 -0.41533476 0.06112762 0.09273713 0.17601588 0.2278908 -0.076421686 -0.034033515 -0.4436623 0.63924557 -0.5352888 0.05254606 0.21837494 0.11353942 0.17921528 0.48626593 0.20640124 1.0023922 0.04649471 0.34662563 0.23926383 -0.24227257 0.49237263 -0.28467494 0.3304343 -0.45224583 0.30310556 -0.08394307 0.46614116 -0.09248254 -0.20721915 0.3170017
2736 -0.19673029 -0.008464347 -0.08506293 0.5172151 0.19432442 0.28634918 -0.074686185 -0.456036 -0.06981712 -0.08750861 0.12190754 0.04759393 -0.08249036 0.30759794 0.4604109 0.24271244 -0.15076685 0.23932448 -0.03642101 0.33413932 0.051533286 0.13590991 0.29794243 -0.03220187 -0.0071187704 0.017258469 -0.09458904 0.45741618 0.26813504 -0.74655056 -0.2845226 -0.12323062
1270 0.0715484 -0.07560645 0.07864175 0.35113344 0.02332247 -0.16853523 0.21411037 0.21532598 -0.1702592 -0.011884212 0.18692027 -0.10940704 -0.19252886 0.48669523 0.069161914 0.19746563 -0.56334645 0.17517379 0.30585033 -0.18174504 0.04629327 0.08028918 0.14158927 -0.18278228 -0.4625055 -0.19787407 0.41835156 0.17935564 0.18696108 0.18837346 -0.08229817 0.2659867
2456 0.5468212 -0.2725658 0.05796861 0.046451088 0.14550702 -0.07568942 -0.157484 -0.12747823 0.0033034412 -0.115035444 -0.02376069 -0.43545794 0.04816948 0.1810072 -0.22165865 0.05364429 0.45660475 -0.03371827 -0.18578619 0.34682754 0.52262074 0.09968186 0.096546486 -0.07494334 -0.17528448 -0.35758004 0.56609935 0.26151097 0.5251074 -0.29648235 -0.26187494 0.10481629
2717 -0.06829511 -0.072081506 -0.27175915 0.123888396 0.026163341 0.31355742 -0.2305184 0.18436033 0.1434063 -0.14016846 -0.02159074 0.2923657 0.048350118 0.37618744 0.009500242 -0.3555761 0.047168966 0.33599028 0.010575872 0.011989327 -0.015664767 -0.15553582 0.0042614057 -0.65244126 0.13049045 0.29475492 -0.04851838 0.23915973 0.48545808 0.041509345 -0.07037801 0.32304847
2712 -0.094526805 -0.30696136 -0.02889053 -0.038569666 -0.3485432 0.0972292 -0.076690815 0.63894516 -0.4321801 0.08684112 0.42504355 -0.15575217 -0.30987433 0.496154 0.28640577 0.13804516 0.0056590005 0.020094693 -0.053935725 0.35414872 0.30604976 -0.7526917 -0.12894265 -0.27451536 -0.15390879 0.03882655 0.33968616 0.0327629 0.19907776 -0.048830297 -0.0068149166 0.3790339
27 0.11493767 -0.047364794 -0.20191105 0.28857526 0.058345538 0.045126237 -0.21650615 0.4614023 -0.14419702 -0.100865 0.053831942 -0.18216257 -0.54630506 0.3079894 0.14064659 0.094422586 -0.41628456 0.25200576 0.37614915 -0.0999025 0.039980646 -0.6097164 -0.06761897 0.09549119 -0.23734006 -0.3387469 -0.27331078 0.12588546 0.32671067 -0.16090967 -0.2600754 0.2421359
2492 -0.048170332 -0.23465732 -0.23633872 0.47212562 -0.2578504 -0.18948905 -0.36482012 0.043288514 0.7636316 0.18114494 -0.35807285 -0.4188215 0.21911308 0.05995014 0.05342811 0.15916348 -0.07050224 0.012684514 -0.18515073 -0.50273156 -0.40284836 -0.32386106 -0.06336981 -0.74146163 -0.19249363 0.068539895 -0.019597925 -0.40724915 1.086984 -0.028517459 -0.046829447 0.050098952
383 -0.110903025 0.036851708 -0.6253565 0.43092662 -0.102687925 0.30153772 0.07102246 0.2741513 0.15115821 0.42084387 -0.23328519 -0.008241925 0.19004378 0.5010719 0.082392305 0.5215545 -0.18770199 0.1366517 0.2446825 0.108088724 0.28039837 0.2359338 0.7380435 0.085989535 -0.17165789 -0.46106493 -0.15890346 0.23899157 0.3218094 -0.2811072 0.2745375 0.6134854
2539 0.1452691 -0.40855148 0.22727934 0.46200687 -0.06674763 0.010663873 -0.1699635 -0.079033256 0.24032493 0.02183426 0.29539388 0.010675616 0.23241119 0.14153747 0.0069292868 0.22976322 0.4316798 -0.23809299 -0.08422909 0.42568585 -0.37342995 -0.2919649 0.14164646 -0.5299793 -0.6361206 -0.71044624 0.14439328 -0.018748844 0.033455066 0.048262823 0.25811142 -0.1961347
2502 -0.18875548 -0.05109897 -0.31814957 0.030295132 0.2410635 0.06985777 0.31678912 -0.15387045 0.22648847 -0.3523671 0.40643886 0.13772109 -0.26600355 0.27646604 0.46830457 -0.23887496 0.42875904 0.3016578 0.18776771 0.43922657 -0.2503221 -0.23043764 0.16158491 0.23283392 -0.38992384 0.002933346 0.4116031 0.0885481 0.6387766 -0.41658455 0.28984374 0.13453625
2486 -0.1977906 -0.3642361 0.10689614 0.47807196 0.33541143 0.016077943 0.1220893 -0.097203515 0.28244412 0.06799752 0.5549402 -0.23869292 -0.26467416 0.4392013 -0.22055061 -0.0926863 -0.23848061 0.114375316 -0.1099819 0.4887318 -0.23783073 -0.4098649 0.18340364 -0.056926947 0.4685271 0.25518003 0.3003054 0.19439721 0.30170658 0.19544016 -0.091826245 -0.17104249
2478 -0.16728064 -0.033401184 -0.009912186 0.46487162 0.14545977 0.2997732 0.045627523 0.24417382 0.1284447 0.12281569 -0.030812904 0.015227744 -0.15559466 0.42635092 0.027288023 -0.32234594 -0.053986747 -0.041532684 -0.18264008 0.028773502 -0.2318951 -0.11889257 -0.23712008 -0.4773598 -0.33078668 -0.10350174 0.21097416 0.23396361 -0.010738798 -0.0010572275 -0.18837981 -0.09129691
94 -0.07811411 -0.1412103 0.39499032 0.5018445 0.18064618 0.2986767 0.1013162 -0.024188928 0.20919777 -0.15062581 0.048853416 -0.025376234 -0.44974783 -0.17663185 -0.082459435 0.24251354 0.044403937 0.22814333 0.42647183 0.20281284 0.41522667 -0.13641731 -0.31497645 -0.30894032 0.037619215 0.11370466 -0.1301774 -0.22071832 0.6572308 -0.09311382 0.05265711 -0.012574207
2596 -0.13337237 0.4287284 0.07389483 0.6528167 0.21133514 0.11022143 -0.31278715 0.15119284 0.17578542 0.2882232 -0.3872364 -0.43146574 0.15324552 0.20020638 0.645975 0.084049 -0.20734036 -0.04088191 -0.109295875 0.39375106 -0.13171677 -0.11857418 -0.3155054 0.048843622 -0.36272144 0.17479561 0.53340894 0.38231587 0.09727981 -0.10163653 0.104932114 0.17019035
2552 -0.6281576 -0.47677732 -0.2750815 0.35299668 0.14352028 -0.09996406 0.12553789 0.20211396 0.92399114 -0.030398592 0.3764113 -0.43039125 0.47508937 0.50782436 -0.020259144 0.7223254 -0.0038252892 0.03730521 -0.014661032 0.298139 0.38215786 -0.061097797 -0.19800521 -0.109254085 0.21508151 -0.30560008 -0.2743937 0.11089402 0.21281277 -0.4190042 -0.42836168 0.28002408
2713 -0.047470074 -0.037012648 0.012979579 0.10563891 0.2249275 -0.32355514 -0.29505172 -0.055044275 -0.08876836 0.2888142 0.3708723 -0.39316964 -0.15071833 -0.17896381 -0.18228522 -0.34054416 -0.07343434 -0.05827302 0.28348607 0.69497323 0.40144607 -0.35081056 -0.096778706 -0.3484502 -0.017707737 -0.26872468 0.023674298 -0.32939816 0.56145906 -0.024815207 0.30814835 0.60216093
2649 0.17288199 -0.0008777732 -0.040668767 0.3080179 -0.003970116 -0.09671879 -0.5844033 -0.2515703 0.26801035 0.076458395 -0.21303177 0.10170592 0.19846593 0.17382786 -0.094709285 -0.21832055 -0.3420878 0.31233692 -0.036393225 0.2479551 0.319208 -0.367889 0.018326793 -0.39789408 -0.13696046 0.0022116113 0.2792156 0.2884332 0.1478548 -0.43677923 0.64420676 -0.2063955
2461 0.10613365 0.07722124 0.10919519 0.3106224 0.15092976 0.028883576 -0.15308405 0.16330256 -0.007762415 -0.281982 -0.08268171 0.34992713 0.122903414 0.3258706 -0.24064009 0.19687372 -0.19753188 -0.4526878 -0.11969387 0.119722635 -0.24163611 0.16933148 0.30988976 -0.67438906 0.038565043 -0.32466796 0.12771182 0.34587416 0.3533635 -0.17753853 -0.26555178 -0.025011916
2746 0.12434483 -0.0014157628 0.15043807 0.30557936 0.23867044 -0.0055225724 -0.025018584 -0.0108731 -0.24291305 -0.013902106 0.10049847 0.120458886 -0.061751895 0.34463027 -0.18232922 -0.06960403 -0.21133254 -0.12717429 -0.14427052 0.30024034 0.042173088 0.087064825 0.18615517 -0.45906448 -0.17074038 -0.25667992 0.277274 0.33557802 0.21341394 0.07538804 -0.19584514 0.015625823
2554 -0.03858906 0.28458714 -0.4540092 0.5175461 0.21692592 0.067940034 -0.2906543 -0.34426278 -0.2110148 0.011173175 0.2533513 0.08964328 0.25106722 0.66622275 -0.010353005 -0.006825989 0.02834735 -0.23790093 0.5212359 -0.35836864 0.20271759 -0.17476006 -0.26835883 -0.41210285 -0.17084059 -0.099162586 0.44741 0.24344954 0.048193384 0.0056123035 0.20783173 0.3759902
433 0.13007393 -0.0042565055 0.20559601 0.42198125 -0.021148141 0.09411852 -0.056484114 -0.2318043 0.2651879 -0.5069588 -0.13520703 -0.01648088 -0.31807926 -0.012049279 0.4023624 0.03119858 -0.25595468 0.30232468 0.272888 -0.086058185 0.1322883 -0.091907404 -0.044392157 -0.28237218 0.2199699 -0.4090278 0.29605925 0.07921055 0.3122018 -0.20219713 -0.23797026 -0.14807677
561 0.1088923 -0.045931365 0.4419451 0.46464393 0.06764087 0.13589913 0.40814635 0.08649069 0.20774706 0.1502135 -0.00873406 0.20648757 0.03992104 -0.1777695 0.04977928 -0.011920822 0.15913486 0.23555106 0.29915133 -0.05672253 0.66467625 -0.16851339 -0.28248554 0.032619976 -0.020483814 -0.3517022 0.14766595 0.38592023 0.5987571 -0.16105947 -0.20927714 0.052123103
2585 -0.11266172 0.09896564 0.070385456 0.12192094 0.099666625 0.036732186 -0.4218643 -0.1245839 0.2519249 0.14090124 0.16659708 -0.18836541 -0.056449246 0.30259594 -0.28883702 -0.10999358 0.04335654 0.40752754 0.049271308 0.26854017 -0.1921991 0.31694758 -0.13091494 -0.42881724 -0.27273437 -0.26360953 0.3517093 0.12961814 0.269925 -0.015799535 -0.13752975 0.2843305
2555 0.06246134 -0.21808457 -0.19595493 0.3104268 0.19506066 -0.08117736 -0.13966808 -0.45401984 -0.049330376 0.00066539383 0.31882668 -0.0086871935 0.08280424 0.24379675 0.17320143 -0.29029217 0.0018715286 -0.18089259 0.43027744 -0.12098666 0.047137573 -0.1610696 -0.19138451 -0.6012853 0.410128 0.14407882 0.5562941 0.084793314 0.31278896 -0.18104644 0.2698884 -0.004308838
2521 0.3684147 -0.26077342 -0.15461509 0.43604434 -0.05946156 0.263718 -0.12518996 0.15151893 0.45540655 0.20182623 0.32214677 -0.029867418 0.50403863 0.09441093 0.3084323 0.16142909 0.45079133 -0.35195956 -0.08194157 0.3272632 -0.2786084 -0.5215114 -0.21005936 -0.38348565 -0.19907156 -0.4784515 0.31675434 -0.2542529 0.090552874 -0.16108298 -0.36460027 0.004906899
2691 -0.03170931 -0.045418732 -0.2513711 0.042797625 -0.41257134 -0.17778392 -0.12847693 -0.17301536 -0.09989331 -0.21655457 -0.2021136 0.15800992 0.27712092 -0.007738416 0.5499851 -0.077216975 0.21810415 0.03011233 0.20173793 0.3128 0.14023285 -0.10502112 -0.2802877 -0.4601954 -0.18501341 -0.12142854 0.08844748 0.04544805 0.98939717 -0.08324923 -0.36863872 0.023977688
2491 0.10438809 -0.30563846 -0.28104556 0.2084518 0.014476686 -0.1500359 -0.5025364 -0.19419649 0.18698506 0.07255813 -0.25153545 -0.07309488 -0.17954472 0.28572458 0.059990313 0.21661663 0.2738178 0.26139942 -0.02625703 -0.06215989 0.108127184 0.112335004 0.09616557 -0.609039 -0.25927687 -0.29723194 0.0036992421 0.27960822 0.34723485 -0.11920912 0.088753566 0.06761816
1311 0.04333745 -0.06484408 0.3227318 0.5432359 0.25595856 0.07068352 -0.07917833 0.121525235 0.43505943 -0.16829887 -0.0020613677 0.09056068 -0.49978566 0.15509821 0.016715834 -0.11553419 0.0671748 0.30156198 0.47832793 -0.035834797 0.30712637 0.06776609 -0.19214974 -0.1157157 0.25048098 -0.1530684 0.5440283 -0.15357539 0.20480797 -0.048289806 -0.05127316 -0.14746825
2476 -0.23478168 -0.04033813 -0.12787494 0.3186307 0.122012645 -0.026436923 -0.49112558 0.2553457 0.21376945 -0.24354191 0.19726801 0.26865816 -0.3482706 -0.085934825 -0.24395901 0.0051615923 0.039032087 -0.3979963 -0.14122622 -0.031329308 0.07088333 -0.108968385 0.14463787 -0.20788674 -0.29797482 -0.37503958 0.09932934 0.6918108 0.4871121 -0.022996355 -0.12504877 0.1475447
112 0.264125 -0.28473207 -0.117353305 0.46356535 -0.045762118 0.074582055 0.021785986 0.18910538 0.104962625 0.0027573635 0.16149826 0.02086786 -0.1432422 0.14032926 0.013545568 -0.0025452971 -0.42749757 0.16174872 0.35116816 -0.14096527 -0.11992624 -0.09260018 0.09230579 -0.20687725 -0.2177819 -0.10643866 0.11776812 0.49345344 0.118381456 0.11883149 -0.12781581 0.2000904
1336 -0.005024388 0.15036517 0.1415595 -0.01638828 0.35625565 0.21680403 0.3064295 0.13375959 0.57998997 -0.33832428 -0.16117443 0.060626592 -0.44079572 0.2360666 0.23919351 -0.0050708563 0.029784752 0.13985372 0.72404 0.038250756 0.1022679 -0.11021217 -0.16391884 0.004237163 0.309175 -0.067068994 0.45328185 0.12386636 0.2525425 -0.718438 -0.13676117 0.31344667
2534 -0.0692992 -0.34209478 -0.13774055 0.04117701 -0.2744713 -0.06555717 -0.5517118 0.0843862 -0.25902155 -0.097755276 0.42163938 0.3013449 -0.034074616 0.1771922 0.013155846 0.023368316 -0.7787589 -0.023201367 0.07468273 0.6249313 -0.12888284 -0.86033815 -0.15974851 -0.44657663 0.6915056 -0.33382028 -0.07787564 0.26830366 0.2873451 -0.15914796 0.22562312 -0.3347712
73 0.08421342 -0.086022176 0.35243416 0.48378378 0.26516524 0.34297207 0.030598275 0.12660335 0.1843221 -0.24207334 0.070068054 0.13795055 -0.33417562 0.23698965 0.35160398 0.11184927 -0.20830566 0.1116097 0.3157783 0.05639075 0.01886854 -0.2758429 -0.08012133 -0.024825597 0.005264877 -0.30881876 0.077619046 -0.15886678 0.26834473 -0.10673731 -0.1143963 -0.23951322
2566 0.1280965 -0.44480985 -0.52948934 0.31341067 0.6102134 0.30469802 0.119415015 0.009183022 -0.37343022 0.1655717 -0.045612916 -0.6803659 -0.13049194 0.1894858 0.04633931 0.33194742 -0.0876234 0.27113897 -0.13509624 0.23910065 -0.07246311 -0.45851764 -0.42378 -0.17877036 -0.10259119 0.4453082 0.2742965 0.41262972 0.24166775 -0.34223434 -0.24201873 -0.29423207
2477 -0.11304684 -0.15802063 -0.15062259 0.44953203 0.34006512 0.24563086 -0.069273956 0.24569225 0.13011459 0.036717907 -0.18339933 -0.07407866 -0.23890896 0.28234795 -0.06720177 -0.4411848 0.16152236 -0.004766023 -0.13263151 0.026568495 -0.07050142 -0.059451886 -0.16793412 -0.5107944 -0.30868143 -0.13766418 0.2589841 0.21871473 -0.026058242 0.014800276 -0.32338673 -0.17564538
2862 0.683107 -0.11560798 0.022331053 -0.15274213 0.38114232 -0.42650062 -0.18864647 0.51740116 0.5424599 -0.32325482 0.22482456 -0.12649527 0.21550165 0.4497276 -0.13735329 -0.06619797 0.11728999 -0.2701547 -0.091231756 0.320749 0.062091853 0.028332392 -0.022363393 -0.29323405 0.08827593 -0.34709203 0.41030934 0.16209371 0.50752085 -0.13191599 0.005104541 -0.046900515
2494 -0.06291443 -0.087110154 -0.48741683 0.34545302 0.14317243 -0.037445888 -0.7236587 0.2708239 0.22317442 0.25645995 0.16753507 -0.0043996596 -0.5179646 0.39332485 -0.0007267046 0.30015817 -0.110153005 0.010218049 -0.11626034 -0.16016206 0.1218189 -0.19710854 0.0374122 -0.2269778 -0.49412468 -0.10338769 0.013421082 0.4562849 0.11393925 -0.10823461 -0.16121404 0.1775912
2550 -0.04664868 -0.035060383 -0.09843053 0.25737426 0.29489145 -0.08346788 -0.37486416 -0.13033582 0.23577839 0.12185258 0.09623082 -0.13617416 -0.14918713 0.029565275 -0.35883614 0.16907497 -0.076001115 0.11307823 0.064331844 0.6141471 -0.03784597 -0.3225054 -0.12814318 -0.18439204 -0.27769908 -0.050829675 0.37980846 0.35439268 -0.015466736 -0.37544322 -0.19941142 -0.17272377
376 0.31410068 -0.20470901 -0.115278356 0.13710898 -0.121890225 0.052513745 0.20735958 0.059629977 -0.06895635 -0.10016683 0.14620918 -0.054696307 -0.13650379 -0.06336608 0.3252516 0.16506648 -0.27485773 -0.020147402 0.44771624 0.1298107 -0.045987353 0.09609305 0.1009172 -0.12003031 -0.03076222 -0.34991413 0.4021045 0.28444362 0.5477212 0.19961292 -0.06862232 0.25503665
2570 -0.33438978 -0.33853155 -0.36772466 0.18966524 0.16453005 0.23853236 -0.18550812 -0.20780286 -0.24861735 -0.21571615 0.055268873 0.14060606 -0.2202279 0.57220143 -0.02551261 -0.2101434 0.0725137 -0.39752665 0.5117871 -0.43506175 -0.036555793 0.13867094 -0.35971153 -0.5546044 -0.13876833 -0.03824415 0.33214146 0.15869753 0.23668301 -0.46460864 0.022532923 -0.0494299
1194 0.14714602 0.0040473514 0.37067527 0.32307723 0.19959684 0.30386317 0.27150425 0.08600175 0.20397352 0.02060934 0.07964433 -0.22120616 -0.101778574 0.101280116 -0.03586963 -0.030099362 -0.22642618 0.23775111 0.29305014 0.060132574 0.23027672 0.03342357 -0.17128585 -0.14098647 0.08460817 -0.4796672 -0.17795418 0.18397452 0.46281183 -0.09768457 -0.4254579 -0.06753718
2504 -0.6089653 0.027577527 0.21422754 0.29050794 0.60200685 0.18812758 -0.44769478 0.08823873 -0.14052585 0.035453342 0.14360052 -0.003087515 0.02996046 0.467786 0.34330633 -0.30177894 -0.08762718 0.15864386 0.2589951 0.23593453 0.26811403 0.1936085 0.24424964 -0.101219244 -0.08919511 -0.37030628 0.39768973 -0.2519751 0.032103278 -0.39920813 0.30134127 -0.0628652
14 0.1504962 -0.13871285 -0.114243515 0.46400398 -0.19562674 -0.021773176 -0.37374055 0.015370713 -0.11778957 -0.045070026 0.06333761 0.21702802 0.10855106 0.30406845 0.19366726 0.38946614 -0.52899486 -0.0062554693 0.5802682 0.27606854 -0.21002716 0.8129076 0.21844926 -0.1892138 -0.1555717 -0.15905003 -0.11440568 0.5897413 0.1960103 -0.4568993 -0.1397122 0.08048247
2611 -0.29432404 0.31361395 0.08867522 0.3739687 0.13783067 -0.5372299 0.73126745 -0.12035518 0.30165783 0.29147387 0.41592646 -0.070874244 0.18948771 0.25241908 0.07885932 -0.31026962 0.1331556 0.66684115 0.05769375 0.24706337 0.49313724 0.1686094 -0.12350019 -0.5980935 -0.24757728 -0.30528873 -0.34488988 0.06531544 0.86991817 -0.3498695 -0.50321436 -0.64275676
2650 0.11739746 -0.15362969 -0.17358099 0.17133816 0.52227384 -0.13907298 -0.39236608 -0.1308204 -0.08968322 -0.32005894 0.21860343 0.17192642 0.15754336 -0.12835039 0.011911264 -0.07555798 -0.34207252 0.13944569 0.13920726 0.43200904 -0.11440991 -0.28339466 0.16777746 -0.44886023 -0.19867283 -0.15806663 0.22158006 -0.15359375 0.15590067 -0.7010895 0.3106096 0.16319948
219 0.081778936 0.22492048 -0.050753146 0.48180336 0.03827408 -0.15355629 -0.037682228 -0.14503147 0.0069463938 -0.03643172 -0.04386674 -0.1837365 -0.013097256 0.40585825 0.08284507 -0.015468981 -0.19334364 -0.012451727 0.9024975 -0.16960868 -0.15002835 -0.17336583 0.05344735 -0.2512141 -0.13889265 -0.13733448 0.09400274 -0.04773817 0.37053487 -0.050266445 -0.06620274 0.15611029
2527 -0.31383976 -0.36793837 -0.21416079 0.29094672 0.44078583 -0.03585812 -0.020636085 0.34163502 -0.6897584 0.22402103 -0.082416326 -0.20564084 -0.6581808 0.3303309 0.2543076 0.16941406 -0.17403427 0.10731565 0.018050812 -0.03198687 0.2765206 -0.25119135 -0.5017609 0.13964604 -0.0057053813 0.29544958 -0.19926205 0.1921587 1.375777 -0.027204692 0.50571495 -0.50251144
2665 -0.20649272 -0.28963614 0.26481542 0.40836075 -0.24981196 0.3449132 -0.056250405 -0.46245137 -0.12393321 0.37571496 0.099171095 0.08671834 -0.28817305 0.070103176 -1.2341033 0.49090353 0.14346309 0.16671403 0.19873482 0.20066136 -0.1548423 -0.5252982 0.21551836 -0.21178131 0.05385018 0.19433253 0.41215694 0.15853533 0.59109277 -0.5722438 0.117664225 0.35213968
2676 0.13508722 0.14655717 -0.020713564 0.40648726 -0.35130605 0.0154929375 -0.2545625 0.048464134 -0.0038682346 0.10032449 0.07546045 0.38376024 0.14924541 0.78194934 -0.022271607 -0.16870019 0.2818236 0.49573582 0.37940046 1.0142763 0.28402334 0.15685809 -0.2592257 -0.4366587 0.27720866 0.2858524 -0.15744835 0.26821172 0.13259591 0.14052524 -0.12896086 0.0058393837
2714 -0.11384462 -0.26081365 -0.06379595 0.23035829 0.28734204 -0.11460575 0.08703939 -0.06865572 0.12796308 -0.019477602 0.16021581 0.055194207 -0.055223417 0.30830002 -0.059920292 -0.2498896 -0.09285711 0.40920526 -0.038781498 0.3278577 0.18854474 -0.10960816 0.074684374 -0.19223244 -0.02966938 -0.018346967 0.024181733 0.07633753 0.49405423 -0.07466564 -0.095156886 0.086984895
2803 -0.09078511 -0.12937464 -0.019889971 0.74583364 0.09705316 -0.3029146 0.51544285 -0.12529682 0.09215592 -0.115300074 0.6261785 0.36357814 0.09762958 -0.3296728 -0.08167553 0.03859359 -0.22493804 -0.08293504 -0.13817859 0.5237618 0.5040624 0.21265736 -0.3295587 -0.010730315 -0.44837493 0.25965482 0.09010713 -0.0712064 1.0983647 -0.43940312 0.24335957 -0.1163331
2805 -0.087515414 -0.11059064 -0.011843225 0.7659152 0.113857135 -0.30408892 0.52279204 -0.11271809 0.09364771 -0.12176159 0.63513255 0.36945745 0.104274735 -0.33717856 -0.07842082 0.036860313 -0.21660407 -0.083292484 -0.14603852 0.5180442 0.5022923 0.2225286 -0.325589 -0.0052287164 -0.44075158 0.251105 0.095448315 -0.08008506 1.0981795 -0.43426776 0.23440407 -0.123595834
2804 -0.09023732 -0.10436534 -0.018211018 0.77454644 0.11243673 -0.28255424 0.52713996 -0.13014486 0.09835035 -0.12357445 0.6183837 0.37993735 0.09795598 -0.32595852 -0.07134254 0.028959064 -0.22176912 -0.07622468 -0.13000536 0.5346403 0.506335 0.22681603 -0.3240872 0.0030037782 -0.43519562 0.2609217 0.08567818 -0.08712469 1.103012 -0.42471907 0.22750273 -0.14182356
2725 -0.46180874 -0.61093724 0.37942833 -0.2242406 0.10435531 -0.38473263 0.15035717 -0.082942635 -0.13943315 -0.15143876 0.090596765 -0.22410457 0.013053474 0.6116559 -0.3921898 0.13114403 -0.23279929 0.06477816 0.31506732 -0.07009063 -0.2810612 -0.07864277 -0.04745159 -0.49237555 -0.517734 -0.3101905 0.24318136 0.6839582 0.41084722 0.34795508 -0.2514732 0.12366233
2790 -0.50096685 -0.28455815 -0.3303988 0.36399725 -0.3631328 -0.20189692 -0.19757234 0.3696825 0.6665983 0.16994376 0.021188142 0.42560574 0.6713252 0.23952745 -0.110830635 0.83704907 -0.19781056 -0.09251371 0.096279204 -0.21849126 0.3145615 0.10922896 -0.28428164 -0.54631644 -0.15916622 -0.62708676 0.38166302 -0.13084139 0.16693321 -0.47133678 -0.31781608 0.51415116
21 0.2429102 0.13652024 -0.0062563745 0.23173434 0.028048687 0.14197373 0.2824636 0.15435319 0.3056283 0.1574354 0.2276651 -0.01332477 -0.18350421 0.35224032 0.22422521 -0.040990323 -0.36674452 0.03204921 0.3337863 -0.10680019 0.18729322 0.005805986 0.007691582 -0.45852157 -0.3099801 -0.2968631 0.29605168 -0.17413202 0.22926629 0.110516496 -0.36016533 -0.1801429
2574 0.017486626 0.028373953 -0.0041085295 0.42133498 0.022707798 0.21462695 -0.066807754 -0.16459334 0.25116658 0.053652532 -0.032574773 0.08048731 0.09280976 -0.044866063 0.07564414 -0.18881133 -0.30986682 -0.041400846 -0.16562353 0.27648628 -0.24681807 -0.23652218 -0.102508955 -0.21048698 0.13094807 -0.09738578 0.29413673 0.2541388 0.4183021 0.052174777 0.21932709 0.68377525
2747 -0.00019440755 0.14176239 0.23020218 0.29777372 0.09021158 0.089051135 -0.03684006 -0.03021628 -0.031372577 -0.1761967 0.017818615 0.005273158 0.16370958 0.34340274 -0.026946815 -0.070452824 -0.23209292 -0.10147819 -0.21243778 0.22540313 -0.20949382 -0.11765379 0.27279174 -0.41358602 0.06684494 -0.38582295 0.18364468 0.36611682 0.3434912 0.099798724 -0.20876455 0.16055539
63 -0.0016179594 0.18388799 0.29643726 0.31234023 0.08209811 0.4656139 -0.062247626 -0.20765789 0.24314752 -0.001750532 0.12357383 -0.1499634 -0.67499727 0.21081115 -0.1983532 0.046407133 -0.20299004 0.50050914 0.52727926 0.12747 0.017304761 -0.0152902 -0.20301425 -0.5916193 0.12043092 -0.01394347 -0.1081506 -0.3356283 0.33317834 -0.11702166 -0.3119925 0.0888386
2600 0.15216403 -0.1378589 0.13765079 0.33972386 0.14142771 0.10381886 -0.35261345 -0.43728045 -0.14783722 0.2338622 0.17247029 -0.0597955 0.3267648 0.15060136 -0.105337046 0.40391198 -0.045595985 0.4509134 -0.19852935 0.10321838 -0.16494927 -0.3477874 0.52006996 0.12363608 0.24175818 -0.34023303 0.5190457 0.117981195 0.7764283 -0.18410365 -0.15197082 -0.023660067
556 -0.4393369 -0.39659172 -0.41706762 0.63556284 -0.17247789 -0.21150233 0.2798712 0.60506487 0.73798066 -0.11706151 -0.12718885 0.53896785 0.2183635 0.15157871 -0.3142474 0.543429 -0.38868403 -0.3219952 0.30430493 -0.013210517 0.6217065 0.23552549 -0.019147197 -0.18420526 -0.028917313 0.116063446 0.15573579 -0.057431664 0.5230452 -0.39796746 0.014057416 0.12185707
2484 -0.29099753 -0.10237094 -0.07374225 0.3316917 -0.012360603 0.43974835 0.6487978 0.026575396 0.5564244 -0.3186202 0.6764813 0.17894673 -0.03378106 0.49083507 -0.032715466 -0.013579118 0.18233007 0.4828506 -0.40321165 0.088042654 -0.48625368 -0.34234545 0.00026377183 -0.1776256 0.25576815 -0.0977564 0.048404276 0.7848983 0.48128378 -0.47066987 0.65029126 -0.5114813
116 0.24053831 -0.21984294 -0.30967444 0.22949913 -0.35015047 -0.107264996 0.002476268 0.48735493 -0.20172311 0.13555048 0.60039324 -0.31579894 -0.032019243 0.08173047 0.18989064 0.08039304 -0.0084528215 -0.3356373 0.69785637 -0.01257138 0.4745304 -0.5597534 -0.1821621 -0.2959367 -0.06581084 -0.14820178 0.2411529 -0.059099317 0.19427457 -0.29268962 0.070715636 0.5414366
2697 -0.2633178 -0.40901172 -0.029055448 0.19590534 0.33577526 0.22650029 -0.012426774 0.12825081 0.22739805 -0.3327918 -0.1398099 -0.18977582 0.37135226 0.16620497 0.007404658 -0.3005421 0.1477478 0.05658618 0.07976167 0.16687705 0.29916453 -0.34326747 0.035340596 -0.32355666 -0.26270962 0.42394197 0.15578045 0.31833908 0.3272756 -0.074355714 0.013430875 0.36924413
1466 -0.25234285 -0.24466398 -0.7216049 0.36522242 0.13167344 -0.02286634 -0.2593857 0.504421 0.18117608 0.41628826 0.08933324 -0.084782265 -0.34443676 -0.08497541 -0.15211406 0.09627694 -0.21697418 -0.30447155 0.3906301 -0.07396142 0.13420725 0.06084609 0.49227995 -0.011844726 -0.27424443 -0.37360412 -0.086331904 0.5363266 0.4044306 -0.21322772 -0.23478007 -0.12102499
2598 0.33217496 -0.0742891 -0.6105215 -0.011426725 0.5301568 0.07253004 0.0039807814 -0.17739102 0.36175877 0.35760355 -0.11810203 0.5199002 0.42930886 0.3502678 0.056642167 0.11756477 0.54130334 0.6061482 0.24187224 0.19524977 -0.048295714 -0.34260404 0.52980554 -0.15299724 0.20687191 -0.28811243 0.8186126 0.22917978 0.5722686 0.38019276 -0.23758042 -0.47315615
2549 -0.03385371 -0.06409301 0.08553845 -0.19041982 0.45162198 0.12737449 0.021239806 0.002419513 -0.21175826 -0.13153802 -0.11129042 -0.45643267 0.4150921 0.16178785 0.0002970746 -0.10043939 -0.113726914 0.11065155 0.056901887 0.4792368 0.18706705 0.09038327 -0.11343581 -0.42327577 -0.13503526 -0.16437174 -0.014507862 0.16142635 0.7378202 0.07254638 -0.17389621 0.2887419
2584 0.13491754 0.35111856 0.037065726 0.63249576 0.8701323 0.39320764 0.1796064 0.42651173 -0.18524376 0.024167769 0.09042658 -0.24612586 0.09909436 0.09847594 -0.109276004 0.033898294 0.0036348288 -0.1390867 -0.28346065 0.29952347 -0.23846386 -0.09262001 0.31706113 -0.34694403 0.32307217 0.057297233 0.27871844 -0.12591572 0.38348162 -0.17487189 0.14157788 0.37937248
2752 -0.7302129 -0.15777865 0.41259775 0.3545213 0.31449392 0.40806362 -0.6549054 0.6225246 0.25158334 0.2405113 -0.17427617 0.22256349 0.42152354 0.41270334 -0.1654304 0.13764332 -0.15096903 -0.16420765 0.15736395 0.2735194 0.5459048 0.107059136 0.35644573 -0.41452008 -0.06211259 0.13310786 0.30394232 0.04069679 0.10801904 0.16498856 0.28637624 -0.081877686
2538 -0.07283702 0.18791424 -0.042260095 0.42336532 0.1280127 0.0935466 -0.26603094 -0.6456292 0.13269088 0.0408862 0.32845217 -0.31498384 0.1986193 0.5809815 0.18412928 -0.025525097 0.22451705 -0.21141095 0.45077816 -0.17085658 -0.054028045 0.004827198 -0.0041786935 -0.3741594 -0.08971839 -0.0012785513 0.36059 0.23391192 0.22471634 -0.26779935 0.122670196 0.17445032
1310 0.35863134 -0.29548433 0.35720056 0.18501888 -0.050189007 0.18904151 0.091339305 0.34764427 -0.15952978 0.20858537 0.27734178 0.052916847 -0.25736913 0.23701385 0.042985987 -0.22372045 0.043609664 0.33466303 0.4542821 -0.09666654 0.33011883 -0.48129848 -0.2774502 -0.004722289 -0.087490164 -0.3683397 -0.09667439 0.656039 0.19876464 0.019028107 -0.088475496 0.35016385
2571 -0.07392555 0.16540124 -0.025086494 0.38743746 0.11362043 0.0870113 -0.25370663 -0.664721 0.12825067 0.045886453 0.30685595 -0.3230477 0.19292732 0.5873049 0.16789523 -0.044292822 0.22081397 -0.22994852 0.47990084 -0.16040033 -0.048828855 -0.022096023 0.002236222 -0.3892906 -0.07351099 0.022937233 0.3967761 0.23251334 0.22491896 -0.26372528 0.10988257 0.16659789
2743 0.024244865 -0.098453216 0.06503404 0.0057082004 0.5182872 0.552632 -0.09027719 -0.12895855 0.19038795 0.16640566 -0.13465975 0.124500036 0.26368195 -0.024672924 -0.2517053 -0.047504053 0.026187072 0.101827346 -0.075767435 -0.11103435 -0.17743059 -0.03207891 0.3027902 -0.04463402 -0.22445738 -0.18072939 0.3325704 0.24481137 0.8678964 -0.106292166 -0.05158574 0.5965155
2711 0.16664481 -0.7005392 0.09123773 0.029276848 0.008993891 0.21265067 0.19104792 -0.05267835 0.4144915 0.031147255 -0.41165462 0.12836175 0.44160268 0.4477084 0.02374323 0.080188364 0.20800583 0.10178403 0.005324372 -0.064526476 -0.027062811 0.47786447 -0.24584557 -0.37202397 -0.010169601 0.051574897 0.50744456 -0.12266003 0.6737986 -0.5973352 0.066629745 0.09211722
2724 -0.071256615 0.3048368 0.014596903 0.36643797 0.02135985 -0.14633992 -0.022591637 0.043499492 -0.101676375 -0.19419003 -0.09773276 0.10439678 -0.078204945 0.28247103 0.2111332 0.1671306 -0.099958085 -0.05538463 -0.11635947 0.4540276 -0.28172955 -0.09412768 0.086670704 -0.36120224 -0.15511963 -0.3779573 0.30311257 0.38427538 0.20897092 -0.031370644 0.114990294 0.08429854
2720 -0.07784055 0.49967968 -0.2676299 0.3744161 -0.14471443 0.17606269 0.27291518 -0.26244313 0.1401864 0.29599613 0.09560019 -0.016194122 0.03384045 -0.10291201 -0.2542995 -0.15915143 -0.2345954 0.5428722 -0.21676148 0.28863886 -0.11479039 -0.21380794 -0.2880533 -0.82631254 0.13205165 -0.24766965 0.533265 0.18943353 0.12886213 -0.0020941715 0.11964955 0.42850843
264 0.0061121825 -0.15258783 0.027382713 0.37896872 0.27565467 0.2292411 0.35557103 -0.003729714 0.23899451 -0.18156782 0.25497854 0.25278783 -0.20187408 0.0016088646 0.04208949 0.33638248 -0.020505982 0.4545125 0.4951231 -0.19132292 -0.2352881 -0.26618117 -0.08316845 -0.3637489 0.16400123 4.522606e-05 0.16871357 0.46924603 0.26345095 -0.23715298 0.26744062 -0.07681813
195 0.4346933 0.048375603 -0.06049655 0.06779768 0.18477301 0.12534522 0.41712263 0.49504536 -0.0043819794 -0.24033451 0.27722192 -0.66636693 0.065080516 0.20867889 -0.053934224 0.26335698 -0.26953956 0.09810608 0.23164858 0.23652942 0.0045724176 -0.117101505 0.08190748 -0.8504581 0.1831516 -0.31751958 0.2683227 0.17050955 -0.10901931 -0.48822677 0.3673657 -0.32745555
2651 0.010727744 0.13284968 -0.29530042 0.15850976 -0.12665991 0.17343165 0.23175877 -0.24560048 0.065898 0.3073725 0.03697652 -0.012724711 0.06995678 0.02004424 -0.07338845 -0.3047541 -0.18842989 0.5858208 -0.117030226 0.4808106 -0.026788317 -0.08919861 -0.4595223 -0.76597357 0.031737387 -0.28088853 0.3123867 0.05460785 0.2675766 0.2484958 0.3421002 0.44279334
2457 -0.06852721 -0.40549013 -0.55944246 0.13912362 0.20946488 -0.27605692 -0.22263269 0.4950627 0.6515863 -0.28817216 -0.4262241 0.38666812 -0.0015522151 0.33603692 -0.35132533 0.3357768 -0.14091185 -0.13797115 0.26426157 0.42023048 0.53700393 0.05044782 -0.5611726 0.15025224 0.68799764 0.37039283 0.6346392 0.28888077 0.5289164 -0.5739568 -0.25494906 -0.00029270654
2608 -0.41732183 0.098617494 9.305449e-05 0.4526849 0.24287078 -0.41181567 0.12141095 0.057901736 0.13061646 0.4498188 0.0074177273 -0.022162974 -0.06408625 -0.03633948 0.2429735 -0.12723377 0.0013754328 0.02523461 0.057966456 0.17707328 0.16392665 -0.5316183 0.03804628 -0.355601 0.12833151 -0.33952373 0.091377884 0.15285005 0.4129428 -0.054250587 0.06013241 0.015847158
2546 -0.24724045 -0.00959949 -0.2370437 0.34061104 0.2956382 -0.24796334 -0.48649475 -0.097925246 0.16845743 0.16576938 -0.32143357 -0.08829802 -0.12528594 0.5445876 -0.08463615 0.25771883 -0.047479935 0.061986264 0.18218492 0.038788337 -0.063012846 -0.2488981 0.14409068 -0.19380413 0.061723396 -0.24952516 -0.24509051 0.03189919 0.6213477 -0.05501421 -0.078593105 0.08100133
2692 -0.08708422 -0.14258723 -0.206404 0.071317926 -0.06333033 0.07232012 -0.17680468 -0.033114485 -0.11285527 -0.26714623 -0.22093466 0.04231637 0.5434433 0.05062514 0.45222455 -0.039348703 0.12373832 0.12239879 0.023087418 0.21093939 0.10118264 -0.18010493 -0.14705075 -0.36740518 -0.30993146 -0.07120136 0.18399087 0.072343655 0.8144821 0.046996724 -0.32269454 0.09847869
2652 -0.066794924 0.28770253 -0.34630236 0.22579028 -0.027179034 0.22712804 0.34602472 -0.087383464 0.2400856 0.24745695 -0.11490567 -0.24513671 0.07420757 -0.097085945 -0.04210552 -0.13042656 -0.2581101 0.22983399 -0.1747889 0.4637802 -0.16596273 -0.07877229 -0.6276543 -0.68120784 0.033169717 -0.18452065 0.35540858 0.23252241 0.18521447 0.01534228 -0.15877073 0.51617706
2607 -0.41870087 0.12452169 -0.011740081 0.4641976 0.26780516 -0.3704313 0.12673272 0.062078785 0.14497809 0.413972 -0.0049426146 -0.046483956 -0.08333741 -0.04766495 0.25258827 -0.14588302 -0.024568548 -0.01011613 0.04543845 0.1808196 0.1307149 -0.53025436 0.014708103 -0.35634235 0.10893048 -0.32608426 0.061907355 0.15232523 0.40556708 -0.08363398 0.085936695 0.01990362
294 0.20287298 -0.15782882 -0.063250065 0.2841295 -0.09451519 -0.10085206 -0.029815758 0.44304037 0.06867023 -0.09547332 -0.019326078 -0.028906943 -0.26903495 0.06735581 0.2066644 0.09596408 -0.28311443 0.09967063 0.38387677 -0.19347239 -0.087255426 0.0036353082 -0.010666127 -0.34532002 -0.022816433 -0.10973328 0.2948108 0.20606954 0.332363 -0.23358427 -0.36505312 -0.058452364
2469 -0.008874414 -0.36336422 -0.25738442 0.36032662 0.11459722 0.027617732 0.1863047 -0.079230465 -0.12762287 -0.3179229 -0.007964523 -0.05600569 -0.2590175 0.35379985 0.13116153 -0.35255444 -0.19989261 0.19188742 -0.09074049 0.27651063 0.116163075 -0.41238946 -0.11357664 -0.16901472 0.048031665 -0.4517003 -0.47231045 0.061593678 0.25211862 -0.6612825 -0.11306183 0.17864233
1507 0.1695074 -0.11268963 -0.11074389 0.76687825 0.29640326 0.22135076 -0.14952795 -0.35548246 0.16777305 -0.38347378 0.042458687 0.11156088 -0.5436713 -0.23903269 0.1326657 0.15102907 -0.065505326 0.34214807 0.15658334 0.0998584 0.5710771 -0.15834983 -0.10003317 -0.45268854 -0.065191686 -0.13081609 0.22091863 -0.41697684 0.27336016 -0.020953335 -0.10209378 -0.32995677
198 -0.1629076 0.08696028 0.1925861 0.3000219 0.1262455 0.04592733 0.24985915 0.04414093 0.557799 0.039533805 0.08600202 -0.03222594 -0.0047432715 0.18684746 0.05300825 0.27838477 -0.14685443 0.53101623 0.4519341 0.22295311 0.30286407 -0.017113462 -0.30302888 -0.41052288 0.016145263 -0.4449628 -0.52222514 0.15935801 0.25161672 -0.43657172 -0.5142877 -0.24018613
1674 0.027245048 0.1625943 -0.20073119 0.40705174 0.029436074 0.03240717 0.025540184 0.5835455 -0.10657274 -0.011971788 -0.03108718 0.2551613 -0.18247756 -0.15929545 -0.30927745 -0.16501518 -0.30237043 -0.34983686 0.47909537 0.098968714 0.0401623 0.17862888 0.50810784 -0.40760398 0.03429706 -0.17963141 0.21213624 0.5368319 0.32011074 -0.020903869 -0.42793342 0.082370035
1461 -0.31636497 -0.01795682 -0.7022576 0.58545506 0.040394783 -0.11774926 -0.32594177 0.4809977 -0.40886623 0.3494251 -0.09936199 0.22879961 -0.37111193 -0.1162937 -0.26533127 0.09357128 -0.102484144 -0.3244702 0.6794868 0.16002384 -0.119619325 0.20565976 0.4093252 -0.086674914 -0.13876067 -0.35954964 0.00916013 0.44956982 0.42416435 -0.07624151 -0.52289546 0.0249419
2544 -0.21939658 0.053242393 0.014958624 0.3213387 0.43558273 -0.026351308 -0.10163267 0.04337923 0.20093109 0.34474146 -0.33717465 -0.27621514 0.060371887 0.36497816 0.31059805 -0.020412771 0.18787512 -0.028080931 0.22670355 0.29293555 -0.30713043 -0.4107037 -0.15346645 0.09754346 0.0315726 -0.17334683 -0.046863057 -0.047660735 0.7468168 0.11320279 0.30983764 0.2273505
2707 -0.13134305 -0.41766503 -0.24966134 0.4629228 0.35366204 0.48605207 -0.28871474 0.2983963 0.10571557 0.3431459 0.1794495 0.0263432 -0.13185605 -0.057455685 0.19323815 -0.0382328 0.010209855 0.13514432 -0.12046572 0.28404084 -0.2896599 0.57589406 -0.6546944 -0.4224753 -0.55177516 -0.090061404 0.6604214 0.07065787 -0.25432193 -0.20163387 -0.22062077 0.010068606
2666 -0.1948314 -0.11058335 0.025440427 0.30901223 0.03968242 0.30133283 -0.13133429 0.10067583 -0.4472284 0.15336135 -0.49581876 0.2966604 -0.45330125 0.29461664 -0.56577 0.103002064 0.05568021 0.032741904 0.103006534 0.19645831 -0.18312329 -0.024012892 -0.122892484 -0.5152602 -0.30562615 -0.057801373 0.16607675 0.05439548 0.34478688 -0.41478142 0.029378122 -0.0040436042
2658 0.17780787 -0.005375449 -0.05520678 0.012067947 0.20035212 -0.08510619 -0.21397811 0.18064351 0.4914681 0.11390799 -0.2024392 -0.0015200264 -0.341705 0.41035435 -0.15922841 -0.21957703 0.25547668 -0.38851976 0.37968147 0.21406336 0.20907255 -0.06451386 -0.04741778 -0.3296733 0.27808404 -0.05293001 0.5484072 -0.12674566 0.17947213 -0.6186901 0.014835888 0.4689275
669 -0.037714828 0.07192722 -0.10577934 0.21808225 -0.19979016 0.38365754 -0.022091819 0.23241016 0.6873154 0.5057263 -0.3685912 -0.3136269 0.016313056 0.066199675 0.21104193 -0.2518297 -0.40670633 -0.08560098 0.3366279 0.12966914 -0.14039484 0.0954973 0.2694045 0.10071674 -0.29510382 -0.26234502 0.094751894 0.46278313 0.3574937 -0.33161584 0.36061788 0.28277358
2583 0.21913847 0.19025533 -0.062797695 0.42859372 0.7334495 -0.054894704 0.058263436 0.318353 -0.20822601 -0.13985792 0.17418821 -0.3193959 0.22736064 0.476717 -0.1840072 0.17931488 -0.23270729 0.12711158 -0.07746291 0.18190792 -0.30698383 -0.16409183 0.41327658 -1.0544974 -0.15671413 0.345676 0.3059452 -0.2872622 0.012848265 -0.25429773 0.27023774 -0.074152745
406 0.4633225 0.4037895 -0.29386905 0.38520426 -0.2262893 0.35125095 0.23114294 0.41618255 0.14847697 0.023370802 0.1548517 -0.17757773 -0.110006616 0.17631596 0.31675237 0.20629485 -0.13826568 0.040346276 0.0023726658 0.23761752 -0.15734588 -0.31929109 0.16532199 -0.25642836 -0.22423987 -0.5817505 -0.01500803 0.26165533 0.19469495 -0.124293126 0.19476175 -0.09489797
110 0.37162626 -0.5434093 0.042378865 0.41052613 0.18251969 0.10917158 0.1177583 0.10755255 0.08145258 -0.0028196145 0.097711876 -0.057002105 -0.2664203 0.100407846 0.038109496 0.056578223 -0.0015325629 -0.117354974 0.58565444 0.17722964 -0.076873496 -0.38031444 -0.12606671 -0.29251757 -0.3000791 -0.3148408 -0.25069445 -0.08215391 0.19685276 -0.06938143 -0.033897627 -0.2500531
1159 -0.3086272 -0.22938819 -0.16034307 0.60735 -0.15983169 0.28944385 -0.7774819 0.191229 -0.21272935 0.370376 -0.13628562 -0.40840718 0.23753704 -0.20769328 0.068924814 -0.0701138 -0.33340052 -0.040925317 0.6894838 0.2300587 0.055078004 0.007844885 0.28704044 -0.25634447 -0.017134449 0.11889522 -0.12716472 0.2785083 0.4001233 -0.060328092 0.13369122 -0.29690704
187 -0.16298236 -0.24303909 0.044025943 -0.45053798 -0.20159099 0.56747776 -0.023252515 0.5539895 0.13454622 0.675089 0.3947494 -0.10163446 -0.31458798 -0.18760522 0.55327684 0.10687091 -0.25483552 -0.22331303 0.32414165 0.32389906 0.15309419 0.05437947 0.32784006 -0.31005588 -0.25661877 0.15168554 0.43357846 0.5169058 0.57404953 -0.2330501 0.23311585 -0.2370897
2741 0.008114907 0.0315492 -0.16803215 0.3217035 0.021662276 -0.0874474 -0.36225843 0.06728658 0.15737817 -0.2122524 0.10857022 0.23947012 -0.35575327 0.044997912 -0.17765938 -0.032589894 -0.026676463 -0.26180798 -0.24056984 -0.024174998 0.002392018 -0.1787924 0.11094935 -0.12433179 -0.40978634 -0.49571818 0.07640248 0.6157193 0.5494207 0.001768946 -0.08312652 0.21580909
204 -0.13285305 -0.1372472 0.5185684 0.5626677 0.12815051 -0.26945418 0.04812473 0.4457322 -0.18596287 -0.09679492 -0.011225109 -0.0062810327 -0.15479216 -0.07319678 -0.056911614 0.14362986 -0.4568718 0.30289325 0.3665646 0.16202672 0.02151716 0.14198008 0.074175775 -0.20016062 -0.3965322 0.0015996816 0.5988977 0.13192615 0.051039908 -0.07036948 -0.17210788 0.25719154
2678 -0.18941425 -0.082155235 -0.24188954 0.2090934 -0.059572354 0.6281425 -0.38367772 0.1498382 -0.2367466 0.1759032 -0.07132917 0.6416907 -0.13390063 0.4677532 -0.080975436 0.11820709 0.3535219 0.090201996 0.44564375 0.7089676 -0.15684496 0.42727315 -0.25499067 -0.22750445 0.36090228 -0.26041594 -0.016363077 0.065188766 0.3418986 0.03504693 -0.36721817 0.36141962
423 -0.20291108 -0.49713182 -0.120132804 0.34933662 -0.29376197 0.80215 0.032078337 0.6013869 0.5650147 0.13148598 0.45160422 0.027399482 0.26852122 0.46541592 0.14015725 0.3799621 0.0058937706 -0.10963629 0.22874157 0.3753461 0.17401063 -0.14877133 0.5591735 0.03470888 0.1536415 0.24707308 -0.10633513 0.37420332 0.26899305 0.06085943 0.035120696 -0.12399599
2710 -0.19679576 0.3532542 0.10744972 0.26917815 -0.12974462 0.34004664 -0.23594396 0.26767403 0.30463794 0.44778025 0.06320928 0.36050668 -0.08715771 0.514777 0.18574068 -0.056457277 0.052113444 0.07089426 0.027156843 0.34819323 -0.15387517 0.1478823 -0.013162343 -0.5214075 0.23789233 -0.029523956 -0.37712422 -0.015285072 0.5897392 -0.3078904 0.0032394095 0.056714885
2704 -0.020298835 -0.18234281 -0.090957254 0.3716147 0.19934128 0.22985347 -0.07918344 0.18306908 0.15032676 0.0728038 -0.18577702 0.00982022 -0.1826251 0.2814224 0.20912865 -0.35455167 0.007102941 -0.018116679 -0.09406165 0.2950152 -0.3014096 -0.019617787 -0.38656104 -0.32257482 -0.39952466 -0.0847589 0.37156308 0.36607113 -0.09143438 0.011090009 -0.18777762 -0.08699576
202 0.33033523 -0.016725782 -0.38200957 0.4887036 0.30629203 0.48683834 -0.09507594 -0.26218885 0.024499327 -0.028418574 0.12156928 -0.1654004 0.059728686 0.47463527 0.284985 0.12004896 -0.058913592 0.16647907 0.61320215 0.0129366275 0.13531543 -0.21857367 0.16331424 0.085665725 -0.22761513 -0.06900048 0.070509434 0.4558203 -0.03986161 -0.20234646 0.053974662 -0.2110902
310 0.16619517 0.08377478 0.06618652 0.21840854 0.48973456 0.26648596 0.22603352 0.2774914 -0.10215332 -0.15750773 -0.09331496 -0.19777739 -0.21446608 -0.13611485 0.050072156 0.029596334 -0.11904919 -0.07168029 0.6853941 0.56941885 0.12413271 0.0050760726 -0.004356558 -0.19616705 0.20189719 -0.31534725 -0.23260494 0.3235961 0.2688062 0.00019765097 -0.4673727 0.29364035
1538 0.1055569 -0.15298304 -0.2677894 0.17636529 -0.090231486 -0.4435182 0.15148005 0.52242005 0.11185204 0.0018902249 -0.056407474 -0.049644824 -0.3059385 0.33874673 -0.36466083 0.25889394 -0.11136657 -0.25661075 0.43517044 0.18995428 -0.16050164 -0.06468688 0.8246512 -0.52328175 -0.24707502 -0.15450315 0.18864517 0.60733783 0.23865598 0.0023937745 0.12944761 -0.2591157
2672 -0.11720583 -0.16881157 -0.2257161 -0.1312356 -0.11802043 0.07110728 -0.2837405 -0.1347041 0.0075534163 -0.26028293 -0.35661757 0.0488466 0.4406516 0.0038459885 0.5091815 -0.053125534 0.08049207 -0.11697046 0.2365872 0.23490222 0.038159274 -0.058906436 -0.25598636 -0.36867115 -0.28152776 -0.053913347 0.3093921 0.15176027 0.8898605 0.018728487 -0.3131165 0.019243587
1081 0.2625558 0.48249355 0.094204314 0.9773862 0.100442365 0.110950075 -0.39859882 0.09051846 -0.062014725 -0.05928206 -0.083435744 -0.29749423 0.3789121 0.24802332 0.1263815 0.0077063106 -0.43968984 0.16039875 0.36831018 0.053164657 -0.10168499 0.1492904 0.2995035 -0.5262502 -0.20103888 0.16388492 0.27834567 -0.100436985 0.021498045 -0.30527496 0.65955245 -0.24377337
135 0.26390827 -0.014993048 -0.22175054 0.13193738 -0.4780628 0.15683454 -0.067199506 0.89171934 0.05271311 -0.083974 0.3238311 -0.0855557 0.00069182634 0.2354855 0.39362475 0.42312193 -0.052470066 0.4608437 0.08782369 0.31846035 0.480162 -0.33817735 -0.20091556 -0.18472141 -0.061695345 0.19066615 0.30071694 0.17286165 0.29846972 -0.1916721 -0.1623369 0.048148677
1233 -0.053042717 -0.17701237 -0.22379254 0.13689296 0.0528195 0.11225324 0.33846748 0.23115923 -0.12384575 0.3604173 -0.20208365 -0.14814189 -0.14041351 0.24780136 -0.29725188 0.21901114 -0.28779173 -0.28821138 0.37914705 0.17755684 -0.020180205 0.075886026 0.6860635 -0.5206259 -0.5540305 -0.14120474 0.20582967 0.725232 0.13835904 -0.12377125 -0.043754604 -0.5713646
2684 0.03564887 0.2485207 -0.023621557 -0.31140906 -0.19931057 0.36295316 -0.083096944 0.7407016 -0.45526034 -0.008522378 0.52128494 -0.3166174 0.15709637 0.4340033 0.16376387 0.46896958 0.04361618 -0.019688547 -0.15077424 0.33406124 0.2897467 -0.6908369 -0.029405247 -0.68093115 -0.08674101 -0.26453644 0.31769648 0.13715144 0.28506586 -0.3142235 0.34143618 0.080944926
175 -0.113689624 0.012319531 -0.07206028 -0.14131136 -0.3513003 0.2482237 -0.030321935 -0.1562862 -0.23154633 0.015665568 -0.5260681 -0.19716008 0.24584593 -0.251684 0.60354084 0.3726394 -0.14846678 0.3363489 0.70272726 0.53020376 0.32230702 -0.07265332 0.40131715 -0.44610986 -0.25192857 0.03712455 0.283702 0.46837988 0.4496028 -0.19046794 -0.2689576 0.087668285
2595 -0.0974425 0.39792162 0.17233858 0.53619653 0.04005276 0.018745357 -0.17232378 -0.075650245 0.06898476 0.18466914 -0.293071 -0.25882477 -0.13075519 0.3261875 0.5178877 -0.08165811 -0.30905822 0.2445356 -0.11270822 0.49303925 -0.11148096 0.030365502 -0.20404391 0.0975399 -0.2536544 0.19060673 0.6751028 0.40681094 0.14770696 -0.21026067 -0.08060979 -0.10475177
2459 0.20186073 -0.16911277 -0.22373773 -0.04210663 0.19885552 0.13827533 -0.18646029 0.35701466 0.09226809 0.03017325 -0.16416606 -0.15514903 0.029145734 0.39995265 -0.30919763 0.099411935 0.052521233 -0.3834834 -0.08917461 -0.0705472 0.48785076 0.24241757 -0.33946124 -0.4346495 0.32160223 -0.37417683 0.50068843 0.10530734 0.5296032 -0.3795543 0.2568212 -0.019476112
64 0.17302454 -0.16505852 -0.09294035 0.17457217 0.059068117 -0.062169977 0.10432372 0.048284806 0.016157888 -0.15008666 0.22152922 -0.21208185 -0.15010531 0.38335136 -0.040938202 0.043399666 -0.5938029 0.047672167 0.47744176 -0.1966656 0.14481626 0.33942902 0.08497719 -0.11852195 0.0064426553 -0.13165714 0.3645585 0.28286 0.4916651 0.14847668 -0.041305464 0.29621518
1483 0.05724741 0.3243343 0.39946893 0.2437665 0.024980789 -0.013655975 0.18512964 0.19362883 0.2633617 0.15093459 0.33167377 0.30977908 -0.340707 -0.094739065 -0.02983574 -0.12392398 -0.19149755 0.2039172 0.22531892 0.10505858 0.515986 0.30963108 -0.1376661 -0.4454389 -0.3698466 -0.39601547 0.14305383 -0.00074912584 0.61500823 -0.06601058 -0.52425826 -0.4054586
2483 -0.015103259 -0.020519469 -0.35486177 0.14321089 0.4463399 0.38542423 0.039184652 0.06962811 0.034139894 -0.21143277 -0.2247355 -0.17095101 0.2646383 0.38193595 0.0120863505 -0.0040925723 -0.23248972 0.104175575 -0.17798656 -0.025261724 -0.46217078 -0.21232766 -0.2591017 -0.40352783 -0.08742725 -0.180791 0.0700229 0.04129632 0.6128859 0.066814326 -0.01807614 0.054075796
293 -0.26512897 0.20973964 -0.063991435 -0.03944254 0.37595293 0.46039596 0.14607677 0.16528603 0.0977431 0.33288595 0.022527803 -0.17856055 -0.07863534 0.14620383 0.4791524 0.23571803 -0.33538818 0.22935884 0.5858277 0.35364285 -0.08227942 -0.03343131 0.27299976 0.20278066 -0.48435494 -0.014183961 0.46882337 0.47452345 0.16599941 -0.33199134 0.11634199 -0.012120338
32 -0.014370057 0.3379085 0.042010978 0.5722671 0.15252733 0.6009954 -0.31446356 -0.012320633 -0.051913183 0.09356552 0.7699656 -0.15035188 0.0500112 0.44808218 0.34814158 -0.26692578 -0.11618927 0.329848 0.5698264 -0.10984206 0.09812569 0.1703987 -0.013121754 -0.06475719 -0.18262976 -0.2669798 0.06953793 -0.063675106 0.10270746 0.026168568 0.023995157 0.19714758
1690 0.012251256 -0.08243241 -0.2703119 0.45678747 0.17846617 0.28745574 0.33230674 0.6162175 -0.23393433 0.04295131 -0.1765268 0.06298612 -0.15293074 -0.34794855 -0.45033213 -0.24017204 -0.23850292 -0.4232271 0.3211314 -0.046338085 -0.30952162 0.06898901 0.61550325 -0.6141089 -0.15648125 -0.24633153 0.28639147 0.14004678 0.38816357 -0.18393706 -0.24865365 -0.01783681
2528 -0.14646938 -0.37464386 0.35398918 0.26914674 0.09127158 0.06228076 -0.31342575 0.017177867 0.20396425 -0.08374449 -0.04572458 -0.108204104 -0.11456146 0.5123955 -0.26554424 -0.26734826 -0.04406879 0.24313109 -0.2541422 0.046319865 -0.055839058 -0.05032977 0.049880598 0.062864475 -0.039084565 -0.37771937 0.098662116 0.15090467 0.54108167 -0.26419356 0.12195526 -0.007867879
2674 -0.26600435 0.06411604 0.09315597 -0.27849227 0.120365694 0.30951956 0.0016481894 -0.20859368 0.013773106 0.35490227 -0.043243412 -0.16030565 -0.060032163 0.2650649 0.19215931 0.50689286 -0.1233123 -0.3006013 0.20863785 0.57239157 0.13415973 0.13787934 0.07464742 -0.2946339 -0.08802635 -0.100035384 0.54100114 0.653851 0.3517272 -0.0730466 0.1632656 0.0477244
713 0.31081873 0.1381844 -0.31243247 0.7530435 0.09143123 0.0043840185 0.08254967 0.06697359 -0.065761216 0.07669671 0.22196238 -0.13655593 0.17945687 0.32915333 0.013162013 -0.02171359 0.21688595 -0.019756973 0.738135 0.009104742 0.25513077 -0.012974146 0.040694322 -0.15796141 -0.019457038 -0.05828067 0.13888241 0.14420485 0.30311152 0.3527436 0.19696602 0.24487644
1416 0.049786154 0.03144552 0.25704813 0.42923668 0.07443701 0.24805844 0.26422173 0.1250795 0.14974393 -0.026223209 0.04009733 -0.014248133 -0.041363668 0.0074869175 0.07922606 -0.06419257 -0.008207508 0.13627292 0.54892486 0.08811345 0.33213416 -0.17660268 -0.32111707 -0.25053936 0.0062017655 -0.23961991 -0.25160265 0.3211706 0.32324466 -0.09739652 -0.33625916 0.09618948
2647 0.2199751 0.002683589 -0.096098505 0.33356625 0.12289222 0.051728737 -0.58043915 -0.28212225 0.13243191 -0.22267917 -0.25475863 0.054494422 0.09961583 0.13965692 -0.15019256 -0.3095215 -0.28596994 0.009513908 0.117124304 0.55503887 0.04115022 -0.20049371 -0.0246598 -0.40751728 -0.08757356 0.011129909 0.24865457 0.25438052 0.08026776 -0.1871047 0.5119367 0.020663043
865 0.1281755 0.028570078 -0.04832296 0.42222422 -0.14679925 0.2280931 -0.2625028 -0.20716454 -0.0052900985 0.25573555 0.0213984 -0.39609703 -0.09400776 -0.13321137 -0.5097323 0.39259368 -0.52311397 0.31493556 0.299543 0.10412861 -0.33962825 -0.459096 0.5773516 -0.038194634 -0.04469913 -0.4061108 0.068637885 0.48296538 0.32820714 -0.530695 -0.0692306 -0.10748395
2742 0.17378029 -0.10986919 -0.10751927 0.34085792 0.19176035 0.069843486 0.09375487 0.06647042 0.2697094 0.08262433 -0.110925116 -0.24937673 -0.08459452 0.13056423 -0.1656785 -0.31200925 0.23356457 -0.03856177 -0.21064387 0.13908823 0.29424515 0.11006668 -0.2295418 -0.2992292 0.01997904 0.0951621 0.2180657 0.30636877 0.63253075 0.05618027 0.07322048 0.32668734
2754 0.059333716 -0.0060264254 -0.3666782 0.5115783 0.114186876 0.17835252 -0.5924452 -0.014968424 0.49085844 0.18698704 -0.18073668 -0.08654974 -0.11466369 0.25413573 0.29194766 0.22867094 0.1598204 0.1887233 -0.18577175 0.03625296 0.18400651 0.11312272 0.09950662 -0.32092914 -0.04846139 -0.5195316 0.03235147 0.07035281 0.069210574 -0.24390778 0.68483657 0.5699368
2547 -0.31530765 -0.14914064 -0.11756875 -0.14062844 0.26380947 0.07222829 -0.045463935 0.21446314 -0.04869174 -0.24187033 -0.39514875 -0.10899562 0.15370372 0.16915911 -0.060689066 0.15297152 0.015522615 -0.061085027 0.1766031 0.3259518 -0.08113319 -0.1158577 -0.05860366 -0.59335446 -0.21259989 -0.13424039 0.032360796 0.33766207 0.45604125 0.0010297738 -0.18587358 0.23854655
2696 0.018197251 -0.078014396 0.02806886 0.0031036206 -0.15132372 0.31285474 -0.17247061 -0.09420738 0.28906274 0.45356423 -0.05075646 0.006676579 -0.05906447 0.6249265 0.040634394 -0.070071355 -0.29060885 -0.14436407 -0.04233968 0.025213137 -0.040676318 -0.40893495 -0.040794656 -0.11661559 -0.3282508 -0.3078726 0.27284455 0.06542555 0.3348583 -0.047319766 0.025685681 0.29649243
90 0.47765836 -0.23584884 0.095489234 0.20094402 -0.09326915 0.003403779 0.09249181 0.3763862 0.7588462 0.5954045 0.4145919 -0.2470595 0.22678173 0.26377332 -0.011680479 0.11694308 -0.28583413 -0.514663 0.43541613 0.42451367 0.08942369 -0.1470495 0.25172278 0.070583254 -0.2815629 -0.35968095 0.10236711 -0.14840592 0.20386508 -0.46063533 -0.0773247 0.13896918
2509 0.09125333 -0.12094851 0.025057709 0.17868927 0.27401757 0.104608886 -0.18223302 0.29839236 0.17993727 0.026059946 -0.21813557 0.0709401 0.14822501 0.21207844 -0.18108425 0.04174755 -0.061340638 -0.27146465 -0.03375243 0.19811438 -0.13286045 -0.16325888 -0.13938434 -0.33563516 -0.1371685 0.04065594 0.10685129 0.23172764 0.55343467 0.043338485 -0.03425577 0.2922542
2535 -0.06599903 -0.0617445 -0.030786313 -0.11016829 -0.2354332 0.35563302 -0.17609018 0.4423727 -0.28362405 -0.17373328 0.6179752 -0.118214116 0.030514685 0.421513 0.25052267 0.35213396 0.022899918 -0.12983531 -0.02777988 0.4605664 0.15849832 -0.61554855 -0.07383922 -0.26047188 0.0153112365 0.15716138 0.1883534 0.3279611 0.3230966 -0.30395588 0.1494276 0.39963552
2719 -0.2717774 -0.3792415 0.17515731 0.067949735 0.15729293 0.0662703 -0.2405833 -0.096118316 0.2867816 0.2835037 -0.041723236 0.18095978 -0.07595314 0.0790208 0.047349587 -0.1327829 -0.26049754 0.020018093 0.1885635 0.22260073 -0.054351654 -0.2621096 -0.06268302 -0.33316 -0.3525649 0.07556444 0.44976658 0.16081305 0.05691252 -0.47585595 -0.08589277 -0.047970243
479 0.08103365 0.0044754874 0.0036193328 0.8513347 0.061094243 0.005010853 -0.19354406 0.19533548 0.40352786 0.14072588 -0.27694577 -0.22399178 -0.22849132 0.067187004 0.32294998 0.099831186 -0.17491283 0.1420622 0.45812717 0.16130142 -0.38097116 0.048368804 -0.01634082 -0.09861824 0.090031035 0.041775595 -0.08116806 0.16806926 0.281406 0.096367374 0.2794623 0.17349689
643 0.34731856 -0.4432082 -0.08446296 0.31167373 -0.2758986 0.6567663 0.076832876 0.4072456 0.010602314 0.31303886 0.24224357 0.072036006 0.4254993 0.33405864 0.23850118 -0.11606077 -0.29329124 -0.55651754 0.22923733 0.302689 0.032661602 -0.69963855 0.2979981 -0.10205665 -0.4888655 -0.49082038 0.0608505 -0.37584528 0.19479476 0.034324616 -0.47193348 -0.34925207
54 0.22013944 -0.04032412 0.09391857 0.3931834 0.41133058 0.3863316 -0.051122207 -0.2324468 0.3543366 -0.5275023 0.24855576 0.02290137 -0.25185978 0.02806417 0.36951086 0.25676644 0.044205282 0.14527988 0.41853926 0.30484095 0.30554515 0.061591033 -0.022347016 -0.18979502 -0.09316431 -0.240118 -0.15085106 -0.15362032 0.3248005 -0.3835378 0.11726932 -0.16721909
2618 -0.3792131 -0.10199013 -0.35625458 0.42084414 0.42404503 -0.22546409 0.20775263 0.32772905 0.27739972 0.13959165 -0.042461477 0.37830424 0.29889292 -0.050657433 0.01027176 0.04574423 0.055700663 -0.2652781 0.07308361 0.2583705 0.26601234 -0.37521136 -0.14432466 -0.36281416 -0.032695167 -0.28452015 0.09762226 0.11224668 0.30496284 -0.052573178 -0.109678864 0.1742505
103 0.21493818 -0.14027211 -0.30323207 0.48104653 -0.05868833 0.78873885 0.07659864 0.3639813 0.11723444 -0.028341748 0.22216125 0.28082076 -0.52348554 0.08768491 0.014246728 0.20012097 0.48865312 0.11578989 0.4646826 0.49039412 -0.16965853 -0.3372115 0.04664158 -0.49186113 -0.05464225 0.02227202 -0.102087185 -0.07807614 0.071879946 0.051379032 0.27761373 -0.2111855
100 0.18759131 -0.123469576 0.1691027 0.30878323 0.28922886 0.24566977 0.1703346 0.32963392 7.0475806e-05 -0.06166105 -0.018344337 0.007054478 -0.500151 0.04348711 0.12668855 0.056831084 -0.33543023 0.0860092 0.31631517 -0.148261 0.045757253 -0.3495636 -0.23417298 -0.20966884 0.08998212 -0.00063042965 0.084667556 0.24914399 0.4899134 -0.0020590413 0.094266355 -0.16696976
2681 0.254473 -0.285904 -0.26084536 0.05254031 0.401627 0.5947861 0.038906835 -0.11928172 0.18796949 0.40391615 -0.14188908 0.19690755 0.043596383 0.6396559 0.40292436 -0.29489553 -0.58862233 -0.26230654 0.021365937 0.19571243 0.21121721 -0.47516194 0.35070676 0.06670458 -0.30050912 -0.2613496 0.5320849 -0.31961685 0.099018425 -0.013769292 -0.29400524 -0.14571062
194 0.10491433 -0.16452098 0.20086315 0.5994983 0.26717892 0.11714075 0.13478358 -0.13578194 -0.008446709 -0.022952488 0.28551045 0.04844935 -0.09155262 -0.010722715 0.37666348 0.24368902 0.0070292945 -0.0045989994 0.4705607 -0.2795038 0.30677843 0.25420508 -0.24989535 -0.020228965 -0.085108966 0.028382376 -0.011992086 0.64360404 0.6604881 -0.25947684 0.13699554 -0.37288952
1268 0.48683178 -0.055490706 -0.37457672 0.0652029 -0.09302478 0.098366775 -0.44532135 0.43882385 0.09087622 0.18564273 0.66170955 0.14448172 -0.06725504 -0.036225878 -0.29924017 -0.20415924 -0.44221213 -0.2055395 0.52115846 0.0066890996 0.102305815 -0.1623759 0.23258439 0.004499058 -0.16609143 -0.06761487 0.06713283 0.34096816 0.66730607 -0.19402066 -0.29575145 0.09791892
93 -0.00042369505 -0.48876667 0.4395802 0.52738696 0.013756128 0.5996008 -0.016809065 0.26795128 -0.06101315 -0.18849878 -0.056175154 -0.2546052 -0.4160909 -0.11549292 0.2725635 0.30342704 0.15431137 0.61176735 0.07151663 0.109421 -0.0551993 -0.16657339 -0.021325441 -0.27496362 0.23135847 -0.22287074 0.066875875 -0.018393748 0.16171199 -0.18522853 -0.2780876 0.16862015
2575 -0.20411067 0.3968186 -0.26373386 0.407445 0.08651804 0.0856101 -0.5166561 -0.08597254 0.19786043 -0.23486915 -0.08307817 -0.09288751 -0.24230283 0.057417393 -0.20546666 0.16881192 -0.22924642 -0.2552967 0.030097427 0.29069003 -0.19052428 -0.055858754 0.08273482 0.09256633 -0.20004399 -0.5345019 0.22280698 -0.04818365 0.5331936 -0.05263714 -0.31508732 0.9258436
2751 -0.00036128808 -0.26877838 -0.20112236 0.06287911 -0.10392583 0.067015454 0.09672157 -0.18986 -0.018703744 -0.30814278 0.19428822 -0.02865841 0.01047007 0.023656981 0.2862416 0.15882613 -0.12930705 -0.47890332 -0.16143818 0.14789721 0.26981995 -0.062576525 0.017710112 -0.5477363 0.059280884 -0.573649 0.39183435 0.46995625 0.23972073 -0.10532633 0.09913189 0.24715143
2599 0.11177456 -0.29656217 -0.05419117 0.23946919 0.20507139 -0.18431732 -0.015733251 -0.2594473 -0.033785522 0.20712645 -0.26475605 -0.21983413 -0.114035435 0.19618803 0.2744579 -0.1704463 -0.08459405 0.43835112 -0.10344695 0.20914145 -0.00034636905 -0.30457136 0.18652713 -0.12586069 0.14359127 -0.18931071 0.5260084 0.4367298 0.29602996 0.053443145 -0.27573982 -0.117595285
1235 -0.14136317 0.026312457 0.53107214 0.40304306 0.0030770467 -0.06837265 0.12699312 0.09217673 0.0013105164 0.10949395 -0.11040825 -0.15820095 -0.20373161 0.39774802 0.088947445 0.012024809 -0.27619618 0.07364453 0.5654679 0.032736786 0.028650183 0.086843565 0.21744972 -0.049137693 -0.307778 -0.14137647 0.5846757 0.16240081 0.15131082 0.0947405 0.13120936 0.23792468
2701 0.07730833 -0.67746705 0.124226235 0.2313145 0.3008651 -0.070612274 -0.29060218 0.021917433 -0.0724679 -0.14161137 0.19315977 0.034580927 -0.2337911 0.13535321 0.22743952 -0.33131164 -0.18297997 -0.09218622 -0.086651675 0.05333751 -0.049774177 0.033131182 -0.044730436 -0.123233706 -0.37118423 -0.39447764 0.048202183 0.12580492 0.2751511 -0.43039092 -0.15846632 0.11691307
214 0.16974111 0.105495535 0.22988936 0.51674545 -0.61940086 0.16850112 -0.13594142 0.13737135 -0.029290391 -0.16003066 -0.18688358 0.59934676 0.22808512 0.04103819 0.17374404 -0.0154794995 0.2588707 0.19735974 0.8031275 0.65442806 0.4157079 0.048363194 -0.38187945 -0.34439543 -0.019838907 0.2094111 -0.33485207 0.28008386 0.6729016 0.23513089 -0.38028434 0.07220792
1148 0.59629005 -0.16241239 -0.10077878 0.3254189 -0.10738641 0.47360244 0.09484814 0.32761547 0.08527579 0.57042265 0.35329577 -0.26097545 0.15554518 0.09657446 -0.19120955 -0.26295215 -0.16544774 -0.10286146 0.21971796 0.10387596 -0.08387531 -0.07842389 0.18198362 0.019913418 -0.13048944 -0.32151887 0.451142 0.13415645 0.38950443 0.15660127 -0.5360457 -0.06900326
2625 -0.4000956 -0.40495384 0.070588484 0.4236166 -0.1807476 0.47043484 -0.24315849 0.0536578 0.08631824 -0.46788326 -0.231807 -0.056372058 0.1714335 0.10374069 -0.1755754 -0.07227201 0.053199664 0.06645777 0.054006178 0.356213 0.67964923 -0.50682724 0.43461964 -0.4300508 -0.27899587 0.63644636 0.3858475 0.091138154 0.060611404 -0.1346465 -0.22083604 0.41237295
2464 -0.4042991 -0.37946308 0.059823167 0.44440645 -0.18821344 0.46369392 -0.22525868 0.043898977 0.07008374 -0.47127882 -0.23722829 -0.074283555 0.17931585 0.11543905 -0.16720916 -0.061907895 0.023932852 0.076877035 0.032429755 0.34570488 0.6629348 -0.4925697 0.44598094 -0.43005177 -0.27807766 0.6156636 0.41429058 0.09473988 0.036941856 -0.1390962 -0.2240782 0.39962578
218 0.20619659 -0.30464828 -0.059025552 0.4383755 0.31282666 0.1447256 0.3003892 0.28027257 -0.26097807 -0.038774107 0.10626136 0.2561685 -0.058161333 0.21568169 0.18593013 0.017558917 -0.44451365 0.09820617 0.48896226 0.00017328838 -0.029408993 -0.061966106 -0.14840993 -0.1341261 -0.22702639 -0.21980351 0.51312274 0.039157555 -0.01746534 0.17924695 0.3481501 0.35688064
538 0.21618739 0.08831141 -0.018524233 0.55305994 -0.1281654 -0.04905347 -0.029955 -0.0032053 0.061292592 -0.100700505 -0.14727026 0.052895863 0.0026464136 0.13622527 0.13818939 -0.10937534 0.014010743 0.32506981 0.6730094 -0.17234516 -0.05281458 0.043250512 -0.0016508576 -0.31668526 0.11528674 -0.09850218 0.42120147 0.45620918 0.06239301 -0.12959822 -0.101873666 0.2658639
465 0.17469652 0.26448643 0.19610545 0.77050793 -0.04142871 -0.20122015 0.06773042 0.19145055 0.074531294 -0.1827772 -0.022840634 -0.19159864 0.1617121 0.06659325 0.39176977 0.25001127 -0.48550203 0.094430685 0.3061793 0.37828565 -0.19005026 0.28207147 -0.4376146 0.10105136 -0.33837864 0.1298768 0.53072184 0.4087038 0.22490598 -0.0645198 -0.06510847 -0.032245286
2523 0.005288474 -0.3146551 0.12984134 0.5368813 0.19759734 0.031345077 0.07589882 0.048278145 0.0011229324 -0.25274688 -0.1852942 0.10766484 -0.05343108 0.36791334 0.2754919 -0.2590939 0.19346532 0.03631438 0.053106602 0.41520786 -0.3116481 0.0010689816 0.08053055 -0.2326221 0.16248618 -0.023528583 0.18730178 0.08066961 0.16959943 -0.18579018 0.12656927 0.21837674
2791 -0.13389571 -0.102878615 -0.009128501 0.07211715 0.2114964 0.4583434 -0.5473287 0.30160686 -0.36218613 0.06398056 -0.48600122 0.1523368 0.0008430176 0.020751702 -0.11093652 0.0124815665 0.13170129 -0.33561805 0.13401453 -0.08278218 -0.30794787 -0.0013293576 -0.031451967 -0.5683807 -0.26043516 -0.5406866 0.2770076 0.27613384 0.43845955 -0.14832117 -0.31829536 -0.1945737
2706 -0.21123472 -0.34888357 -0.137658 0.16796136 0.28730655 0.14682189 0.3088218 0.2098359 -0.08203149 0.22015317 -0.049701456 0.23378345 -0.05622987 0.2596184 0.035998583 -0.3302541 -0.15568988 0.25786635 -0.18053587 0.28524294 -0.10364619 0.14032137 -0.33520257 -0.59528506 -0.06549457 -0.3742815 0.48017618 0.11998791 0.09485119 0.26603025 -0.12617227 -0.20748657
1540 0.13038592 0.34252748 0.1278009 0.107168026 -0.2538445 -0.25571185 0.4614699 0.016836554 0.17488527 -0.11485761 0.32067823 0.16055705 0.28234255 -0.2788384 0.31931418 0.13643436 0.03912437 0.1794748 0.42113277 0.27035955 0.6449046 -0.2585674 -0.3763076 -0.5087544 -0.5240875 -0.31145903 0.0603967 -0.15963282 1.00173 -0.13963807 -0.3751977 -0.3495473
1223 0.035531107 -0.15372287 -0.05387211 0.68303806 0.0077539016 0.02770445 0.20631711 0.5790394 0.27031443 0.0010711065 -0.055214666 -0.13211179 -0.006714267 -0.08129752 -0.17761627 -0.11484018 0.111485854 -0.19933498 0.46361434 0.45688066 -0.25951442 0.103366844 0.40370795 -0.259041 -0.58070534 -0.22391135 -0.10383475 0.38719442 -0.04779135 0.032892954 0.09712017 0.311376
2863 -0.16861315 -0.35571223 -0.13898537 0.40131527 0.061382536 -0.073880665 0.07112748 -0.1772181 0.17699462 -0.14159676 0.037301097 0.039915573 -0.18011677 0.32623172 -0.04023673 -0.39377376 -0.04698765 0.36075965 -0.07583181 0.54376745 0.32538742 -0.03797327 0.031856224 -0.2697855 0.065774545 -0.21333516 0.021784881 0.0048902677 0.29389206 0.1958197 -0.1912787 -0.11414528
2586 -0.11800799 -0.018515896 0.029493243 -0.19360869 0.0781877 -0.08146119 -0.1720256 -0.13168484 0.09735179 -0.1130419 0.11136655 -0.30747783 -0.09476564 0.19987932 -0.21081789 -0.105325796 0.01349911 0.606989 -0.03408149 0.24102679 -0.097591385 0.10618355 0.035988282 -0.6529977 -0.324214 -0.21435857 0.22322574 0.16013025 0.49455276 -0.13303007 -0.04396605 0.18167466
2482 -0.18449658 -0.10736787 -0.35211745 0.13661894 0.2485291 0.3108805 0.31240252 0.13121015 -0.08291801 -0.4652484 -0.07066187 0.04896676 0.042766124 0.24375488 0.06430077 -0.10986566 -0.08355132 -0.08498065 -0.2147233 -0.06782939 -0.31242567 -0.2604215 -0.021645753 -0.38939887 0.090295665 -0.22909546 0.21507575 0.08070663 0.8000029 0.25445014 -0.17076245 0.26358724
2474 0.020002853 0.4867854 -0.37014714 0.2998243 0.18114282 0.050442778 -0.39934856 0.22413513 0.15528964 -0.08145138 0.31976566 -0.01189597 -0.2231918 -0.1633326 -0.6886355 0.20880932 -0.08596154 -0.3756437 -0.1777765 -0.05436054 -0.049594615 -0.24177352 0.21604326 -0.31155175 -0.27742255 -0.378807 0.10680561 0.9249487 0.6731417 0.11702081 -0.384948 0.14556187
2470 0.05747349 -0.19897582 -0.55636066 0.27711225 0.23925991 -0.015805334 -0.77165157 0.09877422 0.050030597 0.37955225 0.07870858 -0.1503026 -0.6107914 0.3424718 0.058794446 0.34808713 -0.0701471 0.15565717 -0.11628196 -0.2524686 0.13593516 -0.112123914 -0.073149666 -0.11162148 -0.32758442 -0.20751882 0.02011427 0.38798502 0.34742177 -0.129492 -0.1527499 0.17442
2683 0.36072573 -0.24599397 -0.027097102 0.036564514 0.039641522 0.5821431 -0.12173409 -0.0031083669 0.26183674 0.4119494 0.2928625 0.056631874 0.0061250823 0.41465297 -0.03791316 -0.17534971 -0.37240064 -0.46680886 -0.21844439 0.28110412 0.21380737 -0.5595721 -0.08700344 -0.005766661 -0.33143893 -0.13871662 0.15144917 0.06521439 0.4387777 0.02813633 -0.2715283 -0.02682371
2715 -0.37687734 -0.12339025 -0.0879564 0.24686429 -0.013407772 0.13192403 -0.286383 0.1730653 0.45254013 -0.34845555 -0.09679149 0.010499909 0.3336301 0.17489102 0.032157168 -0.44359297 0.22264963 0.20300774 0.12748165 0.34010658 0.14904043 -0.29454836 -0.014258145 -0.71500945 -0.0486052 0.28575966 -0.0720963 0.12877752 0.43337253 0.2690275 -0.035741147 -0.06914095
2749 -0.29155296 -0.39981583 -0.33981404 0.59254956 0.10098542 -0.3692193 0.1523646 0.0661175 0.042038802 0.018326841 -0.09551476 0.14839901 -0.05131578 0.09233092 0.15434848 -0.07667395 -0.18846613 -0.087099165 -0.08577296 0.25331584 0.13263267 -0.4082286 -0.30060324 -0.34719637 0.17862181 -0.22664392 0.29180583 0.040971067 0.16823351 -0.04059644 0.07404413 -0.057474915
2564 0.34520623 -0.24200113 -0.0063993772 0.024240721 0.042801224 0.5933826 -0.14284642 0.014506904 0.25647134 0.43764275 0.27785116 0.043228295 0.023686765 0.3963826 -0.042721324 -0.20787421 -0.3750158 -0.48741147 -0.2108299 0.27101362 0.22108363 -0.57176954 -0.07641189 0.0008293828 -0.34800074 -0.15132241 0.1575816 0.09195227 0.42650804 0.010129464 -0.26720616 -0.014569198
2467 -0.38339245 -0.41165632 0.31756115 0.26686367 0.2485464 0.12199836 -0.06317084 -0.044919875 0.124268755 0.24062215 -0.28094798 -0.4005402 0.17528635 0.3575664 0.09029924 -0.10951675 0.0077545596 -0.0024042875 0.025175454 0.21548556 -0.04021797 0.03998327 -0.13549942 -0.25111723 0.059407678 0.07129561 0.12053765 0.066088416 0.61812496 -0.058918532 -0.14932697 -0.30713668
1379 -0.38698617 0.20047519 0.35444084 0.3783015 0.30013514 0.065030634 0.45389 -0.14017627 0.31509298 -0.3215422 0.48232675 0.35268188 -0.5300406 0.04368828 -0.1828738 0.36888024 -0.15598316 0.35472038 0.3142872 0.11968787 0.14153795 -0.14744662 -0.4688756 -0.08559954 -0.2592805 -0.09807143 0.12112148 -0.17211619 0.8534056 -0.248271 0.07756402 -0.32362816
153 0.022381807 0.493847 -0.2247644 0.35664782 -0.008854456 0.49512938 0.30323705 0.42036134 0.33296415 0.21894951 -0.08867969 0.07264368 -0.038852252 0.09488674 0.34519982 0.046154168 -0.16970138 0.34413978 0.24582808 0.05777381 -0.2912534 0.005919699 -0.035571016 -0.28460467 -0.31755 -0.11303663 0.0060965386 0.18186097 0.44212788 -0.16620877 0.19143713 -0.052090473
2601 -0.0069950707 -0.044135805 -0.022593478 0.27126116 -0.0025999413 0.008241179 0.02364103 -0.106993824 0.038211375 0.026732927 -0.04453309 0.019743722 0.037458297 0.2060611 0.21175945 -0.28214294 -0.27798977 0.1355306 -0.025266053 0.2565507 -0.14707279 -0.29202047 -0.08751165 -0.24220563 0.11496497 0.0549566 0.14092553 0.1275184 0.5678064 -0.0035600155 0.05973989 0.50397086
2590 -0.00282513 -0.06428214 -0.027101863 0.27654657 -0.004117818 0.023230325 0.019493697 -0.10556634 0.025067454 0.0202743 -0.052054103 0.023240058 0.045654807 0.19657882 0.21688105 -0.28906697 -0.27109048 0.14280888 -0.02946827 0.24757256 -0.15838261 -0.28876558 -0.09767866 -0.24330497 0.12710442 0.06353426 0.16691253 0.13237427 0.5589496 0.008112461 0.061228078 0.48895052
2588 0.01155828 -0.049207944 -0.0016515169 0.26538387 0.017459964 0.009283858 0.042401634 -0.11275639 0.025909292 0.0041232742 -0.061170906 0.0230213 0.05159282 0.19730723 0.22261144 -0.2891584 -0.27570707 0.13859338 -0.024784014 0.26686078 -0.14579159 -0.2942368 -0.103429355 -0.25410974 0.12410294 0.054047618 0.14549516 0.13320746 0.56609553 0.017245963 0.047626764 0.49874246
1120 0.033367183 -0.06658019 -0.5101122 0.7850347 -0.25507683 0.0699466 0.1698311 -0.106339455 -0.45896426 -0.23041154 0.25138095 -0.012615225 -0.06460944 0.2529211 0.13677391 0.17289053 -0.08822096 -0.30998233 0.6285266 0.2395273 -0.13331358 0.15327172 0.12716722 -0.19912039 -0.33938566 -0.41096038 0.1623655 0.5137211 -0.07881931 0.24982256 0.085225984 0.31740692
2748 -0.011618867 -0.23304398 -0.23772381 0.07253125 -0.112061985 0.0752252 0.13015416 -0.23849675 -0.0020828012 -0.3121961 0.19360864 -0.026725318 0.035498485 0.015526916 0.29591146 0.15161084 -0.110751264 -0.45848802 -0.15712339 0.13332315 0.30686933 -0.04708339 0.003297292 -0.5449492 0.056707885 -0.5396643 0.43475604 0.47657272 0.26813328 -0.08815499 0.088692546 0.24258739
876 0.1299129 -0.23571865 0.30447763 0.33270222 0.05422382 0.037148442 0.40300182 0.24830802 0.42278713 0.33685967 0.023553533 -0.01357484 0.1393725 -0.12908909 0.17467895 -0.1752402 0.2261935 0.2873245 0.36984414 -0.1061886 0.27724987 -0.20377135 -0.26843998 -0.06495509 0.24400276 -0.40758362 -0.015943885 0.85910654 0.47229668 -0.082379036 0.040900007 -0.08707183
295 0.15146907 -0.16512217 -0.0011204091 0.53701335 0.070965715 0.026783606 0.12026874 0.19066419 0.44419384 0.2883437 -0.060524486 -0.28433698 -0.24703903 -0.46269208 0.039122764 -0.1429143 -0.4433817 -0.07211584 0.43258265 0.19871552 -0.23030749 -0.033869144 -0.46648604 -0.27307025 -0.20771365 -0.043240447 0.22184296 -0.109922566 0.466402 0.14114091 0.10168793 0.14617245
146 -0.104080565 -0.1862105 0.2577152 0.46383312 -0.32165137 0.4944539 -0.34580263 0.29021257 0.34361285 -0.24979413 -0.32068974 -0.18092161 0.05357752 -0.051627133 0.06949266 -0.20181079 -0.22299255 0.2801198 0.34485695 0.08964977 0.42310306 -0.24263163 0.44238192 -0.35932633 -0.2786647 0.4653688 0.25729197 -0.13737062 0.24906966 -0.084312804 -0.028412482 0.4355868
