3296 32
1286 -0.10067016 0.047259673 -0.03174115 -0.00058387616 -0.13894464 0.24253537 0.18478477 -0.017173812 0.05601067 0.34696916 0.13826418 -0.017852824 0.19462079 -0.20773382 0.1016714 -0.15522772 -0.12155983 -0.12908559 0.17664967 -0.084113784 0.22392026 0.19167483 -0.11904303 -0.1797379 -0.180597 0.25448832 0.11598354 0.19480602 0.581116 0.02475877 -0.24993816 -0.16159265
107 -0.15746458 0.01507071 -0.14391619 -0.016223526 -0.1763521 0.3088042 0.14581458 -0.09117626 0.15410137 0.24483892 -0.06054683 0.0095449025 0.14198086 -0.14556226 0.21761133 -0.19244733 -0.15996352 -0.09978772 0.13981996 0.030438684 0.18576415 0.37324172 -0.19379944 -0.08925951 -0.16447638 0.30491564 0.02572641 0.29031417 0.4109217 -0.16449736 -0.21424897 -0.46681106
201 0.34971806 -0.19997637 0.04085162 -0.16931039 0.16289803 0.17029661 0.09747525 -0.06632007 0.13104166 0.32750678 0.19908959 -0.22881748 0.08156067 -0.3245659 0.1538275 -0.30296797 0.15542348 -0.25637147 0.22790599 0.076731 0.2383678 0.25570738 -0.24587442 -0.24747422 0.23739967 0.17216538 0.16542113 0.23994574 0.46431592 -0.17546564 -0.20908053 -0.001037821
1287 -0.06791052 -0.15583715 -0.2933085 -0.15283714 0.070587985 0.29075065 0.19456525 -0.019491106 -0.056588676 0.19294497 0.104944296 -0.013466262 0.2576413 -0.24557659 0.25560814 -0.31206274 -0.14767782 -0.0042790077 0.26583725 0.12142483 0.2999031 0.21613683 -0.36440864 -0.07798723 -0.13647105 0.20770735 0.1946468 0.22283891 0.33072367 -0.15114729 -0.17104365 -0.025271704
2553 -0.41492787 -0.09248397 -0.06016206 -0.11743848 -0.00018174133 0.3091826 0.4872029 0.08596022 0.57834756 0.14493248 0.4452116 -0.048713353 0.14677048 -0.020809256 0.46191475 -0.17162369 -0.100984685 0.56477165 0.27610335 -0.18209805 0.067837484 0.36521295 -0.35923824 -0.21117413 0.0036983115 0.16156323 0.20431311 0.23153941 0.26524186 -0.02828556 -0.36609077 -0.22712222
2556 0.21195367 -0.1316668 -0.55321187 -0.21279256 -0.2525184 -0.04808401 -0.46392682 -0.47460082 0.49653223 -0.48542297 0.10566671 0.3225572 0.16485626 -0.03012743 0.275952 -0.07645572 0.09024052 0.010211042 -0.27369 -0.10104745 0.17994589 0.55063057 0.38428476 -0.051837955 -0.09755168 0.5399762 0.17374879 -0.27381447 0.54735965 0.027065292 0.22376966 -0.0737113
2726 0.27544546 -0.0780683 -0.6604618 -0.49865156 0.5136107 0.3052166 -0.02937626 -0.504103 0.079623014 0.22201215 0.30973357 -0.257365 0.062881045 -0.38309687 0.22172609 -0.37395078 0.19919819 -0.065446764 0.24127752 0.2819807 0.06311364 0.48378488 -0.035378758 -0.07428237 0.37182757 0.09064202 0.26820755 -0.16436572 0.049228992 -0.036391743 -0.20956232 0.44043884
53 -0.14150836 -0.011251286 -0.18150353 0.0166918 -0.06104952 0.49823257 0.07291356 0.018492369 0.12476515 0.18615822 0.031312462 -0.092845544 0.2771316 -0.041207198 0.10436872 -0.30395132 -0.26780635 0.006286311 0.11202287 0.15293269 0.17261882 0.299509 -0.2057431 -0.17001559 -0.12761259 0.104707226 0.029817592 0.40099433 0.39803228 -0.18847364 -0.26425365 -0.35342336
78 0.18786184 0.05240338 0.07173066 0.06275148 -0.033605512 0.26659322 0.092459075 0.23048149 -0.076804124 0.14988284 -0.1397533 0.26072186 0.088986866 0.0691702 0.09042276 -0.27595407 0.015157853 -0.13609482 0.008242631 -0.0558414 0.20744814 0.24890849 -0.042960476 -0.10182015 -0.3500787 0.13182376 0.12278186 0.19001076 0.711076 0.08793435 -0.14009574 -0.13855135
56 -0.09887252 -0.10938148 -0.17015052 -0.22469524 -0.087138616 0.28845719 0.16988166 -0.15559143 0.018824125 0.20201398 0.14687213 -0.09023633 0.31421682 -0.00418223 0.17507613 -0.2623101 -0.1878073 -0.11467157 0.25681284 -0.08255421 0.19893265 0.3323662 -0.27097487 -0.06896534 -0.11138904 0.13457114 0.15046619 0.3274877 0.42459226 0.003983468 -0.33648843 -0.18935345
2657 -0.20308287 0.23486196 -0.49623013 -0.099851005 0.016115448 0.49139637 0.3298171 0.07287362 0.0380175 -0.118768394 0.054702524 0.061320305 0.0053691026 0.27326617 -0.26692337 0.13476387 -0.044433154 0.09801307 -0.20814842 -0.13782887 0.50696236 0.37958005 0.10546369 -0.048236307 0.39751658 -0.12682198 0.21017015 0.25284812 0.22779337 -0.07936591 0.24436873 -0.280379
80 0.41110358 0.16520163 -0.2968504 0.060359865 -0.16586776 0.23476678 -0.071185134 0.25056115 0.0048588505 0.03304285 -0.05254326 0.1374889 0.057976376 -0.056784965 0.48892567 -0.2888795 0.1472485 -0.253004 0.116722 0.15212767 0.14941366 0.56801176 -0.15153718 0.0064474437 -0.16807488 0.33177027 0.18096186 -0.20808367 0.46461603 0.03782033 -0.14885402 0.07413279
247 0.01659159 -0.010089475 -0.2116816 0.11202565 -0.32362196 0.36946592 -0.04286198 0.338797 0.09812014 -0.014794038 -0.11535259 0.2283338 -0.06973272 0.05825246 0.098675385 -0.035458505 0.1760495 -0.23027723 0.12513879 0.109614916 0.6487306 0.19791369 -0.32621795 -0.32942724 0.018569173 -0.06881134 0.37385336 -0.17586303 0.38187367 -0.024350274 -0.24077488 -0.09280316
2533 -0.123442575 0.24679442 0.05754157 -0.77714103 0.15194137 0.033547156 0.13947499 0.3124545 0.20705435 0.16563715 -0.15667903 0.34534156 -0.08267224 -0.06235364 -0.22018199 -0.3750734 -0.47674522 0.040673833 0.41173863 -0.78962904 0.21354277 0.45103505 0.2672414 -0.4644642 0.51529974 -0.033309616 0.37181312 0.0035291964 0.05176122 -0.10253503 0.24203043 -0.004169773
2695 0.2839837 -0.10964719 -0.52555627 -0.15091692 0.19691901 0.0739694 0.23669526 0.048026655 0.2818225 0.049395613 -0.26659387 0.09458433 0.1445229 -0.25944698 -0.40762305 0.24232902 0.013468687 -0.19887747 -0.10546501 -0.2913803 0.20559399 0.0365974 0.16105518 0.23421063 0.24740396 0.11258291 -0.12981102 0.21236289 0.3062712 -0.43001148 -0.866854 -0.20693098
2458 -0.21389024 0.1297863 -0.6149879 -0.004963523 0.20796283 0.7090832 -0.106098466 -0.004994503 -0.21336548 0.19828878 0.0478993 0.709245 -0.10723969 -0.44540662 -0.46211454 0.034537893 0.15380338 -0.03335866 -0.050786316 -0.14062443 0.41110003 0.26785266 0.27391574 -0.01701582 -0.061041746 -0.040693 0.15736873 0.24797466 -0.13797823 -0.11896733 0.14220311 0.21951672
1214 0.20913334 0.01579972 -0.017150603 0.056572307 0.17453799 0.45901397 0.31613272 0.03536703 0.010208128 -0.055676814 -0.14065899 -0.009243736 0.26733452 -0.16906501 0.008621493 -0.21329279 -0.08566883 -0.10066919 0.16039634 0.06349845 0.16123942 0.07653505 -0.17995198 -0.12936708 -0.2258815 0.26751447 0.1515375 0.12104175 0.52669287 0.044706304 -0.20871645 -0.03538786
2699 0.1447157 -0.36890364 -0.081883945 -0.45935115 0.2071653 0.15365793 0.1695814 0.5108873 -0.30104342 -0.05487457 -0.32641912 0.74203783 -0.31475675 -0.049728382 -0.2392248 -0.094002225 0.0321686 0.087822564 -0.40861905 -0.0067220875 -0.00875653 0.64588386 0.31049812 0.116412275 -0.17764807 0.20944807 -0.17977338 -0.42761543 0.6674219 -0.1473222 0.07313881 0.39085242
1117 0.20512344 -0.1788226 -0.26702118 -0.18404624 0.08698604 0.14729294 -0.10312696 -0.09075938 -0.3379226 0.4213903 -0.025973272 -0.06851236 -0.01702885 -0.47877634 0.09122989 -0.1885419 0.13957842 0.07688306 0.25695455 0.15142259 -0.012288414 0.15229398 -0.087913156 -0.25670597 0.04048633 0.26776746 0.19742948 -0.0101121925 0.81925917 -0.27721858 -0.0072052493 0.055316087
2468 0.402578 0.28712264 0.038352784 0.013119412 -0.1553686 0.2650721 0.042044055 0.091547 0.12626101 0.33464432 0.22499734 0.2117426 -0.38325506 0.37805685 -0.027041636 -0.21789615 0.39054692 0.13857557 -0.090291575 -0.41323015 0.011473413 0.27720365 0.374135 -0.08909363 0.25968045 0.45395172 0.50174385 0.27128303 0.11169181 -0.2685815 -0.21508838 -0.015356986
2485 -0.28014207 -0.011334522 0.118705414 -0.5109612 -0.056579202 0.38403615 -0.18625915 -0.10617246 0.6510348 0.3321978 0.007452522 -0.42471954 -0.33569717 -0.5651155 -0.32265204 -0.16654974 0.19427934 0.26488936 -0.27611542 -0.509782 0.31082922 0.6715724 0.24336739 0.021667762 -0.27542594 0.080920935 0.26455894 -0.023828313 0.17855366 -0.27058008 0.056526106 0.5574904
2669 -0.18241648 -0.052408747 -0.15326026 0.33676466 0.073988184 0.051059037 -0.115147285 -0.087476335 -0.13766277 0.40982908 -0.3398116 0.11482543 -0.14335237 0.08092097 -0.2554999 -0.18651408 0.07988228 0.70999074 0.59767383 -0.45916873 0.08345469 0.29213545 0.22021747 -0.28525898 -0.16446984 -0.27446657 -0.06030743 -0.5722008 0.8256521 -0.35079405 0.16106555 -0.12824497
1350 -0.08187649 -0.014827789 -0.048874907 0.037763797 0.049985822 0.15010361 0.11610772 0.02697565 0.06258886 0.23193881 0.13791528 0.109914206 0.144783 -0.21274793 -0.07899736 -0.28470248 -0.14498806 -0.0457478 0.109160416 -0.068018235 0.18663856 0.09238642 -0.11246042 -0.16172773 -0.3485721 0.3536244 0.32403103 0.32429817 0.5573029 0.2092912 -0.25681674 -0.22723483
2498 -0.22338076 -0.12568913 0.19820118 -0.33459827 -0.14582308 0.49423048 0.28261772 -0.5908238 0.27708104 0.26456434 0.28127357 0.04524199 0.008197592 0.04728896 0.15426151 0.20850572 0.067822136 -0.11522111 -0.07567526 -0.2674936 0.22072339 0.6527105 0.073567964 -0.35151178 0.28555387 0.08131572 -0.19583215 -0.11726583 0.2869465 0.29256767 -0.30433667 -0.4637441
97 -0.0997578 -0.11728645 -0.0061167474 -0.072168864 -0.09105657 0.31749833 0.047626827 -0.28642926 0.17255744 0.1955823 0.05129987 0.07150018 -0.01276897 -0.30391648 0.061980773 0.046064474 0.3142409 -0.5502482 -0.18023455 -0.011543881 0.101001665 0.6138606 -0.15496874 -0.4365852 -0.066260956 0.22964339 -0.012882664 -0.01596475 0.49952176 0.14378224 -0.1535541 -0.15575641
239 0.14293176 -0.19749166 0.01175719 -0.014868644 -0.069481835 0.2023683 0.23635595 0.122569084 -0.13619784 0.2681249 -0.16441365 0.20717305 0.030506857 0.07720179 -0.04196385 -0.38822752 0.057038058 -0.33507726 0.047266908 -0.016257232 0.18355496 0.32377297 -0.21698937 -0.018510755 0.045029223 0.27550185 0.12312192 -0.015151588 0.42127636 -0.057274066 -0.31042266 -0.06222935
2632 -0.3007948 0.0057302676 -0.1706906 0.2842424 0.09136428 0.18338332 0.5533018 0.39606193 0.17285086 0.73747146 -0.22250766 0.39313763 -0.02809903 0.13822037 0.508965 -0.20241398 0.17646182 0.3694943 0.031354323 -0.29340065 0.1330177 0.53226495 0.049454223 -0.07254271 -0.36826533 0.18993445 -0.042719528 0.0907412 0.28744426 0.4606755 -0.13522248 -0.6135832
182 0.06692079 0.02945042 0.37275174 -0.13130076 0.16454333 0.17884518 0.12142397 0.01605493 0.20596278 0.09535481 0.19183937 -0.02389553 0.064206704 0.057468783 -0.110339046 -0.5767536 -0.08005054 -0.02559365 0.1729724 -0.36829472 0.12632766 0.24161644 -0.2572158 -0.27006203 -0.38572472 0.13904476 0.1744632 0.34469938 0.43397427 -0.16123097 -0.20378782 -0.16812144
2733 0.15273507 0.1502496 0.2912467 0.17540245 0.14957222 0.32070962 0.6091056 -0.05182803 0.38118544 -0.0980521 0.111691065 0.27732688 -0.13797556 -0.06220884 0.19732806 -0.2824521 0.30971396 0.5620762 -0.081871495 -0.19494 0.10500699 0.21481214 0.033022795 -0.42154747 -0.17745773 -0.032300822 0.30560625 0.07985846 0.49708125 0.1843455 0.027263911 0.10793825
2668 -0.03895587 0.2598863 -0.47100952 -0.1573545 0.11844492 0.22996038 0.5225867 -0.13465254 0.07553438 -0.03151124 -0.049920276 -0.054430746 -0.13658561 0.11791359 0.003884864 -0.18025082 -0.11095017 0.22268672 0.014914974 -0.17083469 0.32804453 0.3019239 -0.20722155 -0.3526646 -0.09122208 0.0041908445 -0.5375324 -0.037909124 0.097676486 -0.3636876 -0.28791887 0.24763626
2512 0.40246797 -0.29424614 0.21148095 -0.33344513 0.29232043 0.1558843 0.14156778 0.31877854 0.04487657 0.12708493 0.38611758 0.5229011 -0.01588674 -0.35647187 -0.14013058 -0.038491063 -0.10259358 0.34410226 0.14551291 -0.17799558 0.4341501 0.4878884 -0.15428464 0.021528384 -0.0024382211 0.20383258 0.022287555 -0.25318927 0.059640773 -0.23003079 0.0049070376 -0.15155354
301 0.6077526 -0.22455926 -0.07493353 -0.29427332 -0.070357315 0.09868816 0.035703935 0.022995222 -0.39910346 0.14057532 0.2212085 0.09861039 0.15994717 0.06832539 -0.042386293 -0.5815142 0.113930665 -0.26784658 0.37601772 0.06373658 0.21455786 0.5559719 -0.32931122 0.22448422 0.2729512 0.4755888 0.118945844 -0.08029667 0.30734986 -0.035354923 -0.15784292 -0.039192643
2522 -0.26111177 -0.03149369 -0.426287 -0.3934361 0.2945672 0.3632861 0.3444158 -0.071494475 0.024552679 0.4138566 0.28508005 0.22499909 -0.3241396 0.034117274 0.017187463 -0.3890247 -0.11039763 0.4023199 -0.38777685 -0.19368464 -0.12646519 0.06489242 -0.095225 0.046937186 -0.10742181 -0.061012324 0.3713815 0.040098377 0.51712066 0.4650282 -0.15982792 -0.077454016
2606 -0.29771337 -0.274935 -0.40761414 -0.38308576 0.115696646 0.529447 0.51223004 0.15277044 0.36017874 0.14666677 0.3764485 -0.04080642 0.20327182 0.013004863 0.4463072 -0.14391838 -0.1478404 0.46990386 0.34919846 -0.062449604 0.28403205 0.5395817 -0.5416723 0.057760134 -0.2271853 0.03564713 0.12476991 0.15679286 -0.08400268 0.27079913 -0.26119024 -0.27283347
117 -0.016279612 -0.37258038 -0.004797822 -0.058164973 0.21726173 0.22650918 0.24395931 0.27207705 -0.1320116 0.16292585 0.07127076 0.19143178 0.22386841 -0.2098894 -0.031852785 -0.4144677 -0.21440925 0.008900008 -0.038235664 0.30804947 0.3455841 0.17773598 -0.05053329 0.19597754 -0.27382728 0.3077391 0.025527334 0.12166739 0.71184474 0.15079701 -0.13799435 -0.17720293
23 0.20904315 0.117662795 -0.17034112 0.11711487 0.010181842 0.44866127 0.08910445 0.07315249 -0.1866929 0.1807284 0.04825461 0.013348959 0.19366212 -0.31645617 0.17204458 -0.20156433 -0.27772456 0.079825215 0.24274313 0.1168614 0.18848675 0.1205619 -0.16685532 -0.45585883 -0.21464542 0.321639 0.13797396 0.15869564 0.4310309 -0.08226907 -0.07391953 0.18673962
84 0.009254268 -0.06019024 -0.15490384 -0.10738524 -0.2610227 0.5639966 -0.26532793 -0.09763671 -0.28439322 0.0902922 0.033625174 0.12200407 0.10330396 -0.070613325 -0.10036413 -0.24591991 -0.15356822 -0.14908463 0.11080125 0.05731095 -0.005732942 0.5989336 -0.12163852 -0.27683476 0.011629471 0.1398637 0.049460694 -0.0432584 0.47703302 0.021565279 -0.14124766 -0.13669538
2610 -0.04686997 -0.22897813 -0.11146882 -0.087496795 0.07277452 0.28291866 0.6648284 0.27913383 0.24982305 0.19817874 0.10089538 0.037239794 -0.036778875 0.24252038 0.39365518 -0.3207076 -0.21438847 0.33436728 -0.07431781 -0.13758612 -0.080144666 0.6204252 0.0061889184 0.053651664 0.04617329 0.0891869 -0.010096995 -0.03597206 0.37570843 -0.027903177 -0.0041833143 -0.15356186
2631 -0.24600984 0.11780437 -0.47693563 -0.10249899 0.040302403 0.49305323 0.15730016 0.10763927 -0.08279778 0.009482545 -0.0981129 0.31415385 -0.040994894 -0.025840165 -0.057170115 0.06881628 0.18442643 0.24143237 -0.020501686 0.16763349 0.50368464 0.35538825 0.21800174 0.013291851 0.1154682 0.043610487 0.1014791 0.26264757 0.15429954 -0.18541525 -0.08224205 0.0024792764
2525 0.063916355 -0.22121076 -0.6273459 -0.23206678 -0.116536185 0.61801106 0.12588976 -0.41093898 -0.08006639 0.13248524 0.3120211 0.115523435 -0.34327188 0.32304254 0.10282854 -0.13388036 -0.25347278 0.25171223 0.06612691 -0.3051428 -0.29936427 0.22100905 0.090641804 -0.15285459 -0.1365679 -0.23649971 0.23285897 0.07725105 0.62780344 0.35061848 0.07080543 0.0022592284
2718 0.03094306 0.045186084 -0.33982694 0.13549794 0.1124212 -0.000795562 0.25228038 -0.029566597 -0.039206058 0.5070719 0.1803534 0.1379789 -0.20665456 0.24065241 0.016741594 0.050042856 -0.48851773 0.04501136 0.009894654 -0.38913906 0.21144061 0.13642018 0.3745099 -0.55810356 -0.17378998 0.5495541 -0.15676495 -0.21760723 0.112260245 0.0011309488 -0.2920595 -0.13509652
2708 -0.11607693 -0.33345246 -0.45011997 -0.2604492 0.2402737 0.018132078 0.46205875 -0.021497894 0.013437804 0.3587638 0.11678097 0.22798717 0.12221318 0.5448878 0.03518809 -0.39124528 -0.029976351 0.081413314 0.03994983 -0.1563956 0.0065720696 0.46117467 0.07673455 -0.060218174 -0.16777676 0.059904303 0.2660833 -0.14634855 0.12671456 -0.15167958 0.056824148 0.115602255
2532 -0.014380102 0.108100355 0.11304349 -0.7175537 0.03776186 0.15048575 0.54207546 0.2694183 0.33604056 -0.24709885 -0.075667195 0.2624566 -0.12990376 -0.092900254 -0.10301675 -0.5327494 -0.6670968 -0.23929566 0.12120353 -0.84734875 0.16594243 0.35149476 0.53506935 -0.43453193 0.35950673 -0.46655616 0.5078863 -0.093160465 0.30009493 -0.037242875 0.29460883 -0.1434255
2648 0.15900196 0.04826503 -0.47963396 0.28734562 -0.2775626 0.790764 0.6358009 -0.016338415 0.6113317 0.12239858 -0.37487808 -0.44821966 -0.3859841 -0.11591987 0.47130919 -0.3639184 0.04370685 0.40981257 -0.028201308 -0.055607278 -0.13571087 0.65451205 -0.06731987 0.14225978 -0.27126876 -0.2619747 0.017756106 0.07034759 0.31617984 0.16112839 0.07858389 -0.5468048
173 0.16553245 -0.035759907 0.1341143 -0.18884966 -0.2960259 0.4528694 -0.14895497 -0.33127084 0.14750655 0.31943378 0.2993276 0.13434778 -0.05652742 0.30488405 -0.036628507 0.088169925 0.14645307 -0.5075834 0.17861098 0.1214604 0.17238806 0.30398932 -0.21672556 -0.5851298 0.05031399 0.5633244 -0.1897458 0.0031080178 0.44722736 -0.100970626 -0.08982918 -0.24924855
2698 0.15513426 -0.2379902 -0.18311994 -0.28004637 0.12460683 0.34868866 -0.042847108 0.3010434 0.03418312 0.26948655 0.34733948 0.4038007 0.12549403 -0.3127202 -0.24143825 -0.31959367 -0.1645593 -0.017281167 -0.14602731 -0.0155856935 0.5096524 0.20863304 0.4644032 0.0025513559 -0.19035633 -0.4180913 -0.19117746 -0.529844 0.234154 -0.18006533 -0.39724857 0.070310995
2734 0.15528876 -0.033680946 0.098599635 -0.25014305 -0.08519766 0.14587304 0.26081237 0.08758339 0.24750279 0.0023891893 0.42095375 -0.060123418 -0.1876407 0.16646202 -0.14249824 -0.41202924 0.24908833 0.38757086 0.014517327 -0.17625293 0.33546796 0.08014281 0.46871364 -0.123201534 0.25523484 0.1510445 0.39096302 0.22475006 0.43848467 0.2955223 -0.51252973 0.023426581
2727 0.16662738 0.11317377 -0.59226674 -0.13209614 0.45552954 -0.05422132 0.22360486 -0.64896184 -0.066762745 -0.14483787 -0.28709295 -0.07376579 -0.019812897 0.02302964 0.006500612 -0.06802156 0.30836836 -0.1810535 0.4366855 0.035055354 0.11488927 0.29662895 0.2609816 -0.21889722 0.37002388 0.22267282 0.12624744 -0.06062724 0.39335236 -0.0067335856 -0.48917526 0.2656591
2516 0.3473611 -0.23778662 -0.25485352 -0.10807343 0.43606803 0.26406825 -0.0366055 -0.06553741 0.19658814 0.3337266 0.29583555 -0.27801993 -0.05033642 -0.66009545 -0.094342 0.116021745 0.12034743 0.461526 0.022901876 0.33695334 0.35086578 0.28105327 -0.09016304 -0.60932714 0.35327744 0.11511529 -0.11821605 0.2684314 0.52402407 -0.020608118 0.19146666 0.08981704
2462 0.24187522 0.061136585 -0.32016352 -0.38612494 0.09273132 0.43734396 0.12558499 -0.22112527 0.33694544 0.081966385 0.038577396 0.17649674 0.16041663 0.12888923 -0.019690963 0.040602867 -0.12801348 0.17822617 0.39533725 0.036185812 0.16016291 0.034684576 0.22081362 -0.23101437 -0.24346662 0.21550477 -0.08701685 -0.023293309 0.21557832 -0.07308102 -0.23956077 0.13132511
2520 -0.04716654 -0.12772684 0.009352088 -0.1463882 0.08270545 0.17264637 0.28801504 0.15454282 0.49161127 0.20882778 0.26044267 0.17907074 0.05916456 0.0473736 0.10269369 -0.18897936 -0.051069498 0.40220928 0.109648414 -0.13092808 -0.05743648 0.43045205 -0.042733744 -0.11222638 -0.11664147 0.024357146 0.18783244 -0.069901235 0.43779886 -0.009905502 -0.22576465 -0.20597483
360 0.5910961 -0.14574511 0.056973934 -0.16850285 -0.038475655 0.23592487 -0.21378031 0.5971636 0.13763 0.078816324 0.35870913 0.3249423 0.049446613 -0.2348757 -0.12523997 -0.20342945 0.08764467 -0.40273112 -0.07467725 -0.12896147 0.42350006 0.30655554 -0.3033744 -0.31348825 -0.25216204 0.013625878 0.091097765 -0.3693725 0.2324068 -0.2092615 -0.2026784 -0.14179383
2609 -0.2789169 0.0025695898 -0.11173325 0.20944506 0.42159954 0.29396775 0.3997124 -0.25719637 0.40609023 -0.13704664 0.1336719 0.037443273 0.36427101 0.04520096 -0.06329959 -0.04563139 0.06943347 -0.08237668 0.36305022 -0.0434974 0.043653872 0.46895388 0.527722 0.012465738 -0.06310138 0.17625087 -0.20603628 0.074837364 0.42318785 -0.38294077 -0.10149059 0.39244804
2680 0.31084117 -0.13686526 -0.028153036 -0.2594395 -0.13922311 0.13816896 0.40288994 -0.22027896 0.12659623 -0.07334116 -0.020247873 0.10781319 -0.15039219 -0.1850858 -0.19920127 0.07777426 -0.30858254 0.38225314 0.5465623 0.0378226 0.31264138 0.25369745 -0.07504614 0.45156363 -0.019773426 0.22783051 0.27330363 -0.3486922 0.49903244 -0.4139889 -0.18532032 -0.13315566
206 -0.06751634 -0.10438281 -0.39952445 0.42934722 0.34712216 0.41575062 -0.21070524 0.23340401 0.024007201 0.06344442 -0.011884892 -0.1322544 0.3633522 0.24819887 0.019815668 0.28578344 0.00841184 -0.42553437 0.49010125 -0.20982379 0.34175247 0.1935135 -0.27064252 -0.21054931 0.042891894 -0.08140788 0.4174872 -0.13930966 0.51101696 -0.5545839 0.007686919 0.009251001
789 0.3350195 0.13651533 -0.14016396 0.14420481 0.015486422 0.295299 0.35310853 0.26298296 0.024598839 0.20997538 -0.01724442 0.21820612 0.20263769 0.15788865 -0.26708767 0.23344538 0.053128127 -0.17733386 0.24783659 -0.15934935 0.3510481 0.18108265 -0.9963198 -0.26099756 -0.23705782 0.23119344 0.31377286 -0.5372458 0.14725749 -0.48837307 0.05696198 -0.21653585
2716 0.043792874 -0.07731707 -0.3451603 0.09750218 0.13981168 0.37735254 0.39483324 -0.03018722 -0.15944012 0.6597143 0.025188472 -0.2611028 -0.08393412 0.015735114 0.6163448 0.017402798 -0.71216595 0.20136163 -0.037261106 -0.17156476 0.22969167 0.11813348 0.35627246 -0.53414005 0.14854248 0.10488556 -0.09934656 -0.08006471 0.29901353 -0.3514489 -0.2662181 0.27999175
2472 0.22752538 0.2884266 -0.40655816 0.20687433 0.56818694 0.3348115 -0.051289853 0.13037576 0.12615484 0.10899072 0.090337604 0.28022984 -0.4368098 -0.052782208 0.354221 0.032086242 0.12303959 -0.12398077 -0.38798386 -0.2348409 0.009998774 0.7646202 -0.11946901 -0.109589055 -0.178599 0.013542581 -0.029897476 -0.091693185 0.11107513 0.037071984 -0.24051796 0.029919205
59 -0.19286449 0.0655759 -0.03611524 0.3335466 0.047180884 -0.14910774 0.17071283 0.27438796 -0.16065453 0.6123303 -0.2774773 0.13639042 0.13184875 0.046964344 0.16678588 -0.43866363 -0.16246891 0.13290808 0.390182 -0.3312139 0.23139599 0.27484968 -0.09833188 -0.36232984 -0.3740702 0.22004816 0.06878048 -0.0974104 0.55395263 0.015966864 -0.20289293 -0.207268
2728 -0.059014183 -0.06364807 -0.20273739 -0.1374797 0.71270967 0.15440571 -0.03753966 -0.65307057 -0.03776728 -0.31043735 -0.27766293 0.35041788 -0.058658335 0.21894784 0.36450452 -0.13365941 0.24184711 0.3176894 -0.05534866 0.04108286 -0.09188674 -0.05023578 0.1135127 -0.18478835 0.20420031 0.36656988 0.59679276 -0.31913507 0.652089 -0.4111376 -0.217516 0.1455458
300 0.5111387 -0.19065194 -0.27067643 -0.10394437 -0.06279601 0.32737964 -0.13213104 0.47938666 -0.072857104 0.14074624 0.21910858 0.28936362 -0.2243519 -0.41577366 -0.29194862 -0.34873047 0.11010749 -0.18992347 0.21032602 0.1683015 0.4202258 0.07075559 -0.26525635 -0.3350596 -0.0028650295 0.37462935 0.05296775 -0.3086288 0.12614983 -0.20101471 0.16005678 -0.20193413
217 0.20384803 0.062728465 -0.2452115 -0.050270624 -0.29816103 0.6657673 0.1848567 -0.25688037 -0.28659692 -0.1271337 -0.15586665 -0.16529295 -0.203828 0.06508539 -0.12464974 -0.19924803 0.010790968 -0.0022942852 0.5037762 -0.014126798 0.10364806 0.26228917 -0.28141254 0.30060822 -0.37222284 0.073167816 0.037106033 -0.009639552 0.6422664 -0.07594044 -0.16935752 -0.23892525
83 -0.16352278 0.16868187 -0.03454342 0.31523532 0.13464251 0.62843865 0.039489426 0.015021413 0.09455425 0.11664276 0.05298114 -0.26196855 0.060812984 0.049777083 -0.03632949 -0.49098724 -0.10420113 0.17801175 -0.07260382 0.121358305 0.17778319 0.32037926 -0.1729653 -0.2384466 -0.19649 -0.14606239 -0.020743597 0.34500125 0.5881375 -0.2162914 0.06747247 -0.43242487
2479 0.6952904 -0.30467513 -0.35429877 -0.4548357 0.69338137 0.69406396 -0.10748072 0.021900369 -0.15053053 -0.41958404 0.031430822 0.24085419 0.40112337 -0.121767074 0.27716443 -0.33807275 -0.14212985 0.39948547 -0.3185642 0.06709484 0.08161075 0.105386734 0.24966553 0.40701634 0.03261698 0.46824872 0.3766334 -0.23196477 0.24897808 0.0102777295 0.09414864 0.22415756
2545 0.42317316 0.456945 -0.5610312 0.36115098 0.21044497 0.036667358 0.29067495 -0.13088386 0.12594108 0.37400576 -0.45292374 0.38556564 0.23067197 0.008670125 0.12802966 0.11045979 0.61588764 -0.122531466 0.15137707 -0.37287825 -0.09860315 0.310678 0.06508636 -0.015388195 0.06465926 0.5134388 0.02127871 0.118089676 0.13595402 -0.5743332 0.07136683 -0.10023451
2496 0.28633618 -0.053864248 -0.1435961 -0.019171845 -0.07370964 0.12522408 0.41174775 -0.22873133 -0.055156153 0.26541564 0.16274664 0.33440918 -0.10847731 -0.29515946 -0.06822314 -0.17653601 -0.0937774 0.31479248 0.054612737 -0.07193586 0.22329563 0.4505594 -0.09499513 0.32079744 0.19882078 0.22999145 0.42746815 -0.35337794 0.26309904 -0.1338026 0.18614393 -0.053112406
1339 -0.29456067 0.023388734 -0.03792895 -0.19679244 0.057000738 0.21998312 0.19288267 -0.13124552 0.20365284 0.27863234 0.2042425 -0.24868122 0.06152863 -0.010851138 0.40342575 -0.40282595 -0.38661566 -0.06925164 0.12191497 -0.018049238 0.20470956 0.29445845 -0.19590266 -0.28089663 -0.39798775 0.2828492 0.017232146 0.20899156 0.3708698 -0.23089622 -0.38817057 -0.16649336
2730 0.27307308 -0.36443284 -0.25296205 -0.21702239 0.16273172 0.07070697 0.018153138 -0.14568785 0.4579609 0.33326548 0.1586814 0.21940537 0.12773983 -0.26791286 -0.061140005 0.36285403 0.12385792 -0.1208458 -0.25952455 -0.117637426 0.34252915 -0.20299011 0.13436587 0.13978119 0.15956709 0.15511414 -0.143413 0.24793668 0.5980805 -0.5578988 -0.66777754 -0.24307998
2656 -0.36968496 0.1602589 -0.48313922 -0.025424324 -0.28790602 0.40040508 0.17533691 -0.05678989 -0.012783695 0.2005696 0.13345303 0.345189 0.009281072 0.10710798 0.07366559 0.10018702 0.434879 0.17035449 -0.12815282 0.20761031 0.84369844 0.37514567 -0.04314685 -0.15576068 -0.060464837 -0.34655684 0.22293498 0.050557144 0.1305148 -0.35009193 -0.11653331 0.09828898
205 0.28945142 -0.1330548 0.061071683 0.051383294 0.110949494 0.66451 0.027266778 0.26405758 0.07282678 0.06533775 -0.29085386 -0.18535383 0.068508886 0.16348816 -0.048853785 -0.5491975 -0.12569672 -0.13638856 -0.109816425 0.23500091 0.0528449 0.3262 0.16888848 0.13620947 -0.37958637 0.101077065 -0.0075874855 0.024894869 0.59477633 -0.23513584 -0.0008958901 -0.23673439
2493 0.40810868 0.6408898 -0.522713 0.015550127 0.10224091 0.15947765 0.1739248 -0.1021 0.2817234 0.22005154 0.24335949 0.21854992 -0.062288612 0.05361504 -0.17073403 0.35222068 -0.23869966 -0.376441 -0.17870581 0.12979421 0.1032825 0.34125534 -0.04739671 -0.13627787 -0.1932087 -0.073063895 0.41450778 -0.3217065 0.43642697 -0.12183756 -0.197245 0.009017943
2597 0.014840429 0.0006864719 0.0049608015 -0.37229356 0.32770985 0.30972117 0.10385203 -0.24635234 0.61281013 0.5388594 0.22640778 0.46639326 -0.54827344 -0.033265617 0.091624744 -0.106576174 -0.3119057 -0.46949512 0.05203862 -0.3618355 0.14840652 0.16736683 -0.066538855 0.36764514 0.44753167 -0.25662613 -0.32235947 0.39138263 0.9274778 -0.0019891057 0.22849931 0.48722526
2501 0.4894161 0.1372872 -0.08883712 -0.02254809 -0.1694327 0.08132129 0.40784732 -0.20197988 0.52922034 -0.2783225 0.3660346 -0.04156006 -0.2751557 0.30842215 -0.676249 -0.0084334025 -0.07661523 -0.043230098 0.11372475 -0.27949202 0.1604017 0.27426472 -0.07118328 -0.06424653 -0.33230343 -0.06997503 0.090490356 -0.006741048 0.3991443 -0.4539283 -0.2264924 0.13724501
129 0.35431728 -0.06233164 0.04100684 0.025467344 0.2413046 0.46947187 0.172164 0.04377544 -0.053025126 -0.122098505 0.0652778 0.13837785 0.10206579 -0.11381001 -0.010920997 -0.36432362 -0.2240944 -0.023558395 0.28620294 -0.06457015 0.17951564 -0.05327628 -0.28302082 0.10844526 -0.17160869 0.102277406 0.19281155 0.10160349 0.7040109 0.17188118 -0.1661221 0.03126809
180 0.15813665 0.0040239766 -0.27445307 0.13304785 0.069349885 0.41198578 -0.20215058 -0.2984201 0.07328568 0.14444347 -0.017819474 -0.30904198 -0.106683426 -0.3451912 0.32886237 -0.41182643 -0.16263689 -0.25122127 0.14169171 0.14693838 0.10342735 0.5702814 -0.029850593 -0.30563653 -0.09216039 0.17038459 -0.03866537 -0.15358262 0.50648886 0.010945712 0.18655811 0.0739955
2455 -0.14740807 0.14071105 -0.5667172 -0.17897467 0.02075414 0.3039237 0.25283295 -0.025494952 0.1654837 0.06531926 -0.1854499 0.24851064 -0.15837425 0.12993416 -0.3842049 -0.12919459 0.12197748 0.08314526 0.06634221 0.041610062 0.6305472 0.24782124 0.03175905 0.0018040686 0.30655456 -0.14327618 0.23950318 0.33876938 0.06880397 -0.05950548 0.12789416 -0.075629935
383 0.23087882 0.21562782 -0.117543526 0.30878428 -0.176811 0.08447927 -0.07843766 0.08977753 0.67806107 -0.21251486 0.5152933 0.15027845 -0.29124743 0.020810105 0.035125367 0.20878893 0.23879641 -0.7245211 0.14109029 -0.21320567 0.19050342 -0.036268 -0.084912166 -0.2409236 -0.07772166 0.27854314 0.16243239 -0.20019399 0.8731179 -0.33899817 -0.26507297 0.045118257
2456 0.006980685 0.019172972 -0.4319238 0.03105554 -0.1903165 0.38544568 0.012482936 0.31596988 0.17896111 0.07084238 -0.2693187 0.13192067 -0.3299514 0.09841939 -0.11323425 -0.49130335 0.09906731 0.4638012 0.22356807 -0.088900596 0.7661233 0.04352531 0.41019872 0.045987148 0.24833119 0.013662354 0.1581383 0.35517183 -0.0035841817 -0.32322654 0.094676204 0.08925528
2492 0.25967136 0.32147998 -0.476832 -0.11772635 0.7772319 0.19041213 -0.1989326 0.081936255 0.39306143 0.47876137 -0.48475644 0.26773933 0.108949065 0.6577137 -0.086210094 0.48141146 -0.21890461 -0.20700955 0.066269495 -0.109884545 0.5313684 0.28062752 -0.91595614 -0.3327185 0.077525936 -0.120192006 0.34966457 -0.3880348 0.13670105 -0.4020827 0.33114856 -0.19780174
2490 0.09709919 0.25091797 -0.30618128 -0.06717005 0.4203765 0.06813552 0.14016639 0.14327164 0.23657292 -0.11845092 0.13313463 0.10444673 -0.044144817 0.05521276 -0.22380888 -0.08274823 -0.054138638 0.24530324 0.09172691 -0.062131863 0.23995304 0.13907014 0.25865594 -0.0066428203 -0.08629146 0.16669989 0.22713792 0.093688086 0.51204354 0.43658894 -0.4408997 -0.09894733
2514 0.14306544 -0.009475097 -0.16896051 -0.2856167 -0.08027531 0.07139522 0.018435301 -0.019214934 -0.09296613 0.18155769 0.05622266 0.38449475 -0.24325685 -0.28156266 -0.25340074 -0.013532395 0.14916986 0.21396972 0.4181163 -0.028959325 0.2756306 0.42737198 0.05734491 0.395105 0.025164954 0.3038822 0.052881088 -0.49081397 0.24104327 -0.813071 -0.20903453 -0.22876504
1338 -0.0033342643 -0.059309676 0.042887542 -0.14530061 -0.16926496 0.2904248 0.17116357 -0.009094243 -0.008812376 0.21299396 0.07761633 0.08340628 -0.04459882 -0.11944933 0.16514428 -0.17883748 -0.33382633 -0.007985919 0.27187645 -0.089958325 0.41910094 0.076798685 -0.40190613 -0.07607128 -0.060333256 0.41855517 0.256699 0.349964 0.36527914 -0.19593261 -0.2651923 -0.040787935
2712 0.117153995 -0.26408175 -0.22673084 0.0035087622 0.39276567 -0.17774512 0.33332765 -0.08729156 -0.11373462 0.23118998 0.19889615 0.06851985 -0.06597484 -0.8139669 -0.041185115 0.03724788 -0.013423217 0.47545028 -0.115702055 0.22682108 0.44669032 0.24707992 -0.0061624344 -0.6371115 0.39170155 0.20697503 -0.03671695 0.076468386 0.69694495 -0.08824465 0.3341107 0.046435945
2539 0.13679726 -0.040072605 -0.32791275 0.07279848 0.48228067 0.08801903 -0.047106404 -0.16804138 0.17585744 0.33179134 -0.81330526 0.09491503 -0.036043625 0.10601246 -0.2563202 -0.07554518 0.38690215 0.31924692 0.5237327 -0.19106314 0.13630718 0.14318237 0.24529411 -0.3403679 -0.066127285 -0.24777831 0.096113086 -0.46468803 0.55170476 0.051586345 -0.121075764 0.02560807
1236 -0.5414392 0.37208906 -0.23098451 0.053111803 -0.15826514 0.35136878 0.3283039 0.09558482 -0.18749468 0.16109684 0.11948215 0.118449405 0.10856647 0.022791777 0.50926936 -0.2449555 0.087694176 0.19662455 -0.09272862 0.07264083 0.73897725 0.47265896 -0.5018271 -0.23988383 -0.18321177 -0.07989757 0.05980441 0.5051645 0.23343822 -0.19798563 -0.27689293 -0.2825288
2736 0.55083215 0.15437333 0.0012027154 -0.20212449 -0.068973124 0.39158124 -0.1660958 0.1224125 0.34254012 0.38626176 0.45564684 0.2508093 -0.11318063 0.18860844 0.21704961 -0.2962558 0.47098637 0.34571365 0.071008295 -0.4368896 -0.18525873 0.184394 0.056550153 -0.25938734 0.15907271 0.11799923 0.08524626 0.31454286 0.327904 0.050777793 -0.3461329 -0.2548767
2461 0.3264041 0.29468372 -0.5804936 -0.35666528 0.18247968 0.5309966 -0.033896822 -0.12780248 0.33068597 -0.14771312 0.043667655 0.31324667 0.17603801 0.16589333 -0.04169517 0.04275786 -0.07370334 0.121076226 0.4800825 -0.006059021 0.20942807 -0.2558123 0.28476855 -0.3571554 -0.38296384 0.12240408 -0.25822932 0.024903137 0.16606782 -0.16810033 -0.32669625 -0.021841567
2717 0.22348371 -0.06362157 -0.12002656 0.12888967 0.25067446 0.34032026 0.25290337 -0.24002278 0.19794571 0.19606191 0.16810554 0.22465026 -0.15984699 0.04313075 -0.12894076 0.093824334 -0.47563183 0.103084154 -0.17873588 -0.17129965 0.40091243 0.12784883 0.0872551 -0.378919 -0.40955633 0.48745015 0.21157366 -0.17385417 -0.19907103 -0.25374356 0.026961202 0.0076281065
2486 -0.17817248 -0.3784693 -0.7057365 -0.14730647 0.34133297 -0.023664135 0.42653975 0.32722786 -0.013170919 -0.003355212 0.3128955 0.2817453 -0.6954881 0.2596558 0.06825597 -0.27984956 -0.21393602 0.4263523 -0.2821974 0.019062916 -0.2377502 0.24299939 -0.34700897 0.12379806 -0.0153275505 0.6403975 0.23706883 -0.15300849 0.47779927 0.11759972 -0.16728128 -0.011980252
2478 0.26695988 -0.027662834 -0.35909963 -0.4925553 0.10956482 -0.09785862 0.31693283 -0.09121433 -0.18407275 0.056829352 0.17396441 -0.18670866 0.22583483 0.34620303 -0.10623332 0.026175717 0.1685341 0.28004935 0.40682358 -0.18164927 0.3244286 0.3727278 0.2068465 -0.4099092 -0.3489392 0.55068374 -0.045872953 -0.17900337 0.16573969 -0.18358427 0.07162748 0.14641738
1230 -0.09561598 0.09864571 0.06712539 -0.04717481 0.08276425 0.30772206 -0.07165629 0.036338076 0.10630756 0.30477816 0.1051229 0.07157417 0.14168689 -0.07296929 -0.2552486 -0.58418614 0.08130516 -0.014795605 0.07542593 -0.23969969 0.056542527 0.2473327 -0.2330106 -0.09996034 -0.31667563 0.20949143 0.18372422 0.40471467 0.35304728 -0.056207743 -0.25750476 -0.23448333
2552 -0.36847645 0.46126166 -0.25363383 0.1914479 0.6602006 -0.116879426 -0.26501966 0.3901727 0.16252117 -0.32412502 0.8256107 -0.18401429 -0.8086296 0.0037846628 -0.10538009 -0.19912572 0.059944376 -0.15549712 0.10197101 -0.35733187 0.53890586 0.2936173 0.24302585 -0.08133333 0.14482802 -0.052885227 0.2110995 -0.15514235 0.56118953 -0.5469879 -0.3301652 -0.46056673
2502 -0.06849065 -0.13921009 -0.22675075 -0.23062621 -0.17291808 0.47501752 -0.15151185 -0.105329484 0.5503348 0.6229393 -0.18867444 -0.11226987 -0.099538125 -0.31821728 -0.09282544 0.119285434 0.3967351 0.62831026 -0.4924914 -0.32698923 -0.19771026 0.28180328 0.013943825 -0.18395662 -0.2451986 0.39240956 0.5590373 0.05993331 0.30631548 -0.14129597 -0.037651747 0.09561159
2596 0.7680253 -0.2352323 -0.2775555 -0.3354691 0.00831769 0.014536803 0.1196771 -0.5018666 -0.0272034 0.5928677 0.22575296 -0.15221463 0.15510868 0.44472438 -0.1896697 -0.086111575 0.3801515 -0.44387785 0.07629506 0.16742599 0.1888241 0.5949634 0.08607682 -0.10760635 0.46397144 0.1302843 0.3935718 -0.006405443 0.15758091 -0.2721575 -0.15028237 -0.2091053
27 0.27691853 0.25422567 0.2594354 0.2775631 0.104952484 0.09751518 0.33146405 -0.017094735 0.10261594 0.057605665 0.22257672 0.3337309 0.0629352 -0.5431593 0.042720728 -0.5026091 0.17106809 0.023888092 0.023444727 0.18792054 0.24384128 0.31341273 -0.4435114 -0.340958 -0.13198604 0.37523338 0.23923591 0.08024192 0.5151118 -0.11867729 0.18864124 0.32018763
2862 -0.20898634 0.24537018 -0.5741984 -0.23685281 0.19817536 0.7593548 0.0035434382 0.24768901 -0.10680302 0.021287465 -0.28223345 0.28035158 -0.35111898 -0.07043169 -0.3205137 0.34131876 0.12069623 0.14910312 0.29648843 0.2543066 0.5431712 0.17201935 0.3546193 -0.0039083334 -0.022159873 0.22155076 0.34199345 0.23382911 0.036081854 -0.12939979 0.1350416 -0.115627185
1270 0.23067698 -0.16303165 -0.2757656 -0.37864566 0.14521398 0.27549526 -0.15023638 -0.16836074 0.13254488 -0.32297555 0.19428636 0.004234932 0.34540537 -0.4055908 0.23636082 -0.3206223 -0.113444455 -0.050155967 0.21837181 0.2291314 0.078301325 0.32937682 -0.33113006 -0.01104171 -0.00991458 0.56074375 0.15293264 -0.16124414 0.4173062 -0.16760956 -0.20220867 0.18445207
1194 -0.26007986 0.11804825 0.23018236 -0.17605606 0.050744835 0.28324196 0.15442654 0.1325556 0.07927422 -0.014706914 0.14595412 0.32953197 0.050534476 0.073850006 -0.24283545 -0.536406 -0.044729937 -0.052647173 0.3789183 -0.23003884 0.2269503 0.21416275 -0.3044957 -0.17985596 -0.12458923 0.26800835 0.18377918 0.30618742 0.2837885 -0.1524174 -0.12206402 -0.27510723
2713 -0.46820682 -0.4334064 -0.19682758 0.14973252 0.25380164 0.49845767 0.1707505 -0.29482758 0.55806935 0.015761714 -0.05028112 0.41257986 -0.24090028 -0.37117398 -0.11481162 -0.13733034 -0.07311254 0.13012733 -0.10741314 0.13699283 0.34299654 0.56451195 -0.08378237 -0.19706225 0.28039345 0.18015864 0.12065338 -0.51095706 -0.16170773 0.012102662 0.17865905 -0.23927625
14 0.7041099 -0.24981812 -0.2638975 -0.2460516 0.031974964 0.7182155 -0.22692055 0.1532391 0.14083208 -0.20445871 0.13743456 0.4133498 0.24407281 -0.055980396 0.3582084 -0.32726532 0.5473467 -0.35612518 0.09230753 -0.30575293 0.095833756 -0.3036992 -0.012867277 -0.24490003 -0.10733629 0.039898083 0.10375733 -0.033626534 0.23166044 -0.21117438 -0.369686 -0.17693338
98 0.01939125 -0.37766805 -0.05150757 -0.17980586 -0.09434526 0.16527885 -0.078976996 0.071717486 -0.031811345 -0.36686146 0.15002018 0.30474773 0.17628765 -0.1676358 -0.1678389 -0.2942431 -0.2519844 -0.2323039 0.0012838433 0.0687833 0.19913566 0.34787658 0.009268468 -0.20821115 -0.3227479 0.5982807 0.025133552 -0.18479647 0.4834503 -0.10963857 -0.15477686 0.07300695
2790 0.06355638 0.49452132 -0.1359122 -0.0019519253 0.6384527 0.091448456 -0.59777385 0.28084445 0.49694023 -0.12971544 0.5030437 -0.22435707 0.085983865 0.13621813 0.09226344 0.027228216 0.09573007 -0.28565842 0.3091853 -0.033421658 0.93338454 0.053775806 0.33370557 -0.14972012 0.23653394 -0.13808571 0.15937783 -0.39826363 0.57058424 -0.8911257 -0.012466719 0.03266198
2554 0.26400536 0.016551487 -0.34508136 0.17420253 -0.25438726 -0.08900613 -0.40261742 -0.34246597 0.28856444 -0.4377345 -0.037216242 0.20346047 0.20828667 -0.013660937 0.25937152 0.15105592 -0.031883515 -0.035982784 0.068199605 -0.14732072 0.61525095 0.81956613 0.26726723 -0.2938752 0.21545988 0.5478653 0.13863024 -0.1359192 0.15582445 0.067112565 -0.21036184 0.015264835
2746 0.18352492 -0.12742846 -0.5142218 -0.45255825 0.15488134 0.32386905 0.19038008 -0.11322813 0.32748768 -0.14571226 -0.075252116 0.33482483 0.12565696 0.04572478 0.053843793 -0.16332968 -0.13453905 0.23862089 0.3769104 -0.051696956 0.06854114 0.09072198 0.15047139 -0.107398376 -0.25123674 0.20313585 -0.25625545 0.007845614 0.16514324 -0.054659918 -0.2303078 0.014195314
2649 0.7093786 0.006043647 0.012290227 -0.050240353 -0.21593918 0.52583843 0.37304023 -0.019174336 0.36973226 0.167016 -0.37357354 -0.1589638 -0.09256232 0.34415773 0.25411782 -0.14471255 0.05425295 0.23638625 -0.16464154 0.17332508 0.6620245 0.16198331 0.14131479 -0.049307425 0.30737326 0.1319059 0.16689388 -0.34239313 0.09780448 0.02852573 -0.14529848 -0.25887093
2585 0.055278968 -0.15067543 -0.22029413 -0.17361309 0.08969757 0.13439476 -0.1215314 -0.26502284 0.2402304 0.22292198 0.10363526 0.41242006 -0.124205135 0.015119694 -0.029418781 -0.4884457 0.09821417 0.16842699 -0.05975925 -0.27924186 0.6923481 0.07875893 -0.032370433 -0.037390035 0.03159316 0.12981603 0.17387728 -0.24569008 -0.26851296 -0.20810492 -0.36928907 0.12421043
2521 -0.06670052 -0.07851022 -0.70811707 0.36905238 0.235454 -0.07471563 -0.219355 0.11508847 -0.05585369 0.6141286 -0.2204363 -0.09980372 -0.1694293 -0.011984125 -0.50254655 0.0920228 0.12123822 0.23757869 0.6833513 -0.20661217 0.33476156 0.37004772 0.30024475 -0.06633407 -0.085485384 -0.2123812 0.31414297 -0.33292878 0.51243913 -0.17952532 0.22379024 -0.17499314
2491 0.45022213 0.23641357 -0.2523449 0.05591337 0.45803007 0.17196123 0.12356615 0.102458656 0.32655403 -0.017217541 -0.20967358 0.30337828 -0.32009435 0.036748573 0.15308298 0.12245046 -0.04804398 -0.11286084 0.058821723 -0.34742132 0.42024973 0.39123675 -0.13942042 0.0130566815 -0.18241167 -0.10453413 0.28343275 -0.059195954 0.05709093 0.0866452 -0.30923194 0.07205801
433 0.066130124 0.20036115 0.17741416 0.015637537 -0.055220585 0.41383192 0.07867897 0.05125276 0.16183351 0.17666425 0.11860415 -0.016251666 0.16787636 -0.031033685 0.14806552 -0.5482754 -0.21181437 -0.008759909 0.12089057 -0.14268184 0.3058113 0.3722434 -0.058573116 0.05288764 -0.1977486 0.101363055 0.40963858 0.5619605 0.3373727 0.24964905 -0.3897058 -0.18718618
2714 -0.13846381 -0.18280117 0.009527314 -0.20896281 0.22345035 0.33919638 0.22603111 0.09755518 0.27484298 0.106148556 0.11431149 0.27846736 -0.25922707 0.15491518 0.06415411 -0.1316108 -0.08705036 0.3188488 -0.11715793 -0.24676959 0.13879377 0.32877317 0.0656929 -0.08247868 -0.116156735 0.22782643 0.14098588 0.046093833 0.17957592 -0.19358115 -0.088734746 0.0056335796
2476 0.21807103 0.46417683 -0.20494023 0.10843686 0.3302446 0.20068306 0.30049425 0.3484074 0.23117293 0.18560496 -0.03562397 0.53116447 0.2539089 -0.14737642 -0.21901584 -0.20508948 0.053246442 0.055497017 0.10725539 -0.025402293 0.22498594 0.12224548 0.2832363 -0.44790083 0.07359161 0.11399983 -0.017156888 -0.08245103 -0.04316684 -0.29032472 -0.46761128 0.39267403
116 -0.12391533 -0.12925085 -0.20674917 0.49240044 0.004447941 0.122344576 -0.1273935 0.23571424 -0.08867476 -0.10211909 -0.03189723 0.09494071 0.155559 -0.7010802 -0.042573206 -0.17585342 0.032467112 0.08293237 0.004594907 0.25626588 0.5979782 0.44934282 -0.05544327 -0.6705193 0.28467423 0.14952283 0.15473588 -0.114918284 0.5925802 -0.04228398 0.29313263 -0.040563226
1311 -0.4472594 0.117862366 -0.16084167 -0.26940536 -0.14768682 0.3375302 0.28637955 0.020720392 -0.11542854 0.0752064 -0.0024566676 -0.016681578 0.03311668 0.095900185 0.17515421 -0.42999187 -0.17798534 -0.26233852 -0.15346254 -0.14321822 0.41555896 0.6076594 -0.22174151 -0.030207029 -0.26460096 -0.006060779 0.14537023 0.35595614 0.2631496 -0.044708572 -0.19460414 -0.22681811
2534 0.353535 -0.4585085 -0.32221845 0.37845257 0.5471602 0.35599378 0.5549781 0.24104922 0.21250099 -0.24125525 0.26233715 0.096619606 -0.07650599 -0.06685592 -0.17296375 -0.10636721 -0.137065 0.565191 -0.23231298 0.074544236 0.28064466 -0.15719877 0.01363668 0.03403188 0.046692155 0.28848195 -0.3975857 -0.0035937168 0.7770029 0.384245 0.24653208 -0.26510134
1466 0.1489037 0.3093986 -0.3053673 0.39192227 0.14061435 0.22602612 0.3392485 0.66434944 0.20443276 0.08124066 0.045362957 0.2672678 -0.0054859365 -0.36314732 -0.06861966 -0.07817629 0.42277372 -0.47105896 0.1553689 -0.2807162 -0.006904144 0.21818124 -0.24812137 -0.17574172 0.023518551 0.37533188 -0.1623831 -0.36726844 0.20604178 -0.4909032 -0.48840275 0.23458269
94 -0.27737254 0.08625382 0.035256855 0.0791404 0.16646141 0.40562907 0.12107576 -0.048000652 0.047629587 0.19923909 -0.17915066 -0.032610472 -0.056871586 0.18933046 0.03771664 -0.49941933 -0.4497649 -0.058234084 -0.25379843 -0.17427023 0.06597363 0.4916376 -0.31290847 -0.38472834 -0.14295341 -0.086010575 0.04524718 0.3991491 0.3722798 -0.442345 -0.0039061254 -0.45892563
2555 0.019083597 -0.10809246 -0.5587721 0.08642449 -0.31103593 0.25183132 -0.11900193 0.05893066 0.10498071 -0.084092416 -0.0876397 0.23976499 0.33230746 0.057986345 -0.0075947777 0.043551475 -0.29451364 0.25217062 -0.4927119 -0.21785423 0.37866476 0.6479696 0.20594469 -0.07826156 0.19059551 0.06724209 -0.10002408 0.08446222 0.37706664 0.37805414 -0.26452562 0.016821627
2494 0.7046783 0.46355358 -0.36656642 0.1448742 0.36904714 -0.10935717 0.19002256 0.24748926 0.17687678 0.2892029 0.20069978 0.38060656 0.003993258 -0.29585138 0.19490083 -0.14147608 0.2416462 -0.15156218 0.020176874 0.15694311 0.3598439 0.49313316 -0.10186313 -0.18355528 -0.119929425 0.14625344 -0.025838552 -0.3032114 0.05084133 -0.2912272 -0.1250876 0.117932804
2570 0.29860735 0.36131164 -0.38448393 -0.03576757 -0.17854343 -0.0040231794 -0.053765286 -0.03896109 0.058504656 -0.42344195 -0.058063228 0.21961081 0.5812644 0.116604 0.42813072 0.24508546 0.18145598 0.42456543 -0.062078014 -0.73722196 0.65469897 0.39837798 -0.069500014 -0.28147236 -0.07434698 0.33974832 -0.23807861 -0.06753101 0.3178567 -0.03958517 -0.1795778 0.2802335
561 -0.068321966 0.05050465 0.22201338 -0.30254835 -0.15470602 0.3073884 0.04613088 0.31644365 0.18512881 -0.034428746 -0.060001124 0.060845844 0.066994995 -0.11742481 -0.27742568 -0.55098534 -0.47851136 -0.20094731 0.20547886 -0.3514366 0.096877895 0.5192504 0.08905842 -0.21960673 0.13367008 0.0070597157 0.31539208 0.35133296 0.32818967 -0.47810534 0.09792165 -0.2568649
2566 0.62626076 0.19823103 -0.2522963 -0.12450471 0.053274862 -0.052510854 -0.102293454 0.047410272 -0.6559338 0.20155212 -0.011529934 -0.052093618 -0.55952483 0.17745346 -0.245599 -0.4018111 0.10898293 0.54553694 -0.22409238 -0.42438784 0.36923265 0.51293623 -0.2724955 -0.011164441 0.5077426 0.13393119 -0.24442962 0.26204592 0.44230512 0.0043309284 -0.39696005 -0.06345133
1674 -0.10138932 -0.1513667 -0.51682436 -0.027620107 -0.018141048 0.5142561 0.379382 0.2899493 0.12102824 0.03423732 -0.07307341 0.21388766 0.28411254 -0.17990011 0.09494542 -0.19479826 0.066891655 -0.4032793 0.43364888 -0.04638276 0.11719214 -0.13414393 0.13035378 -0.39678186 -0.3008864 0.3826389 -0.2025522 0.063464075 0.099631436 -0.3288636 -0.4157985 0.38644996
2752 -0.008933369 0.37746143 0.055934444 -0.2263756 0.114713624 0.37102395 0.33651718 -0.22599557 -0.09260569 0.42371845 0.3369391 0.22943662 0.015049282 0.26340201 0.31356272 0.36767608 -0.038681027 -0.30167517 -0.27103034 -0.21433043 0.41106176 0.028408151 0.3067915 -0.59783804 0.5622109 0.46556836 -0.5697267 -0.5030562 0.39866486 -0.44458628 -0.21042278 -0.17118065
2691 0.30769718 -0.22280784 -0.11345368 0.3426653 0.47638106 0.5098209 -0.035641268 -0.13792187 0.2937078 0.1608221 0.012935546 0.085387595 0.37189668 -0.06772877 -0.113639876 0.14524248 -0.2953583 0.31151676 0.13170955 -0.65928614 0.20844227 0.15981112 0.00027488315 -0.12958166 0.11835286 -0.20453203 0.49644727 0.40490985 0.14463317 -0.34412608 0.079605184 0.06293074
2504 -0.113254175 0.13553777 0.21906821 -0.32864463 -0.106026046 0.4726693 0.28842854 -0.5390247 0.093497336 0.20980635 0.27295458 -0.08715586 0.024699913 -0.051982425 0.31995016 0.19112371 0.42603344 -0.11152621 -0.2421942 -0.4079622 0.496846 0.55036944 0.27232814 -0.12419862 -0.025391063 0.11977531 -0.33527374 -0.28528464 0.32754838 0.25314355 -0.4081104 -0.38117692
2803 -0.21927465 -0.2265679 -0.14584902 0.018902672 0.32760385 0.9673294 -0.29313347 0.53011364 0.5007908 -0.191326 -0.14603938 -0.24897455 0.06941455 0.30545804 -0.1509842 -0.38916194 -0.18417862 0.43684372 -0.32383397 -0.2996654 -0.49566588 0.7279102 0.1470257 -0.38730025 0.25794458 -0.021865424 0.06205029 -0.16289745 0.09330222 -0.49792397 -0.12603012 -0.49835414
2805 -0.23650604 -0.24195042 -0.15115228 0.020362766 0.3035045 0.9632707 -0.29271698 0.5529093 0.4938503 -0.18892913 -0.14653988 -0.21925068 0.051185858 0.31063625 -0.16733976 -0.4264841 -0.19463503 0.4487444 -0.32408154 -0.2804956 -0.4898035 0.7402548 0.13567269 -0.3811317 0.26747245 -0.027256733 0.04813453 -0.15457271 0.08893217 -0.51991487 -0.11645266 -0.52659106
2804 -0.21896939 -0.24700467 -0.13520572 0.016061671 0.29924175 0.9582397 -0.2907261 0.5578315 0.49139276 -0.17912525 -0.13314049 -0.23172536 0.067978956 0.31647268 -0.1728251 -0.4007705 -0.18854491 0.46071985 -0.319455 -0.26813287 -0.47573456 0.73081064 0.13756913 -0.3752814 0.2772446 -0.011606577 0.057504628 -0.16311428 0.101439476 -0.52169454 -0.1219102 -0.5081815
1215 -0.14706905 0.15080033 -0.20335042 0.11964725 0.31115413 0.33839035 0.2884536 -0.018134 0.22750764 0.299187 -0.15424012 -0.08120439 0.046255633 0.15208393 0.47936356 -0.4234934 -0.124342196 -0.09963812 0.0137053495 -0.059534024 0.32738066 0.59632105 -0.4311276 -0.1165809 -0.51333654 0.033030402 -0.12905428 0.42191318 0.15407628 -0.17856984 0.14006537 -0.64568675
2477 0.12761661 0.2148206 -0.44043195 -0.16468224 0.020722754 -0.07002515 0.5583738 -0.09453083 -0.26038784 0.046396602 -0.05311969 -0.05504835 0.027583987 0.029457927 -0.099929504 -0.20354493 0.04209969 0.08703578 0.20408632 -0.30494785 0.34788412 0.5570798 0.24819365 -0.1336745 -0.35795447 0.28727508 0.029782275 -0.12119512 -0.089692794 -0.114216864 -0.3214264 0.1191647
2747 0.102336206 4.029207e-05 -0.38511738 -0.43706405 0.09160914 0.22341098 0.069065124 -0.22864835 0.38513368 0.078904696 0.1218552 0.34343955 0.16010691 0.08594314 -0.19249249 -0.100129 -0.28280985 0.17860852 0.31641445 0.017833745 0.10682751 -0.06561614 0.22506166 -0.15559654 -0.1886095 0.24621029 -0.006208653 0.01570685 0.32780948 0.07879999 -0.34008446 -0.010744757
1507 -0.025066935 0.24157491 -0.0088028265 0.23397236 0.08078769 0.33038786 0.13956508 0.09187195 0.27061862 0.40091705 -0.3239708 -0.055373017 0.2372824 0.08465976 0.47324634 -0.5183282 -0.37035334 0.047061704 0.025744306 -0.09951404 0.22391479 0.6400821 -0.19064026 0.035357293 -0.31661582 0.036924813 -0.07969783 0.366968 0.32395253 -0.0658298 -0.16515501 -0.54299647
2665 -0.20751159 0.13215664 -0.48131806 -0.17746131 -0.14304882 -0.06708483 -0.0011539037 -0.22592343 0.7065046 0.12024996 -0.4985241 0.26608416 -0.5224719 0.058571614 -0.0026808225 -0.8047159 -0.49127162 0.16953167 -0.3536281 0.038652837 0.5453425 0.060251743 -0.31321856 -0.17665519 0.30403662 -0.13955529 -0.38006237 -0.35217467 0.2926272 -0.53357184 -0.27006868 0.2765309
2550 0.34988028 -0.031492718 -0.38176107 0.2334006 0.2685066 0.21720946 0.31938586 -0.06287283 0.107476085 0.27227533 -0.091025755 -0.00054176647 -0.10482398 -0.13398705 0.15483603 -0.6282516 0.249264 0.3722871 -0.018150387 0.013446159 0.38166153 0.17258406 0.037656385 0.31878003 0.23180598 0.25812662 -0.03185693 -0.20353307 -0.07814464 -0.3503532 -0.24647519 0.03211199
2676 0.08284202 -0.9109835 -0.27239838 -0.12720068 0.29043946 0.34160894 0.27667534 -0.3330727 0.122304656 0.03557431 -0.054352324 0.27395314 -0.50184655 0.019566057 0.7047144 0.012985347 0.18523864 0.013463751 0.09131737 -0.7109398 0.4002095 0.1048571 0.08274374 -0.48852754 0.13213156 -0.007749243 0.09722248 0.3379041 0.051293924 -0.22581264 0.32913923 -0.30995172
669 0.3136755 -0.15875839 -0.06974947 -0.08166255 -0.37090328 0.19937621 0.412931 0.08358629 0.13898599 0.2262985 0.25692633 0.07258566 0.12137 0.2436819 -0.43996102 0.0034501995 0.3116985 -0.5979985 -0.07589887 0.006509947 0.35367963 -0.0487225 -0.18808466 -0.1587031 -0.13207977 0.1920117 0.4627748 -0.39682314 0.48537764 -0.21465783 -0.21738783 -0.06923075
2484 0.38373646 0.15178694 -0.5008986 -0.7953455 0.05336414 -0.14868815 -0.010474168 0.46760124 0.4656693 0.1865722 -0.1629158 -0.40349877 -0.61541736 -0.10702105 -0.38759145 -0.2660525 -0.016227683 0.575447 -0.60309607 -0.42000943 -0.059157953 -0.07019588 0.07065741 -0.36654952 -0.5868149 0.5392409 0.41373223 -0.04321987 0.48447752 -0.09025951 0.11551456 -0.50887704
556 -0.27458012 0.53322047 -0.22188021 0.19245024 0.31526837 0.64500564 -0.050339084 0.6129634 0.042265993 -0.39887163 0.4453474 -0.3156682 0.07352072 0.32393903 0.2674333 0.033253554 -0.0773575 -0.33346435 -0.1934572 -0.026647797 0.3012769 0.19374649 0.036138203 -0.4218424 0.19064541 -0.008486077 0.17859986 -0.26460493 0.5347013 -1.0489298 -0.17200702 -0.078099005
112 0.28523478 -0.047819234 -0.17795445 -0.09735753 0.026889376 0.24410824 0.038731746 0.27671406 -0.044062532 -0.08542449 -0.056834936 0.35353488 0.15722762 -0.1332696 0.11327608 -0.39304015 -0.16557549 -0.22649293 0.075271614 0.05541246 0.1497647 0.14890622 -0.1461738 -0.19684877 -0.22441116 0.32932875 0.22047794 -0.13731596 0.47752547 -0.04387559 -0.065562956 0.32493162
2725 0.02568189 0.098304376 -0.25881392 -0.72198147 0.7958294 -0.15091208 -0.1171802 -0.20531385 -0.26009914 -0.33717537 -0.40160823 0.5723906 0.12769654 0.08171643 0.07969156 -0.22259529 0.045487482 0.22379212 0.034928728 -0.17968519 0.26750395 -0.045090582 -0.06397396 -0.16873646 0.31619126 0.3654501 0.118634254 -0.09715702 0.49621585 -0.26996627 -0.58387834 0.4617729
2650 0.1623353 0.09660618 0.06835716 0.11656971 0.13383587 0.81824946 -0.08153647 -0.15720916 0.42059538 0.10616533 -0.41936037 0.17953765 -0.28607824 -0.13062201 0.057992868 -0.18767339 0.060092755 0.21652302 -0.22360042 0.14909564 0.3845508 0.28846237 0.43941146 0.029471042 -0.21282266 0.093450844 -0.25515583 -0.33169585 0.21818392 0.29629084 -0.35354388 -0.17845193
423 0.21952575 0.14610116 -0.33909768 0.21396519 0.028148234 -0.08121102 -0.019180683 0.44162682 -0.23969501 0.23237826 0.5556063 -0.10945063 -0.60288966 -0.42457154 -0.07207086 0.044468645 -0.25110686 -0.21742272 -0.068355456 -0.49519694 0.079086885 -0.21380176 -0.007179507 -0.55992466 0.019731756 0.3385961 0.20143414 -0.32156062 0.8477912 -0.44635233 -0.123672664 -0.44286394
165 0.010808243 -0.17643546 -0.44885808 -0.48938423 0.38920948 0.33204973 -0.15146525 -0.13427688 -0.053117998 0.17782807 0.011111819 0.12741326 -0.16450284 -0.2637598 0.18535484 -0.32783815 -0.046938322 -0.30520442 0.11106842 0.44761002 0.116478875 0.3308501 -0.43363017 -0.06107847 0.16336238 0.23006886 0.030736495 -0.10391784 0.5421342 0.09820516 -0.058213376 0.2473983
2707 0.37957686 -0.27705416 -0.3689619 -0.0651825 0.49968588 0.008425444 -0.0964567 -0.15150495 -0.44092268 0.20271012 0.30722916 -0.12846409 0.23297855 0.08540128 -0.23252566 -0.22672556 0.3485478 -0.13980189 -0.011719333 -0.51776356 0.68423116 0.74981743 0.18400767 0.37616765 -0.48115698 -0.2588337 -0.28467077 -0.2187673 0.1983201 0.13882446 -0.18851413 -0.08678328
1081 0.6183418 -0.18786816 -0.19089368 0.069092445 -0.20289882 0.6622136 -0.19482364 -0.3258438 0.1777012 0.13318932 -0.088534854 -0.20603631 -0.07629698 0.6068292 0.19266243 -0.028193932 0.21540126 -0.53201133 0.0675221 0.15183114 0.3532307 0.40423536 -0.3392019 -0.526827 0.22306125 0.21832483 -0.04723826 -0.29484513 0.26117134 0.38297233 -0.22218004 -0.2949856
2574 0.16170354 -0.29661494 -0.26065853 -0.061952952 -0.007910975 0.123219766 0.151485 -0.16189027 0.50592494 0.19211622 0.05679359 0.4211809 0.20038648 0.36330816 -0.3389398 -0.13113385 -0.33062953 -0.1395964 -0.2747608 0.1926506 0.23119237 0.20583567 0.23578788 -0.07640632 0.034281317 0.06529817 0.3068315 -0.23700607 0.35108656 -0.010456337 -0.04346138 -0.10169045
1461 0.07355976 0.07111157 -0.51678026 0.3870387 0.17302649 0.3682664 0.3178571 0.23029362 0.27727792 -0.08700467 0.036429286 0.43146375 0.2912546 -0.37425423 0.1391021 -0.30990532 0.59868234 -0.53657764 0.2734958 -0.404164 -0.13181031 0.1600745 -0.1654615 -0.27050835 0.06229187 0.32347494 -0.30437577 -0.04745106 0.06317142 -0.44902796 -0.32854956 0.55695015
1690 -0.11373586 -0.024230434 -0.4228048 0.028108971 -0.05479661 0.55890495 0.36609364 0.24292558 -0.11399078 -0.034783244 -0.105113104 -0.14005405 0.23862436 0.21695346 -0.43793833 -0.096583344 0.18063436 -0.31773797 0.38649675 0.02727765 0.24687238 0.06392775 -0.0075643463 -0.39072213 -0.35370857 0.44261375 -0.520181 -0.05720022 0.31489733 -0.20179349 -0.24463485 0.5056942
2611 -0.15359576 -0.31962678 0.31496847 -0.3713066 0.6234896 0.5945246 0.08614588 0.28029102 0.83281934 -0.34375852 0.2848784 -0.3010494 -0.008911956 0.32047176 -0.22481431 -0.3410986 0.19892852 0.54561377 0.32018515 -0.83424366 0.10209778 0.4752617 -0.4665974 -0.53556526 -0.24518314 0.094862536 -0.32319543 0.3609258 0.09636177 -0.40283433 0.5237025 -0.15864652
2697 0.068224095 0.14639938 -0.20467894 0.0830037 0.21046263 0.18475568 0.28149897 -0.25327095 -0.20663984 0.2928868 0.10483592 -0.09480965 -0.19004734 0.13992827 -0.04548078 -0.14437969 -0.47425297 0.1064886 -0.33798134 -0.27462718 0.24034256 0.25249165 0.47885185 -0.4377676 -0.12988368 0.41223887 0.25146928 -0.28614208 0.06940386 -0.3165229 -0.0028524585 0.13310166
2598 0.14373168 -0.16477738 -0.36112973 -0.26042792 -0.22006646 0.7673403 -0.31954792 0.380015 0.37292758 0.38318232 -0.024927063 0.060081366 -0.7476001 0.10426956 -0.14521553 0.77157927 0.028877024 0.12728064 0.27740714 -0.9617192 0.1647198 0.29395002 -0.32091865 0.56482327 0.33125845 0.49802956 -0.019686732 0.1758377 0.5450201 -0.03037961 0.20545667 0.55989385
2754 0.41191676 0.34534344 0.0107168285 0.23791318 0.19187826 0.07929142 0.14609656 -0.20593016 0.6534678 0.19579674 -0.00070703664 0.19906566 -0.20535226 0.41112924 0.13844086 0.27329096 0.31926006 -0.41254967 -0.101544335 -0.022216426 0.5283145 0.31897146 0.16525656 -0.15196678 -0.28257826 -0.15763964 0.42526016 -0.25417283 0.61877775 0.3736849 -0.052588858 -0.08002092
2527 -0.01200054 0.30991822 0.19558594 0.04099681 0.5769626 0.32211915 0.5606442 0.041535877 0.06678642 -0.24739917 -0.58067834 0.29170132 0.06468048 -0.13342057 -0.54991215 0.17221248 0.10916536 0.187179 -0.82255656 -0.45575404 -0.29915118 1.0057813 -0.7017399 -0.47912884 0.5410133 0.044625763 -0.18741103 0.455237 0.51881677 -0.10078455 -0.22602749 -0.043128263
2584 -0.17482875 0.0017481286 -0.41508755 -0.04970161 0.015953809 0.5643917 -0.09628124 -0.3990642 0.3265275 0.37652516 0.2714806 0.18792742 -0.36474067 0.6380261 -0.28676227 -0.034918994 0.17309147 0.040277995 -0.018591687 0.41839772 0.03132533 0.3020811 0.15803243 -0.3302379 -0.053557448 0.7821426 -0.32353464 0.100523666 0.19608076 0.08189575 0.11392333 -0.025602432
2538 0.3705217 -0.0010289657 -0.54385215 0.14273816 -0.4677534 -0.06904212 -0.44168118 -0.20247252 0.14505774 -0.06762482 0.067176215 0.25220323 -0.0061378856 0.14434354 0.13429376 0.020810815 -0.0004025985 0.16981915 -0.22298554 -0.27013338 0.45265266 0.5324308 0.040756684 -0.27448767 0.19290957 0.086913384 0.26769143 -0.08400333 0.25932539 0.13975321 -0.6311666 -0.2492311
2457 -0.12289212 0.51324487 -0.6251941 0.19311836 0.14417668 0.70738125 0.42461827 0.5164518 -0.22043908 -0.21167947 0.46393266 -0.075626686 -0.12259199 -0.046419606 0.35422418 -0.10367864 0.229613 0.1453518 -0.7213558 -0.23749836 0.5801001 0.24352674 0.1112253 0.17349114 0.32811636 -0.026073359 0.48374498 0.29302964 -0.0052842554 -0.8532595 0.1314048 -0.021519348
2600 0.2807836 0.032858793 -0.3631534 -0.01436505 -0.2832541 0.22881806 -0.048732642 0.13228044 0.5979243 0.33995435 0.07855755 0.41989952 -0.5012076 0.0961084 -0.22400378 -0.5021503 -0.3083969 0.19646679 0.085146606 -0.42997363 0.092596345 0.097504914 -0.08941172 0.43025395 0.5627663 0.129392 -0.23931138 0.04021621 0.49407607 0.07994705 -0.011138817 0.19483584
60 0.2470948 -0.19626448 -0.07084455 0.123335734 0.102728255 0.41327336 0.40903068 0.16601785 -0.13516672 -0.14618991 0.115420215 0.21168658 -0.0216759 -0.17801297 -0.037325524 -0.17344534 0.049089123 -0.19353311 0.38674203 0.015380003 0.33272186 -0.18065219 0.068201296 -0.3765791 -0.4453712 0.2982307 0.03649257 -0.045281295 0.48681086 0.12185122 -0.050365943 -0.101412565
2658 -0.3845072 0.1795509 -0.4907223 -0.013139901 -0.30645543 0.40130308 0.16969082 -0.033719536 -0.022503592 0.20902123 0.13247508 0.35039112 0.003679883 0.11815097 0.08060013 0.1099766 0.4302569 0.1687491 -0.16732134 0.19837627 0.82932174 0.41042024 -0.05322994 -0.16575529 -0.088435255 -0.3452215 0.22078767 0.03375403 0.1318002 -0.3476477 -0.12670583 0.065539464
2743 0.21905696 0.17195615 -0.18784286 -0.10038844 -0.3611589 0.12068207 -0.052795604 -0.14585043 0.113640614 0.19993033 0.09919968 0.3995079 -0.09475518 0.23835059 -0.71575314 -0.056477968 -0.28669703 -0.12564948 -0.32301825 -0.20158234 0.4765047 0.09386337 0.4712237 0.030352475 -0.3090957 0.40536222 -0.16748351 0.048302718 0.38805154 -0.51134247 -0.0011303226 0.43200544
1336 -0.51008815 0.18499492 -0.006028851 -0.17852306 -0.46894565 0.43014425 -0.0021304747 0.05362495 0.051428407 0.3331466 0.44235432 0.004006648 0.08131705 -0.08594019 0.02926007 -0.3440343 0.4355229 0.13739261 -0.48828137 0.051591236 0.50019693 0.33538112 -0.23654969 -0.18243787 -0.2979851 0.09809771 0.5011774 0.5319737 0.40118602 -0.3719341 -0.20498791 0.22624534
1310 0.16908877 -0.11781246 0.3338371 -0.45825562 -0.063764945 -0.05446868 0.20619997 0.20564203 -0.10547433 -0.03646584 -0.27686033 0.5150153 -0.053187113 -0.5627416 -0.04021238 -0.49921772 -0.147741 -0.13041547 0.24004355 -0.16992933 0.3978519 0.37602076 0.07639771 -0.44531775 0.120680355 0.18063201 0.3307204 0.12207672 0.47631094 -0.12664992 0.32395807 -0.0060682194
2571 0.31638047 -0.020091128 -0.50919145 0.14253518 -0.45881468 -0.054381948 -0.425536 -0.19208667 0.11609422 -0.060926482 0.034899797 0.26114926 -0.005314934 0.15153232 0.13228483 -0.00017779965 -0.02496347 0.18415156 -0.1977194 -0.26141834 0.45089102 0.5588098 0.03295762 -0.23581171 0.23981184 0.09716956 0.29902306 -0.062123727 0.24679023 0.14299937 -0.6506753 -0.24134666
1233 0.33542842 -0.10283625 -0.49264812 -0.31704304 0.057437252 0.28673613 0.3449308 0.2214553 -0.028858332 -0.20819281 -0.3475877 -0.16057 -0.10787369 -0.14302032 -0.012794468 0.0867884 0.102126524 -0.23084827 0.5734557 -0.23045957 0.04521642 -0.12225444 -0.30394113 -0.20662412 -0.07693949 0.2847592 -0.2484614 -0.3017198 0.46378234 -0.3004002 -0.80687296 0.16416217
643 -0.1531613 -0.024073377 -0.13629778 0.30955774 0.07028009 0.19545527 0.052171335 -0.14815769 -0.28772014 0.31209674 -0.060878452 -0.11422127 0.08172734 -0.5149078 -0.35621944 -0.028046314 0.012863579 0.25820625 0.96419317 -0.07026338 0.10059391 0.13016108 -0.09731372 -0.13769089 0.0022358212 0.2800865 -0.10129945 -0.51628983 0.8727272 -0.35973245 0.10707393 -0.2472175
2549 0.051667206 -0.12780468 0.019984042 0.17333318 0.17213604 0.43019748 0.1702969 -0.41617465 -0.043973 -0.21647865 0.30749914 0.35986975 -0.18828088 0.050461743 -0.57714945 -0.07740316 -0.28905454 0.21746774 -0.030084588 -0.34651324 0.215709 0.054997023 0.23214813 -0.048848145 0.2542198 0.32947448 0.18065141 0.17363033 0.1970798 -0.17619199 -0.25748786 -0.0035332243
2711 0.088737495 0.40159366 -0.15965962 -0.35059756 -0.034691088 0.71093637 -0.16461338 -0.043977056 -0.108298965 0.21807425 -0.042949066 0.26426402 0.27641046 0.6506074 -0.04816322 0.176108 0.09789535 0.24381757 -0.40042752 -0.29998738 0.6777271 -0.0071060583 0.067978434 0.07378498 -0.29416716 -0.4374613 0.17062524 -0.047349654 0.6657495 -0.50730765 0.42958954 0.22523299
2724 0.46633908 -0.075541794 -0.38764352 -0.23866062 0.34916148 0.28697148 0.2487287 -0.37814024 0.42152438 0.20602301 -0.03520968 0.028073885 0.014439603 0.04534223 -0.08677651 -0.12569554 0.33086473 -0.11471504 0.05968937 0.23531021 0.009014681 0.19874217 0.15386797 -0.18196546 -0.09234588 0.18695918 0.2706208 0.09191415 0.08571184 0.052751634 -0.33030498 -0.13512985
2678 -0.116168104 -0.23449062 -0.6786585 0.23485026 0.04355784 0.0679176 0.2766967 -0.5957012 0.25651962 -0.052143123 0.3387597 0.5846711 0.00063894846 -0.32859784 0.2217051 -0.25390592 0.20088087 -0.14018384 0.10836864 -0.87132096 0.25645053 -0.06991996 0.12919538 -0.11652153 -0.35966453 -0.024188682 -0.13540795 0.25968438 0.050686296 -0.5236424 0.04047381 -0.029136192
2692 0.3499725 -0.08398142 -0.0015157346 0.24146524 0.35476825 0.43178192 -0.120732665 -0.3809045 0.076148756 0.23980495 -0.0009529045 0.124765426 0.10352433 -0.018811928 -0.24354312 0.09605839 -0.42064092 0.18719089 -0.038364023 -0.5167057 0.27384385 0.18976505 0.1252874 -0.097120516 0.12513821 -0.028786989 0.37529325 0.2566602 0.2204712 -0.40800467 0.024396544 0.26803374
1159 0.35537434 -0.16314779 -0.09299074 0.39251205 0.11722309 0.36825573 0.30584553 0.20742041 -0.054945655 0.2961157 -0.1253013 0.4026688 0.23291755 0.21889406 0.06544637 -0.027301012 0.23480794 -0.5538115 -0.2314788 -0.54019177 0.12519918 0.0823123 -0.37892863 -0.46282297 0.5778042 0.3996225 -0.4240429 -0.29842985 0.32131425 -0.07445168 -0.13099225 -0.045357086
376 0.093490824 -0.3161031 -0.25815052 -0.10487467 0.06450247 0.3033767 -0.09225754 0.04901852 0.05879722 -0.14255778 -0.034845814 0.2755123 0.22909011 -0.37951392 -0.14409502 -0.26332882 -0.050313782 -0.22136337 -0.098195724 0.025095724 0.13545394 0.19501987 -0.23628825 -0.026981583 -0.11539967 0.35978365 0.27832678 -0.019735092 0.4447406 0.04360649 -0.1653936 -0.12220511
202 0.52466196 0.07194755 -0.040902734 0.1923662 -0.55352 0.12507884 -0.27586976 0.008224997 -0.06634234 0.012436152 -0.114570506 0.07761275 -0.21937889 0.06200087 0.37048256 -0.20496558 0.3180372 0.091516756 0.22067405 -0.41623017 0.117763035 0.3369912 -0.15911415 -0.14607199 0.22198156 0.66371906 0.29933798 -0.07601926 0.6235 0.09662341 -0.22597939 -0.08336224
2720 -0.061169483 -0.66441125 -0.1452433 -0.13935256 0.298225 -0.0492708 0.02149914 0.13245726 0.73558676 0.19890623 0.091960385 -0.0631422 0.019709086 0.5494812 -0.35115805 -0.17778298 0.06807745 0.0060149683 -0.05118666 0.094477266 0.6344335 0.36046457 0.1568242 -0.12312766 0.059292894 0.5385999 0.17369792 0.08301021 0.03459773 0.19887498 -0.13320312 0.36435008
2469 0.16126728 0.1271278 0.35830465 0.17715389 0.13916926 0.31184727 0.6192059 0.010887772 0.41942278 -0.010913827 0.14408892 0.25314766 -0.099556334 -0.052583016 0.1750002 -0.33915907 0.25403556 0.58905 -0.06435787 -0.22655663 0.1169574 0.15597801 0.08653105 -0.3389419 -0.13029951 -0.03721612 0.3081231 0.08777232 0.5403558 0.19554536 0.012703764 0.09270597
219 -0.1320759 0.009339824 -0.022659887 0.037076026 -0.069259234 0.32637253 -0.16695233 -0.3043212 0.113088116 -0.11497656 -0.105921164 0.08688262 0.10447596 -0.07731101 0.27697176 -0.1398887 -0.032140892 -0.20502718 0.19816346 -0.13556685 0.27432108 0.4387574 -0.25596106 -0.44028738 -0.094826646 0.43600276 0.26853254 -0.028208777 0.25390616 -0.04147872 -0.21511038 0.020115208
2651 -0.24951012 -0.80263406 -0.036475427 -0.020433288 0.35037702 -0.011512844 0.099193856 -0.07471286 0.402554 0.011952084 0.03412315 0.15047802 -0.015712522 0.536353 -0.4628056 -0.12846896 0.005651961 0.14155278 -0.15729998 -0.13795789 0.6177383 0.3241075 0.12452394 -0.013394489 -0.024201732 0.28094134 0.3459077 0.03803802 0.18388365 0.15369147 -0.18291193 0.13733402
73 -0.16808088 0.07990037 -0.01752206 -0.00591082 -0.20051745 0.42378622 -0.021962903 -0.19692814 -0.1290896 0.3105259 -0.03022399 0.010632517 0.02894341 0.04319824 -0.05788657 -0.46080646 -0.0657761 0.25450015 0.1678561 -0.098222725 0.07331716 0.20010267 -0.19091383 -0.14448494 -0.39666453 0.062913276 0.15396337 0.23849301 0.62313724 -0.005489179 -0.25832346 -0.24613914
1538 0.079750955 0.11102478 -0.57455266 -0.17367914 0.27559888 0.5382008 0.14965793 0.32594243 0.039105136 -0.124717146 -0.294184 0.22528407 -0.18034655 -0.15771413 0.0264213 0.14423288 0.32426134 -0.31844494 0.27095327 0.18543094 -0.0082151415 -0.14450307 -0.32375565 -0.52345055 0.038882054 0.14420052 -0.09185171 0.009086897 0.52724326 -0.04954828 -0.6420574 0.4409338
2684 0.37672666 -0.014620107 -0.3084786 -0.017412448 0.22447842 0.08473799 0.0014517492 -0.18249708 0.1823738 0.107889995 -0.036765274 -0.23644482 -0.27911875 -0.63747543 -0.60325754 0.16922183 0.05027818 0.30926734 -0.096554674 0.414814 0.68330926 0.11326677 0.04599833 -0.73551166 0.38973767 0.27474943 -0.42529172 0.2870347 0.65064394 0.12617506 0.2073925 -0.24793364
2459 -0.13995981 0.4558112 -0.42507392 -0.017783303 0.00058866345 0.33783072 0.38707864 0.1290918 0.07456594 -0.4594773 -0.21734634 0.25322214 0.047703754 0.17589292 -0.32061967 0.19411972 0.17214267 0.12037734 -0.1337625 0.031439137 0.91188145 0.18203056 0.04768131 -0.041182917 0.25565112 -0.024677144 -0.082947075 0.18984658 0.31684628 -0.21810222 0.105148025 -0.17957571
2741 0.2676438 0.35717165 -0.20674288 0.06828351 0.24786231 0.11969994 0.17738295 0.28621694 0.4799934 0.08839734 -0.14573523 0.5504234 0.19519722 -0.04908644 -0.23293272 -0.24189587 0.025676938 0.1869401 0.19194132 0.05702013 0.116966106 0.13055918 0.16723597 -0.32891878 -0.02023549 0.23489824 0.2030291 -0.07471454 0.0408003 -0.2325717 -0.35684526 0.3761994
2607 -0.086849906 -0.17399831 -0.2532842 0.12754427 0.17785366 0.17702545 0.5426941 -0.013722671 0.5130988 0.12528719 0.1642722 -0.083928525 0.13428487 0.031633347 -0.21504644 -0.04113121 0.070785664 0.0011327371 -0.047614545 0.022555612 -0.00760999 0.57268995 0.21749814 -0.032760154 0.0016263801 0.12588777 -0.042331554 -0.030332664 0.34152284 -0.20612639 0.048336126 0.07109958
2666 0.368404 0.17203593 -0.47689834 -0.060174022 -0.04525613 0.21653005 0.5545671 -0.47790325 0.28205076 -0.2568986 -0.071285985 -0.06860694 0.009034145 0.07230485 -0.06557866 -0.39672843 0.028643748 0.10961165 -0.12098926 -0.25169456 0.33036146 0.26499638 -0.27563074 -0.286856 -0.1302273 -0.15369977 -0.6543531 0.056587417 0.2112945 -0.4325873 0.009504154 0.45045716
2608 -0.1057527 -0.16975424 -0.23089628 0.0852667 0.18034971 0.19389422 0.5507755 -0.011016587 0.4974221 0.14541759 0.19661675 -0.07727423 0.11965295 0.035501517 -0.20019597 -0.016482217 0.05648528 -0.007991788 -0.088994116 0.0015327715 -0.010055489 0.5752522 0.20648615 -0.04691613 -0.010413395 0.13299847 -0.05696713 -0.023375364 0.34830567 -0.22206175 0.06656321 0.06635576
2583 0.3019565 -0.054839503 -0.37989342 -0.12796478 0.37392873 0.6732764 -0.3455676 -0.49249274 -0.042670783 0.26334482 -0.20373367 -0.17158853 -0.48796502 0.5213838 0.03564926 0.08212914 0.37869424 0.16301394 -0.050959006 0.5263103 0.25394806 0.40233427 -0.05600093 -0.35562074 -0.03544819 0.4676052 -0.49579403 -0.06881709 0.33247882 0.16434191 -0.28780043 0.14730896
2652 -0.062453706 -0.72397864 -0.19396338 -0.03578369 0.41292283 -0.12540916 0.029228019 0.008982172 0.36928934 0.09594278 0.053494688 -0.034656074 0.24215488 0.53257066 -0.63558537 -0.20625187 0.27131033 0.011527035 0.0035464463 -0.12494965 0.60760623 0.3278919 0.22320525 -0.031855416 -0.011597958 0.16391256 0.33965826 0.16828018 0.11932689 0.026103022 -0.28752446 0.17852126
110 -0.11164159 -0.020380156 0.050710537 0.29000768 0.09134913 0.22732887 0.18658803 -0.024058228 -0.25487626 -0.025700824 -0.49645603 0.16616035 0.09150169 0.013621046 -0.101727195 -0.33841842 0.19518334 0.13680197 0.15502045 -0.10526295 0.08545723 0.347685 -0.22168511 -0.32059556 -0.27359086 0.007891257 0.07273336 -0.110043414 0.76408684 -0.24391025 0.034917947 -0.03419683
294 0.23452583 0.03610646 -0.17384833 -0.15421669 0.10527878 0.45984325 -0.078688405 0.26088053 -0.17136975 -0.10516345 0.17133845 0.07030199 0.004797828 -0.24863222 -0.03245697 -0.30117705 -0.01695119 -0.13401832 0.2070133 -0.04243213 0.32691818 0.27572998 -0.28745222 -0.29962853 -0.08673101 0.14534958 0.24202839 0.1815354 0.2560271 0.034400895 -0.084731854 0.2490409
195 0.072442174 0.10620351 -0.08149898 -0.19940285 0.12797701 0.44063643 -0.100556314 0.19722916 -0.14983349 -0.10231594 -0.37618765 -0.34547663 -0.3911461 0.034756582 -0.45565116 -0.20554434 0.42947078 0.036533948 0.048579358 0.45806828 0.63474447 0.0084365215 0.05063623 -0.46192244 0.10280576 0.37268764 -0.18530111 0.42952326 0.7813903 0.42025387 -0.2452488 -0.24509165
2595 0.6601325 -0.33907855 -0.25163695 -0.5499973 -0.059824467 0.20689534 0.2147247 -0.34318063 0.07141609 0.49705815 0.25734496 -0.106808886 0.1657981 0.2732846 -0.05244974 -0.26254478 0.33379766 -0.114247866 0.061408162 0.06841055 0.10560788 0.5495532 -0.076484516 0.030980421 0.43034446 0.11936681 0.3135875 0.17010218 0.008391325 -0.1212827 -0.31914613 -0.18525
187 0.3847772 -0.5647865 -0.08497097 -0.3814903 0.05032039 0.2670535 0.22101076 0.5452238 -0.058692332 0.5491133 0.03725697 0.17586604 0.2588953 -0.5998013 -0.5052342 0.18498918 0.14952213 -0.24656016 -0.30916193 -0.13425586 0.33671132 -0.15265301 -0.1610476 -0.28562948 0.11044595 0.09218836 -0.29652864 -0.15209202 0.4539091 -0.29311737 -0.57162213 -0.45543298
2710 0.25785622 -0.06848575 -0.28855956 -0.28792292 0.03318972 0.29213837 -0.007946153 -0.24623069 0.43861964 0.2217648 0.43237764 0.29737872 -0.33001786 -0.067711964 -0.10892845 0.17163114 0.100467995 0.006617555 0.14410947 -0.43636385 0.2803212 0.22690675 -0.3811952 -0.60514516 -0.21889448 -0.24554637 0.13065371 -0.043143503 -0.091864005 -0.18795665 -0.035491653 -0.7348559
204 0.00944741 -0.19192503 -0.3166811 -0.47499225 0.31774127 0.64063776 -0.01928996 -0.063333936 -0.13585664 0.024474405 0.33053133 -0.27659804 0.18432349 -0.25824186 0.20360816 -0.67855096 -0.19988982 -0.30953565 0.13648936 0.13061957 0.059571583 0.32622275 -0.016737182 -0.16261485 0.030084342 0.1917817 0.00251463 -0.23945065 0.09441539 -0.096374355 -0.28932333 0.24968177
2704 0.34722376 -0.05322597 -0.4650129 -0.22751392 0.1353308 -0.031930592 0.47997284 -0.11140447 -0.2452015 0.07007157 0.07427653 -0.106961556 0.08020287 0.16417317 -0.035653908 -0.1967161 0.15844859 0.11026946 0.18735756 -0.30572572 0.33617067 0.44582614 0.2376062 0.079311155 -0.34377334 0.19414552 0.11106746 -0.13830268 0.07546702 -0.063623175 -0.14650184 0.10228759
2672 0.3283719 -0.12870112 -0.06309784 0.25219426 0.35859898 0.5097625 -0.1284149 -0.36622593 -0.03558431 0.2654712 -0.11486767 0.16906537 0.42432728 0.076854624 -0.30052078 0.30283785 -0.21529503 0.18479353 -0.07137205 -0.4768603 0.37273198 0.12811905 0.08208223 -0.009422708 0.10611766 -0.03541996 0.34333372 0.289888 0.24095224 -0.42054453 -0.1030672 0.23329449
198 -0.092132315 0.092296876 0.5565538 -0.108085565 0.40334934 0.21318288 0.009852098 0.19046336 0.27973145 -0.21356648 0.47809476 -0.0821033 -0.24086168 0.18735814 -0.10406859 -0.6846056 0.18874215 0.02787513 0.28055832 -0.37948433 0.35348284 0.21661414 -0.14781359 -0.32586113 -0.3574861 0.093891405 0.049363006 0.47746265 0.47815385 -0.46400338 0.017962174 -0.24859338
2546 0.05171815 0.4703875 -0.20116077 0.21864311 0.3881797 0.103550576 0.29521725 -0.055704154 0.405142 0.085919924 0.18412924 0.5261541 -0.12589927 0.2155159 -0.012922051 0.11404775 0.17611127 -0.02938802 0.037188318 -0.25210628 0.16757856 0.25318307 -0.31371576 -0.034279704 -0.006974657 0.24345611 -0.029732747 0.014809912 0.22282605 -0.42406923 -0.06429279 -0.0036479456
264 0.09200468 -0.056757063 -0.28946027 -0.31015798 -0.06851247 0.25994974 -0.10203439 0.26656285 0.08730335 -0.033723485 -0.13314582 -0.18445365 -0.34137097 -0.1437423 -0.15141083 -0.48919657 -0.14262243 -0.21958053 -0.41635415 -0.18081008 -0.06892936 0.382272 -0.07180214 -0.098141305 -0.46891996 0.20036136 0.09287595 0.11437997 0.59398043 -0.16148724 -0.095560506 0.10870844
2863 -0.30021256 -0.19663177 0.0028803642 -0.16312774 0.31648535 0.3229622 0.4672744 0.1273818 0.31997964 0.11217861 0.06887382 0.17119043 -0.118950956 0.21460037 0.3184596 -0.13252662 -0.17702962 0.3327755 0.064402536 -0.449026 0.10472601 0.285325 0.04829149 -0.006067931 -0.09652826 0.19361626 0.14331636 0.105194174 0.25355393 0.008712421 -0.15523839 -0.05529025
32 0.022660214 -0.3285998 0.07096783 0.10383712 -0.4363967 0.026709378 -0.46229365 -0.30551174 0.19041446 0.07996431 0.22412448 0.19697316 0.11214214 -0.20437358 0.14239317 -0.2019832 0.17445052 -0.24568295 0.07591977 -0.38466954 0.378898 0.6588181 -0.012288743 -0.38279745 -0.15302983 0.5376003 0.019795587 -0.12542473 0.37393653 0.17041416 0.015561446 -0.45988792
1483 -0.14406732 -0.11215042 0.10598134 -0.31638628 0.36531752 0.6362229 -0.09484783 0.21148655 0.3004906 -0.08792185 0.093700565 -0.13410786 0.26514083 -0.122268565 -0.09577297 -0.44179106 -0.21211419 0.1271245 0.6117401 -0.3368231 0.24971013 0.62896293 -0.4801385 -0.23059654 -0.3997937 0.0024930618 -0.17974342 0.2819571 -0.101400025 -0.18617055 -0.057932068 -0.44943345
2674 0.33770195 -0.40199766 -0.5035725 -0.37641332 0.10414848 -0.025798734 0.14875607 -0.17367914 0.3061835 0.0123283155 -0.11824448 0.13087903 0.07417947 -0.22865042 -0.11705665 0.1500629 0.010106939 -0.15432967 -0.25001067 -0.11782355 0.36416262 -0.14966229 0.18869995 0.21611004 0.24512216 0.033912066 -0.078514025 0.20773703 0.5355251 -0.46620545 -0.77344584 -0.37873116
406 0.41304228 -0.07641875 -0.20927927 0.10509267 -0.067265384 0.073159315 0.17351834 0.14597346 0.27859816 0.18809275 -0.24986514 -0.23558834 -0.16025324 -0.30773136 -0.4827275 -0.094716035 0.41657504 -0.19374666 0.3615183 0.27534553 0.22924964 0.20325992 -0.2090077 -0.38450113 -0.21953382 0.41635746 0.20563717 0.10196345 0.48791143 -0.013069216 0.022242209 -0.31387204
865 0.41563484 0.10741037 -0.087795556 0.25009313 -0.20351647 0.2071054 0.1376564 0.21206445 0.47746566 0.09317982 -0.055574074 0.20785129 -0.3484676 0.038748123 -0.26919577 -0.9319054 0.039636265 -0.17996937 0.16367419 0.051114287 0.22835642 -0.14044543 -0.47818074 0.052926857 0.34630385 0.27215067 -0.17666416 -0.23375751 0.4580977 0.1435417 -0.56539685 0.11893729
2483 0.34084225 0.22466607 -0.08103264 -0.06158507 0.41675657 0.0839942 -0.082315095 -0.48134246 -0.001229115 0.036653332 -0.11234201 0.19015245 -0.046507787 0.3649935 -0.65061194 0.12608407 0.0035079643 0.10558487 -0.0329658 -0.21932308 0.48926628 0.23377693 -0.21682249 0.114172176 -0.14618908 0.50984883 0.026717676 0.13028371 0.22625206 -0.015897907 -0.20434526 -0.19325858
2528 0.10362718 0.18783803 -0.1316738 -0.12136335 0.07435091 0.20244262 0.40704268 -0.10199499 0.15287718 0.013563344 0.15914679 0.19568865 -0.29538065 0.1890678 -0.21349818 -0.2728139 0.045424443 0.32300782 -0.099825054 -0.3038733 0.26871067 0.11959878 -0.0045035616 0.10182655 0.055737082 0.07613475 0.19060262 -0.25255543 0.39826286 -0.099998504 0.085149035 0.34713903
1148 -0.09170394 -0.34983528 -0.4293634 0.06865524 -0.36799845 0.20669429 0.0152877895 0.2977474 -0.21234137 0.11495703 -0.049185496 0.24382149 -0.117332175 -0.20267291 -0.50297874 -0.29031917 -0.1312174 -0.15011811 0.6595656 -0.13087235 0.38965604 0.20079507 -0.126161 0.14901902 0.039589293 0.35171828 0.0088962065 -0.23974593 0.3871887 -0.25536764 0.12675491 -0.02889931
2647 0.3336631 -0.17469686 -0.107900776 0.20247345 -0.050013162 0.5857779 0.2864275 -0.24346055 0.24823652 0.14577846 -0.34607401 0.12605083 -0.17598441 0.43818668 0.28824583 -0.19284542 0.00216367 0.26154563 -0.15978599 0.11365969 0.49109608 -0.011000677 0.243741 -0.05954244 0.21257645 0.21368833 0.13889919 -0.28745213 0.11681877 0.07264344 -0.35036483 -0.14761627
2547 0.13600937 0.18342026 -0.3244769 0.16123706 0.41069773 0.25511137 0.41247877 -0.3525655 -0.12225231 -0.011333172 0.22618583 0.098200336 0.055136833 -0.13942142 -0.3338212 -0.036123544 -0.17343293 0.11801302 -0.038394634 -0.29826137 0.15721041 -0.05079452 0.09656596 -0.09153761 0.09136221 0.19798623 0.16201238 0.07031875 0.15520087 -0.30791074 -0.5766312 0.28022072
2742 -0.15525186 0.024269024 -0.41132987 -0.14575005 0.01550584 0.3098919 0.38029101 0.14475653 0.17452931 0.04287659 -0.20922723 0.29362226 -0.026467215 0.4192806 -0.1748539 0.06347194 -0.26695648 0.051586576 -0.04148352 -0.077931575 0.2931966 0.36396414 0.21831663 -0.23285897 0.022388829 0.13795571 0.3028553 0.17674264 0.03828693 -0.26195362 0.11516956 0.013840648
2928 -0.10375485 0.6018221 -0.42344034 0.31063935 0.6967447 0.027780399 -0.3600485 0.05845829 0.12261829 -0.18028091 0.9100505 -0.4416719 -0.25794628 -0.016576203 0.04477602 0.29091153 0.012225719 -0.40157878 0.16512771 -0.33272922 0.6792816 0.0870985 0.31316823 -0.17785177 0.097552784 0.049956698 0.56101334 -0.37878147 0.63874036 -0.81123435 0.09298222 -0.3580077
2535 0.29831928 -0.27816537 -0.45077777 0.21860906 0.2713453 -0.08664117 -0.16171703 -0.11560353 -0.042427093 0.109628424 0.29801142 0.10643883 -0.47382045 -0.810511 -0.26867026 -0.047926806 -0.1486322 0.38904804 -0.29658657 0.049938586 0.39066824 0.010414082 0.19408697 -0.7174966 0.31112707 0.14273138 0.005338837 0.12697074 0.60365343 0.019031217 -0.023283664 -0.19260807
135 0.2807629 -0.19352576 -0.027684033 0.09294125 0.3232194 0.27126402 -0.14862855 0.18520956 -0.24586633 0.26545438 0.20255825 -0.32221642 -0.27677706 -0.46814558 -0.00634311 -0.2010259 0.050606366 -0.05609542 0.019778235 0.006370151 0.5111277 0.24043968 -0.11629073 -0.42227802 0.34700015 0.20986366 0.3204811 0.3980556 0.49000823 -0.32412413 0.36982924 -0.1033506
2544 -0.014078134 0.15461786 -0.16110592 0.114271484 0.104276665 0.054194275 0.33915004 -0.4990602 0.35764793 0.23677196 0.085308656 0.47007316 -0.05473357 0.20473418 -0.53234106 0.09956048 0.14882638 -0.110268064 -0.2477098 -0.3457376 -0.16038379 0.37761098 -0.2645888 0.037168436 0.23869671 0.2997924 0.4885502 -0.13882892 0.28799018 -0.3387222 0.045368876 -0.17235515
2837 0.348549 0.67579275 -0.8217655 -0.010521024 0.23406146 -0.06964963 0.0664776 -0.5529423 -0.047007307 -0.18100941 -0.057658322 -0.028293164 0.3140638 0.10996722 -0.2802981 -0.5165041 0.086413726 -0.10536535 0.2276208 -0.23668057 0.3739942 -0.18043162 -0.09583925 -0.54276663 0.30196342 -0.21281905 -0.25971603 -0.26308557 0.24203572 -0.534196 -0.62356716 0.2501009
2696 0.32740793 0.06513565 -0.24063691 -0.21542563 -0.07808965 -0.10328261 0.1447614 -0.21539716 0.21289736 0.20099977 0.18385664 0.24070092 0.14621854 -0.21230449 -0.1018619 0.1459396 0.024974858 0.2719624 0.14778847 0.02603721 0.38921618 0.31067792 -0.30448127 0.13950443 0.05212367 0.17133012 0.24974722 -0.46387437 0.43708795 -0.43783975 0.020365767 -0.0995145
303 0.3259517 -0.4561885 -0.6181525 -0.3947898 0.3010197 0.37206495 0.16491309 -0.12189551 0.13418369 0.3734522 0.17782469 -0.445301 0.2969902 0.23080342 -0.31289724 -0.19876422 0.51829183 -0.7020186 0.06908433 0.1192604 -0.107876 0.25407708 -0.21854743 -0.16437912 0.12344409 0.1518558 0.28025782 -0.15959802 0.16830614 0.07190516 -0.44049612 -0.07604426
1540 -0.12251702 -0.31998718 0.32522082 0.24666761 0.37747392 0.7282613 -0.39330485 0.15864697 0.400362 0.026616907 -0.06311543 -0.40808424 0.3714591 -0.103178814 -0.42084038 -0.30427226 -0.32510778 0.3953498 0.354997 -0.3413438 0.19745712 0.4585966 -0.28008428 -0.33690506 0.026735622 0.10601898 0.13655983 0.43473533 0.27741507 -0.63701314 0.2961784 -0.08550331
2791 0.48210114 0.36820507 -0.4282451 0.04898902 0.22867028 0.301345 0.25814745 -0.38577548 -0.06020457 0.09039208 -0.0806799 0.1874108 0.2649197 -0.09250742 -0.48134175 0.026523627 0.089546345 0.12472378 0.24215744 -0.5537014 0.2906635 0.089285575 -0.1215294 -0.014525772 -0.11014857 0.19410954 -0.4025547 -0.002075981 0.038263697 -0.18871982 -0.24563213 0.19309716
2464 0.031177603 0.025248019 -0.39950845 0.106194526 0.13768888 0.36049056 0.41010362 -0.018007087 -0.17629927 0.75449157 -0.074492835 -0.35990268 -0.06443525 -0.028425304 0.58678 0.05140175 -0.724716 0.13572009 -0.016345048 -0.19147377 0.3832674 -0.015985096 0.41390613 -0.5607384 0.10464394 0.22719039 -0.1936022 -0.086443074 0.26322243 -0.38252702 -0.33212098 0.4506973
310 -0.16529478 -0.081561424 -0.03893154 0.118317515 -0.13107567 0.47520322 0.2147748 -0.19245629 -0.20495255 -0.045748428 0.18710846 0.4045749 -0.04087046 -0.17122734 -0.17044717 -0.4862556 0.16745053 -0.24049953 0.27240318 -0.25317279 -0.06745641 -0.011389331 0.21886338 -0.30933958 -0.24368714 0.39960843 0.16687365 0.60893375 0.39107552 -0.21185377 -0.14526841 -0.022583123
1632 0.08977264 -0.030987184 -0.48668718 0.5097152 0.25606155 0.42200947 0.029564718 0.25303167 0.015778854 0.088805474 -0.3360863 0.5368113 0.13934493 -0.06329919 -0.15652877 -0.23029865 0.8041453 -0.14016227 0.63282025 -0.6098912 -0.18075767 -0.09933525 -0.11462429 -0.31575584 -0.11472236 0.12210437 -0.28639832 -0.1614825 0.4370335 -0.19226684 0.024055172 0.02121566
479 0.27868834 -0.189358 -0.4115968 -0.00846216 -0.07344972 0.19448066 0.14666504 -0.09708762 -0.10833245 0.2668767 0.027731521 0.23885274 0.01828683 0.51510715 0.0700265 -0.4003411 0.15597522 -0.6216724 -0.12505291 0.010836415 -0.0012413838 0.28811675 -0.22306713 -0.34898108 -0.18518853 0.07710013 0.47423065 -0.10590977 0.33816633 -0.03507406 0.0057570413 -0.13948758
2618 -0.22366472 0.14746787 -0.30473587 0.35167277 0.35687152 0.27113986 0.22989807 0.037650026 0.16118735 -0.15071534 0.33982262 -0.19057745 -0.09514082 -0.0043177954 -0.38556713 0.025804333 -0.13816904 -0.06352492 0.09359024 -0.053963013 0.058697987 0.51913697 0.47200683 -0.04564045 0.085167035 0.1311843 0.09470207 -0.19502406 0.38087925 -0.61098087 -0.02931934 0.20111623
2509 0.15110745 0.21667592 -0.3708405 -0.007943553 0.22264172 0.32315814 0.11027003 -0.27547544 -0.22584336 -0.120264955 -0.0470778 0.3285555 -0.29014802 0.115999535 -0.37668845 -0.001737466 -0.21649739 -0.08389319 -0.015770085 -0.0022813042 0.33718106 0.24001095 0.13104014 -0.17286535 -0.039942622 0.09279637 0.09840425 -0.089189984 0.05817244 -0.4847468 -0.27279305 -0.016286898
2705 0.3880061 -0.27674395 -0.3590877 -0.04936891 0.5001265 0.04059892 -0.090221554 -0.14347324 -0.4434776 0.1702465 0.30239147 -0.1283717 0.2300507 0.085962616 -0.2672692 -0.2178951 0.34798494 -0.17467166 -0.012973905 -0.53621215 0.7322058 0.7425062 0.17518228 0.40310597 -0.52996 -0.34228188 -0.34614584 -0.21514572 0.23539324 0.13148685 -0.1477062 -0.1096882
103 -0.0039125774 -0.07903932 -0.36293218 0.27028888 -0.039841264 -0.18410647 0.33481377 -0.26429185 0.049677327 0.36354992 -0.70917034 -0.04404885 -0.25383905 -0.23438711 0.11042608 -0.3991183 0.13439727 -0.05843651 -0.043859143 -0.23373619 0.20855942 0.047867995 -0.11380695 -0.5668803 -0.68855476 0.25943547 -0.050650608 0.031392317 0.49714324 -0.35670954 0.043696728 -0.6352684
64 0.017629154 -0.17292531 -0.23112379 -0.17846629 0.028301248 0.3793468 -0.12404723 0.24107675 -0.025778918 -0.5333287 0.16802825 0.439422 0.47141635 -0.23609407 0.15818396 -0.19804081 -0.1060178 -0.09559716 -0.14932744 0.05229723 0.3643763 0.19694729 -0.27883813 -0.031227583 0.051331636 0.5367837 0.30805868 0.093087494 0.28734422 -0.14821537 -0.33434522 0.024750352
90 -0.26574698 -0.21402384 -0.3202516 0.034535475 -0.20931442 0.5189015 -0.1730428 0.23654674 -0.16663748 0.12172824 0.048724595 0.14841641 -0.4197534 -0.31431895 -0.28941736 -0.1542595 0.43470544 -0.11445391 0.49481604 0.27745104 0.36383864 0.15509373 -0.07952196 -0.09297198 0.028036395 -0.12390283 0.2664655 -0.8276529 0.4639264 -0.6138104 -0.06171229 -0.54051125
1268 0.18662164 -0.092946574 -0.16069558 0.3791619 -0.20921652 0.63023907 -0.12929341 0.5156687 -0.0620561 -0.11109293 0.030376853 0.69906265 0.01700332 -0.6287549 -0.30289224 -0.21275444 -0.056976754 -0.06202611 0.20956294 0.048324283 0.42995146 0.038042877 -0.18833566 -0.21710563 0.034140747 0.41181728 -0.088497356 -0.2441008 0.06744684 -0.36968383 -0.10490977 0.021050397
295 -0.20184156 -0.33269885 -0.19003496 0.026566517 0.31210023 0.32379323 0.20432535 0.10920985 -0.2655192 0.16781923 -0.24580136 0.18181175 0.42630306 0.35044867 -0.34476522 -0.47289246 0.12829581 -0.30269998 0.035659466 0.18511905 0.19591542 0.4601541 -0.42765757 -0.056176763 0.03735877 0.09421264 0.3305767 -0.33836004 0.1973171 -0.19136316 -0.13220328 -0.124100566
2470 0.7237136 0.4566777 -0.34651324 0.16378744 0.36587727 -0.14460711 0.03327501 0.22511108 0.38563243 0.39123398 0.049802907 0.57066864 -0.1281125 -0.3480495 0.2338601 -0.10589343 0.21455574 -0.08160994 -0.18308838 -0.040044572 0.34771574 0.4944801 -0.4750679 0.09470374 -0.028961377 -0.02179201 -0.038314242 -0.07519901 0.23100775 -0.18359801 -0.13040534 0.19741887
2575 -0.10932739 0.2685718 -0.27333564 0.31228927 0.15113106 0.17669262 0.0073817982 -0.35932595 0.81378984 0.23248067 0.24758014 0.7053767 0.30307123 0.110630095 -0.044149835 -0.20827189 0.16757838 -0.29520103 0.18498743 0.23803282 0.36773273 0.080021575 0.13166602 -0.12180482 0.16839351 0.23010242 0.14434661 0.08894681 0.060539108 -0.34468836 -0.1476395 0.1271126
2681 0.12803513 0.10818186 -0.18537043 -0.3052483 -0.38645837 0.31514874 0.23553793 -0.22046472 -0.0353046 0.44458008 0.034670103 0.1065307 -0.021913089 -0.27792886 0.23412247 0.34701502 0.10851638 0.4604912 0.6591148 0.046633758 0.1376893 0.41916907 -0.119132765 0.59138596 -0.03212483 0.4137841 -0.049756605 -0.35928887 0.8126617 -0.22258599 0.009007784 -0.26538813
21 -0.059422124 -0.22990483 -0.095337324 -0.14369336 0.17066517 0.36344504 -0.12934667 0.0037176914 0.11393313 -0.13575897 0.08542897 -0.09254699 0.20975113 -0.08953201 0.20589359 -0.19455032 0.16163492 0.07062277 0.33111438 -0.10840369 0.25502688 0.4956575 -0.4915915 -0.10289611 -0.38580695 0.25438622 0.033682954 0.0717373 0.3792959 -0.22790821 0.072287716 -0.12492448
1219 0.23285984 -0.1605469 -0.22242513 0.15360585 -0.16374907 0.35178754 0.49737006 -0.0010174984 0.084300995 -0.01431535 0.026245752 0.06480466 0.2851744 0.42064753 -0.0891119 -0.43647653 0.27434215 -0.30874503 0.25163186 -0.33296314 0.041963477 -0.12373087 -0.28140664 -0.54500943 -0.006579684 -0.0181397 0.15728517 -0.10708687 0.35368007 -0.47060084 -0.08281839 0.4952629
146 -0.043792214 -0.317186 -0.20679383 -0.073669046 -0.1505801 0.46616971 0.2205834 -0.037212253 -0.20456645 0.7670064 0.07371419 -0.10760341 0.11463982 0.08300006 0.4141354 -0.06791355 -0.48612633 -0.376103 -0.03261353 -0.12740017 0.37032297 -0.03397159 0.079730436 -0.67417574 -0.16247281 0.086264916 0.08563281 -0.16567011 0.29530525 -0.30687207 -0.19819885 0.16823201
2719 0.11011313 -0.04887578 -0.034276254 -0.32771748 0.12507392 0.21318153 0.34033352 -0.02554771 0.025647884 0.40454558 -0.029568646 0.072742276 0.16455027 -0.024132397 0.11261808 -0.24217065 0.0050923126 0.28686982 -0.2553963 -0.01800438 0.42447853 0.25964966 0.07421744 0.11785039 -0.023012677 -0.05699438 -0.21315002 -0.4029666 0.34714705 -0.3114087 -0.332858 0.072522424
214 0.13092177 -0.5693235 0.062067553 0.2518682 0.35240626 0.5866412 0.09704956 -0.28819472 -0.029987693 0.12534064 -0.18872975 0.09600838 0.08876738 -0.2096669 0.34810773 -0.27779558 -0.4657569 -0.3245308 0.18680012 -0.76323783 0.14657046 0.11552749 0.012760662 -0.5591202 -0.0020189178 -0.1307936 0.4104814 0.45134613 0.061242368 -0.6464144 0.2553221 -0.26172853
175 0.41892743 -0.5495469 0.16274379 0.22018406 0.11611107 0.5877073 0.040849652 -0.14750788 0.073368125 0.5274115 0.012847455 -0.025541782 0.29533404 -0.1726509 0.005799494 -0.019574087 -0.11594706 -0.29986393 0.073946945 -0.28563282 0.2009269 -0.27420706 -0.07609429 -0.13290879 0.6144564 0.010524818 0.14891772 0.5003109 0.6820464 -0.30741423 -0.529602 0.33330098
713 -0.22535652 -0.20556757 -0.50524104 0.2794703 -0.11967467 0.25821844 -0.2041578 -0.03793842 0.113397546 -0.3901219 -0.1094862 0.04599969 -0.13052893 -0.0225072 0.2203543 -0.042280458 -0.11381857 -0.45201275 0.15588477 -0.26228797 0.13567469 0.59034747 0.023299737 -0.4250401 0.13587935 0.5028897 0.37902936 0.0057588173 0.3040971 -0.030976206 0.21315376 -0.18807346
293 0.4167923 -0.35830587 0.113225326 -0.39628562 -0.35533434 0.1502143 -0.048031613 -0.24629751 0.058941986 0.33279082 0.051466495 -0.120016225 0.0014566008 -0.23256114 -0.13879493 -0.09695211 0.4337662 -0.33977902 -0.22083321 -0.14162743 0.19150433 0.18614034 -0.23610628 0.04973134 0.055033434 0.35053408 -0.03363017 -0.0030944657 0.7116117 -0.3664094 -0.5634824 0.03433732
2701 0.17888936 0.28658763 0.051370017 0.05626584 0.20278968 0.51543313 0.1617422 0.21297726 -0.06488437 0.008452817 0.055444665 0.50275594 0.09654658 -0.0022450292 -0.03143705 -0.23827256 0.033494394 0.4097129 0.12692909 -0.24513505 0.28056607 0.392601 0.18606055 0.012618813 -0.23000634 -0.24589437 -0.047914702 -0.36360794 0.31842813 0.309164 -0.28434464 0.17577104
2751 0.23900416 0.017012712 -0.37075248 0.0797714 0.35868797 0.11929719 -0.009274952 0.34113574 0.27308172 -0.08014304 -0.090405695 0.18105593 0.4471958 -0.10348911 -0.1657447 0.16065903 -0.0022963975 0.25449553 0.08754618 0.14519097 0.31772658 0.17975745 0.4705572 -0.17173696 -0.050745647 0.13754563 0.26754344 0.17141415 0.47570112 0.18953508 -0.35922524 -0.24699818
2715 0.032933168 -0.17960617 -0.019972343 0.32747936 0.534028 0.3526075 0.3343134 -0.20562871 0.00456872 0.4481211 0.08654359 -0.1515193 -0.20959914 0.36451924 0.037684705 0.17946108 -0.3538343 0.21338531 -0.18984544 -0.4151722 0.36187977 0.14237323 -0.03501614 -0.4688424 -0.1081424 0.47105226 0.24850056 -0.20510979 -0.10649738 -0.25268537 -0.11751283 0.04023223
153 0.5054177 -0.25612688 -0.25107652 -0.24680689 -0.31137082 0.31440017 -0.13995166 -0.05482924 0.20509511 0.17704882 0.117912754 -0.21819066 0.023587596 0.04050115 -0.4518516 0.009907105 0.097506754 -0.27849174 -0.15005866 -0.35753176 0.093826324 0.12879771 -0.42032075 -0.5144823 -0.42213467 0.20705135 0.38677967 0.02336331 0.2844301 -0.15896748 -0.09391556 -0.31877536
2586 0.15203732 -0.081206866 -0.023053426 -0.08663254 0.36275765 0.46059918 -0.043697856 -0.15344623 0.23215072 0.037677493 -0.21690339 0.3071407 -0.2526833 -0.15491916 -0.094927594 -0.29235435 -0.29976988 0.4137554 -0.12588607 -0.24374443 0.5792144 0.1172354 -0.17484498 0.043812215 0.11067162 0.12166536 0.317863 0.048309054 -0.15832292 0.044429705 -0.453369 0.305242
89 -0.14656866 0.1357083 -0.1924843 0.094550304 -0.026178949 0.1314406 0.5238892 0.2657162 -0.34302753 0.4868905 -0.16539004 0.017126856 0.11818148 0.22650029 0.10486084 -0.34299448 -0.47753704 -0.2976114 0.08329936 -0.17596951 0.18959227 0.4037095 0.15333109 -0.40092963 -0.4388138 0.45174158 0.11331025 0.036566895 0.18790345 -0.052011482 -0.023193551 -0.43906385
940 0.505664 -0.17161624 -0.41051486 -0.035254657 -0.027265513 0.3982133 0.11182032 -0.27543008 0.26094982 0.27976355 0.21332166 -0.11789251 -0.15055281 0.33267984 -0.20379147 -0.14871366 0.20395571 -0.8982187 -0.087071426 0.031120526 0.15640159 0.35462704 -0.5072462 -0.4507588 -0.0907771 -0.03033206 0.28373802 -0.27142426 0.14897466 0.13917385 -0.104033716 0.23730926
2793 0.30322486 -0.07539224 -0.70121354 0.033344366 0.12248002 0.0844266 0.37402272 0.0072938544 0.3639409 0.12701616 -0.2972138 -0.17721306 0.18281908 -0.20509024 -0.21586792 0.3623636 -0.0063935546 -0.26033187 -0.108882025 -0.31114584 0.36348897 -0.010550184 0.20771357 0.36698362 0.07526914 0.025439333 -0.14928177 0.552637 0.4752958 -0.16413648 -0.8047724 -0.5158565
2599 0.30368268 -0.09841268 -0.14595547 -0.37813836 0.053278286 0.38449013 0.32107154 0.18001851 0.095862985 0.2108274 0.27566856 0.21161745 -0.107234016 0.10183059 0.0006756329 -0.09627768 -0.18012412 0.07825498 0.21882628 -0.19058363 0.0753528 0.54962045 -0.12657206 0.39876762 0.57421213 0.15866311 0.16355897 0.21903124 0.33876085 0.34442133 -0.18470392 0.30424005
54 -0.002641562 0.2683104 0.22899157 0.28796566 -0.055461314 0.5371854 -0.1690618 -0.044975992 0.03224768 0.37535384 -0.17174353 -0.08973142 -0.09372186 0.050116863 0.1539894 -0.37589216 0.28569403 0.1874264 -0.09988088 -0.24383688 0.017682347 0.4269633 0.11307493 -0.22401664 -0.48002836 0.08306495 0.3120355 0.40086392 0.46836194 -0.17713964 -0.24187687 -0.72258365
809 0.4057521 -0.42192402 -0.22372515 -0.07629054 -0.055346593 0.40290225 0.275784 -0.0571343 -0.21297234 0.2977285 0.2141063 -0.033148322 0.15028338 0.31632996 -0.3286573 -0.22348908 0.43022248 -0.52579474 0.02936316 -0.18265845 0.20451358 -0.16528918 -0.11963422 -0.35432804 0.2647371 0.120293766 0.2288831 -0.037286963 0.32731 -0.096711695 -0.30052316 -0.0967447
1692 0.014891085 -0.12753811 -0.44123423 -0.057298865 -0.18803431 0.08476358 0.5609577 0.09518731 -0.18227828 -0.47999758 -0.040131394 -0.1280206 -0.12760338 0.09188643 -0.28339896 -0.33679354 0.4036639 -0.16749138 0.17735639 -0.4470468 0.5489713 -0.102052905 -0.31857902 -0.7417279 -0.37015128 0.1902082 -0.44241974 -0.32176855 0.27484378 -0.53269947 -0.05135014 0.27342185
1661 0.24753779 -0.25501382 -0.42900077 -0.27580944 0.664667 0.38753763 -0.1683776 -0.12907614 -0.18793698 0.39730135 -0.002687026 -0.4946593 -0.08939182 -0.41150045 0.1322566 -0.17515671 0.594602 -0.037318658 0.27832034 0.5177901 0.2803581 0.2726864 -0.22702523 -0.7252349 0.2587348 0.19190764 -0.31241867 -0.15020117 0.51589465 0.085340045 -0.015135246 0.30937818
2683 0.158846 0.01057865 -0.293771 0.06267336 -0.19347875 0.00029496272 0.29974502 -0.008076949 -0.18522704 0.114589676 0.13844445 0.25986397 -0.076861635 -0.41844857 -0.37130502 -0.070192285 -0.20553042 0.62778634 0.5613081 0.09814087 0.3442659 0.28003576 -0.04669279 0.22193162 0.22026053 0.39877614 0.121364035 -0.55744743 0.30060145 -0.46022543 -0.112015426 -0.5076972
2474 0.21582064 0.42857215 -0.55151534 0.305697 0.2251499 -0.03277663 0.3571353 0.344881 0.76540875 0.03903211 -0.26604822 0.6242131 0.011630708 -0.17940123 -0.52028143 -0.57090867 0.01529268 -0.23503672 0.25168735 0.20088206 0.26186776 0.037746064 0.06572984 -0.27176887 -0.105069146 0.6482416 -0.19852845 0.07022367 -0.44295162 -0.41830528 -0.6164744 0.2089371
2688 0.0016800757 0.05707693 -0.07678279 -0.078653865 0.24485525 0.2589849 0.16243672 0.16270107 0.22310136 0.08481386 0.10704174 0.0019682758 -0.25055742 0.5221233 -0.17977913 -0.057304043 0.056997463 0.11261589 0.18310536 0.14959009 0.29045013 0.38377354 0.2936678 -0.26862934 -0.0026885874 0.39021948 -0.36475426 -0.15703526 0.24761489 -0.20924631 -0.14115965 -0.17581613
2679 0.23804884 0.15936153 -0.18172881 -0.107891314 0.31953496 0.23363559 0.2808578 -0.26164335 0.37068388 0.07652517 0.21901885 0.17430551 -0.025912443 -0.20956588 0.04027992 -0.32173675 0.033881586 -0.13208371 0.10389183 0.03899876 0.048181277 0.6309265 0.29538944 -0.1866331 0.26448914 0.099991895 0.027403524 -0.2393106 0.29405648 0.041002158 0.610849 0.18500207
2471 0.48613042 0.82772887 -0.58325404 0.04965145 0.27980128 0.045102417 0.2042545 0.10862563 0.12502183 0.16493325 0.25898182 0.23625077 -0.10148324 -0.023339732 -0.06964581 0.36108178 -0.28370515 -0.39661935 -0.21783568 0.13945736 0.18776338 0.21162698 -0.15790226 -0.18372568 -0.20967725 -0.12261245 0.2646459 -0.483222 0.52625555 -0.40663388 -0.37209454 0.1373972
2517 0.68697345 0.19766268 -0.2761256 0.12510179 -0.16385548 -0.174201 0.484867 -0.37412146 0.3581728 -0.47093576 -0.02633867 -0.43379876 -0.04459043 0.0019505032 -0.85819274 -0.07551012 -0.18091612 -0.11422509 0.1671949 -0.38328376 0.7811553 0.36856848 -0.3616665 -0.14259541 -0.017878745 -0.14873128 0.23390184 -0.20984343 0.09806624 -0.37777677 -0.34670514 0.35680535
2482 -0.0027443431 0.17294855 -0.06644602 0.023918118 0.46303195 0.13522609 0.07818588 -0.28860483 0.029830137 0.058716428 -0.056582488 0.2340152 0.19071855 0.22718461 -0.57601035 0.40865052 -0.24575461 0.199852 0.024381457 -0.13797726 0.35792533 0.21042526 0.019835055 -0.13945088 -0.13412474 0.59965765 0.20409018 0.4249601 0.34964454 0.040235076 -0.26233712 0.11892107
1223 -0.1083216 -0.081955455 -0.35257116 0.2183266 0.09845543 0.33174857 0.23105258 -0.00045467468 -0.11670719 -0.0011160881 -0.120132975 0.06361984 -0.14965115 -0.040144287 -0.22148511 -0.28585517 0.22998038 -0.60114413 0.33894476 -0.19141069 -0.13482688 0.13317093 0.1734496 -0.5355146 -0.20692049 0.15493469 0.1826055 -0.45777923 0.3568454 -0.00061405654 -0.4992691 0.29549277
63 -0.4059999 -0.08060414 0.029870128 -0.051614903 0.19418934 0.2175062 0.0232397 -0.23729406 0.26847735 0.23515572 0.13072176 0.3357574 -0.06876574 0.07207097 0.31221458 -0.5324247 -0.14249071 -0.03444248 -0.033605807 -0.1906951 0.5156642 0.379159 -0.77831244 -0.20632131 -0.4646497 0.12356356 0.07679471 0.4194162 0.061213735 -0.118438005 -0.13618864 -0.3015508
1421 -0.18271832 -0.12017361 -0.32730156 0.010999739 -0.26309896 0.075477965 -0.11550838 0.28091872 0.11405798 -0.13990036 0.01935925 0.0014910958 0.076485485 -0.10931768 -0.081795886 -0.3721178 -0.003133947 -0.05499493 0.2646797 -0.073813714 0.45489743 0.0036449984 -0.24271744 -0.004681605 0.16201973 -0.002984759 -0.3998999 -0.89860415 0.78472054 -0.772081 -0.3894306 0.07535871
2745 0.111302495 -0.30796415 -0.38529655 0.36281443 0.14086835 0.15246141 0.029803708 -0.30620605 0.25881273 -0.14830248 0.40442854 0.8403462 0.088764414 -0.16577402 0.22120145 -0.26645413 0.3474029 -0.096483536 0.20139441 -0.7941105 0.18527491 0.022620235 0.39084634 -0.07672275 -0.52828234 -0.017274072 -0.12441424 0.23812523 0.17243205 -0.33963004 -0.03295582 -0.042156264
2488 0.1384489 0.1472224 -0.41132757 0.0107263075 0.1319722 0.06373879 0.0012188322 0.021051938 0.34428632 0.08609284 -0.18036708 0.2309874 -0.011142174 0.03835224 -0.2994737 -0.02521846 0.0015315872 0.15448439 -0.061511643 -0.07633671 0.33269688 0.04828861 0.3118 -0.08984682 0.040095974 0.25855324 0.15228224 0.0834034 0.34621873 0.114974804 -0.27205998 -0.21122594
1649 0.29921475 0.00801864 -0.41452706 -0.1018429 0.14884181 0.56805915 0.22966103 -0.19768837 -0.14216445 0.045739222 -0.21667913 -0.4996779 -0.095930725 -0.14148062 0.016051268 -0.36237115 0.041270547 -0.014710118 0.36438802 0.08056652 0.16007695 0.018161286 -0.44666874 -0.64137006 0.34786397 0.27454856 -0.5027496 -0.20443936 0.27099168 -0.15013272 -0.48447624 0.5668001
