3907 32
1286 0.10979272 0.17449854 -0.11074603 -0.21575612 0.043654997 0.065904744 0.14359523 0.040561687 -0.07019628 -0.15535466 -0.10614148 0.08154389 0.29291722 0.10617926 0.056794852 -0.06524502 0.19444776 0.39015612 0.20673107 -0.34441125 0.0034961402 -0.04507907 0.21922755 -0.3135635 -0.2283043 -0.06989789 -0.41423836 -0.5793314 -0.06412615 -0.15368746 -0.0012016847 -0.24303949
201 0.23743124 -0.22021745 0.048870713 -0.4271668 -0.21064095 -0.17908406 0.17135887 0.20587306 -0.060942687 0.17607272 0.12651403 0.27857602 0.11018262 0.26444656 0.10574381 -0.10366235 0.11163812 0.110857986 0.28636467 -0.47203538 0.17244807 -0.038028777 0.32822686 -0.44702587 -0.11005293 -0.052783072 -0.103496894 -0.3461585 -0.10146432 -0.04314954 -0.099786036 -0.3955043
2553 0.67539823 0.5066471 0.10839832 -0.30425915 -0.22864874 -0.33959377 0.3774086 0.2703456 -0.12305357 -0.10589807 -0.10447461 0.09246921 0.16374859 -0.027573684 0.2492997 0.33209744 0.22286075 0.3119052 0.13183132 -0.3526104 -0.24002503 -0.24090745 0.08678948 -0.15492164 0.04981045 0.23787093 -0.50629497 -0.44296446 -0.42696595 -0.25339264 0.22635414 -0.24060613
107 0.22475947 0.31760398 -0.033099834 -0.1328003 -0.026963206 -0.120040685 0.20049465 0.21927217 -0.30642393 -0.15467009 -0.1635505 -0.013724372 0.0754435 0.09335078 0.10535055 0.017409004 0.39697814 0.30262947 0.33964935 -0.22392793 -0.06370216 -0.1643671 0.071935736 -0.2534537 -0.12919104 -0.041736707 -0.33544594 -0.58320326 -0.188828 0.054984055 -0.027010527 -0.3997978
247 -0.0734627 0.10258821 -0.15104552 -0.006703037 -0.2310215 -0.3462069 0.35266644 0.03149204 -0.032963965 0.15292925 0.19284813 -0.30969843 -0.018451141 0.19758864 0.18922582 -0.4230691 0.2630972 0.46451196 0.46376964 -0.12670057 0.062058736 -0.015339627 0.23683159 -0.0071736067 -0.047742143 0.019537002 0.18941917 -0.53176576 -0.21244237 0.036679067 -0.17412588 -0.18686773
2726 0.35532886 -0.64230835 0.20949967 -0.4698709 -0.22687869 -0.4258791 -0.15986215 0.43078333 -0.45324317 0.41033816 0.47698635 0.52658826 -0.20944607 -0.08334188 0.11482428 0.1214431 -0.050681993 0.26889533 0.5084915 0.0032799563 0.05712396 0.35239062 0.2389161 -0.328729 -0.32719564 -0.22274417 -0.18299896 0.14382155 0.23844543 -0.13771287 0.06770395 -0.44885594
2657 -0.13059038 -0.357038 0.1872395 0.15815791 -0.30242535 -0.55923784 0.18995412 0.1645794 -0.056200076 0.018560503 0.28013065 -0.28058922 -0.04357299 -0.2316091 0.38217324 0.064957164 0.31814167 0.49154803 0.04512645 0.16211976 -0.015583073 -0.4510371 -0.21706045 0.080984816 -0.117471814 -0.16202818 -0.2822092 -0.25699365 -0.12164465 -0.13795201 0.11707246 -0.24330805
2556 0.0037479165 0.25260335 0.63974994 -0.3171002 0.20695545 -0.5621111 -0.42865366 0.17052463 -0.5187347 -0.048816223 0.3768967 -0.23612003 0.10869844 -0.21208435 0.13070896 -0.5374108 0.19438711 0.46998858 -0.13809729 -0.021054793 0.077029556 0.6017135 0.2180852 -0.21043377 0.2480058 0.1761641 -0.10035264 -0.2265173 0.07205259 0.17718256 0.08697208 -0.2023943
1287 0.32065147 0.025669884 -0.08125061 -0.30021933 -0.08354543 -0.16825336 0.20045458 0.20384361 -0.2483087 -0.15856561 -0.11559058 0.13400576 0.17896545 0.17532545 0.23977575 0.1929666 0.24508113 0.2320163 0.5305877 -0.33162695 0.04716241 -0.12929134 0.024057467 -0.13935883 -0.17435297 0.0011770822 -0.18369043 -0.3952756 -0.036274306 -0.21796033 0.17272808 -0.47522315
80 -0.1242406 0.41249925 -0.062177602 -0.2866797 0.016010141 -0.3476782 0.19485405 0.26086473 -0.5153413 0.05178708 0.1612335 -0.0062137106 -0.18458284 0.06979734 0.09052421 -0.47728643 0.17421785 0.1920556 0.44917154 -0.19627436 0.30100012 0.24771081 0.40114802 -0.21483228 -0.18136637 -0.109155975 0.087474205 -0.28075475 -0.0050519835 -0.13040288 -0.03548008 -0.30452716
78 -0.35655925 0.41381416 0.08173177 -0.18657239 0.09968247 0.03180931 0.12021236 0.18558097 0.0494715 -0.11036059 0.025265656 -0.01705987 0.00011582428 0.18450628 0.14684561 -0.17915215 0.13105932 0.4221704 0.33850372 -0.29278207 0.18395415 -0.07240481 0.22149424 -0.28194848 -0.2678296 -0.04103739 -0.15284926 -0.413515 -0.06714938 -0.268305 -0.12910163 -0.20598996
2533 -0.15809022 -0.47779113 0.6714652 0.016917847 -0.36920178 0.05980303 0.4031789 -0.28022236 -0.30233926 0.2442507 0.07264078 -0.33596835 0.03058044 0.10569499 0.7310146 0.18068056 0.14963016 0.310556 -0.129882 -0.4596001 0.029277353 -0.35708967 0.28365302 -0.5110183 -0.26956627 -0.5568127 -0.114703625 0.17975426 -0.26879963 -0.15681383 0.10581638 0.49919832
53 0.18594229 0.2699606 -0.11606289 -0.16451657 -0.055223893 -0.094771154 0.17666699 0.018745521 -0.10631893 -0.09441843 -0.053787027 0.15720564 0.25567725 0.07189447 0.45230278 0.22390752 0.37073147 0.25237346 0.47192267 -0.23867173 -0.087891966 -0.22616398 -0.011884228 -0.11734705 -0.20566738 0.08065344 -0.3153982 -0.5567498 -0.30173543 -0.029811844 -0.050572433 -0.44385037
2458 -0.12617414 -0.5803543 0.09511703 0.3233383 -0.17567529 -0.09613871 -0.47083753 -0.07755213 -0.23941225 -0.13786626 0.09518236 -0.30197296 -0.34066686 -0.12398983 0.5469912 -0.19710203 -0.2638893 0.5691092 0.51360154 0.03577025 -0.06127188 -0.19495355 -0.24347173 -0.22796024 -0.025595238 -0.0437824 -0.21198651 0.116822444 -0.4605054 -0.43798655 -0.10983363 -0.1286637
2695 -0.3562342 -0.43965763 -0.16822653 0.16296725 -0.13001636 0.18494827 -0.19602478 -0.32424185 -0.012264134 0.38842937 -0.10288059 0.31022388 -0.43773514 0.008029329 0.34292996 -0.11446675 0.16447914 0.44996288 -0.1474315 0.029269814 0.18852952 0.28145185 0.12645358 -0.26515532 0.22763664 -0.017302955 -0.63287073 -0.45591614 -0.272571 0.033983387 0.41643775 -0.59847564
2699 -0.57395214 0.3403612 0.72470796 0.09808437 0.29582754 0.07267958 -0.25588197 0.016997866 -0.42361605 0.084475145 -0.06327891 0.023612319 -0.6075523 -0.31862468 0.1351317 -0.15480988 -0.17679669 0.7539132 0.20062783 -0.46978793 0.40134516 0.054207817 -0.16973366 -0.35593656 -0.4948681 0.0956633 0.19137426 -0.019655267 -0.11874016 -0.37690037 0.22154227 -0.29091796
56 0.22198038 0.07906833 -0.124082625 -0.2510754 0.024157846 -0.018875765 0.33232337 0.19322716 -0.23651345 -0.07863918 -0.06810019 -0.091205455 0.13941292 0.08254523 0.20916112 0.13259803 0.33356205 0.17841756 0.32519493 -0.33959848 0.09734289 -0.1479728 -0.06271902 -0.23107535 -0.26266235 0.03163369 -0.5475771 -0.51183236 -0.0376782 -0.07473478 0.072260216 -0.42875105
1214 -0.07629668 0.23931658 -0.073191814 -0.3976471 0.0738598 0.069390535 0.234607 0.12738745 -0.0060077477 -0.12862514 0.052256446 -0.02162581 -0.01682212 0.30549458 0.37287036 0.0174283 -0.11592487 0.29198834 0.26138568 -0.12673366 -0.028592503 -0.11329167 0.11057452 -0.23081496 -0.24627192 -0.15448391 -0.17210388 -0.46209335 -0.0024109306 -0.14078815 0.0141184 -0.36287725
2669 -0.24293746 -0.121061414 0.23959012 -0.19993225 0.095354944 -0.15002039 0.6509633 -0.40643048 -0.120085426 -0.2993925 -0.54968596 0.0073815747 -0.025993079 -0.5726655 0.24299473 0.30809298 -0.070138514 1.1985024 0.17204815 0.003585158 0.095138386 -0.07012737 0.057597116 -0.3682779 0.05676327 0.10491607 0.22018972 -0.22382379 0.17176902 -0.07874132 -0.11452404 0.32070565
239 -0.060345966 0.0023249728 0.09805652 -0.26990256 0.18328261 0.124632314 0.22657628 0.092001416 0.03922482 0.19907652 0.14684646 -0.026073845 -0.22924036 0.18469104 0.0207799 -0.22274484 0.19477858 0.2623347 0.20353115 -0.5795797 0.21483445 0.036222562 0.21515007 -0.41833404 -0.09457775 -0.1701676 -0.07776357 -0.38770255 0.0069788382 -0.18697622 -0.12334582 -0.3064978
1350 0.025902357 0.19693331 0.018660286 -0.31214362 0.02485365 0.18632406 0.1415097 0.16289376 -0.0639386 -0.09893418 -0.044590995 -0.007798093 0.3957448 0.22263779 0.13626757 -0.03360174 0.06369441 0.3548532 0.26393437 -0.3123575 -0.113956235 -0.08093788 0.22203815 -0.26234916 -0.007728386 -0.00922131 -0.31152356 -0.60283345 -0.11133073 -0.3375911 0.033012435 -0.19823442
2632 -0.11828864 0.62466925 0.14810519 0.15853351 -0.05278134 0.05858215 0.3900926 0.51814294 -0.018839521 0.11200982 -0.44970462 0.07823492 -0.09079931 0.055733725 -0.16577646 -0.0015167489 0.472128 0.69583327 0.21181096 0.07377753 -0.11519361 -0.31567407 0.50833356 -0.40702358 -0.0062326207 -0.28290078 -0.4553383 -0.15712015 -0.33770224 -0.55505735 -0.06287493 -0.18147577
2468 -0.3657485 -0.3132707 0.33638898 -0.3722205 -0.15067738 -0.075016 -0.06822403 0.27105972 -0.26934642 -0.021045487 0.14242199 -0.06805839 -0.36799136 -0.17983872 0.102809206 -0.5349219 0.20906498 0.29024956 -0.20597523 0.032136194 0.37287143 -0.24358815 0.3523089 -0.17868641 0.45660448 -0.2868485 -0.7422299 -0.20721391 -0.31198096 -0.1983307 -0.3142577 0.2832196
97 0.21493782 -0.025257414 0.05058404 -0.18195072 0.041020196 -0.04736078 0.00042376504 0.25558862 -0.34709555 -0.019301085 0.21623798 -0.025469428 0.18719688 0.14227083 -0.1971019 -0.35471818 0.052083775 0.51365316 0.14119592 -0.18608357 -0.005945526 0.25730103 0.037378624 -0.4247487 -0.32536405 -0.05967392 -0.2148623 -0.45836452 -0.23168896 0.08250014 -0.41955903 -0.38191158
2485 0.28829542 -0.4579403 0.44500077 0.49221808 0.10122006 -0.13906814 -0.057414815 0.059984714 -0.52584344 -0.6751364 0.24612194 0.3150673 0.14478266 -0.09534563 0.5338964 -0.03763405 -0.46911022 0.6615269 0.27907705 -0.22015798 0.15935266 -0.06535904 0.3607446 -0.310871 0.023306776 -0.4258858 -0.5449464 -0.19660823 0.23900495 0.55060333 0.017134469 0.18621655
2733 -0.07502192 0.4297598 0.5021904 -0.30710718 -0.08401531 -0.2391396 0.27846867 0.27015966 0.31465855 -0.27744856 0.028704882 0.3122504 -0.014075759 0.28553328 0.29200795 -0.062221613 -0.26101834 0.43226713 -0.118358225 -0.31026778 -0.26973158 -0.36106518 0.49616724 -0.22318326 0.01969054 0.21020494 -0.2982024 -0.08897064 -0.29213032 -0.3718112 -0.045734838 -0.24511486
2668 0.0058128433 0.21501501 -0.10238031 -0.25664228 -0.39809135 -0.2666741 -0.020313427 -0.20867385 0.12779915 0.016429072 0.055167828 -0.15939182 -0.3877619 -0.27460402 0.16033481 0.42320812 -0.044393025 0.5839616 0.0801036 -0.1743926 -0.14169481 0.0650282 0.081152454 -0.31960508 -0.13384412 -0.14936489 -0.32365212 0.121008106 0.07300601 0.034487747 0.14243929 -0.44355068
2498 0.40233198 -0.069905326 0.3250999 -0.22263235 0.22251448 -0.17238656 0.33387473 0.34216747 -0.39077035 0.34223264 0.05691413 -0.17885998 0.34049317 0.001099735 -0.25413358 -0.2760643 0.25464174 0.49969038 -0.19289899 -0.030908586 -0.4222778 -0.1425584 -0.017702516 -0.42585346 -0.4447547 0.018592846 -0.80214226 -0.10198408 -0.31486914 0.12692182 -0.25363046 -0.37161842
2512 -0.028573597 -0.04315267 0.38737097 -0.21778938 0.08297671 -0.16113535 0.115937516 0.13934815 -0.32348302 0.3485094 -0.35505027 0.03663144 0.044562165 0.15930283 0.28540456 0.119570665 -0.21682943 0.46369493 0.41216886 -0.48955733 0.1839195 -0.15515591 0.32683244 -0.15157959 0.015148424 0.09468711 -0.13546336 0.06870996 -0.55318093 0.09635441 0.7698987 -0.055540584
2522 0.08620796 -0.040183246 0.54260015 -0.2157619 0.20336428 0.117928684 -0.05729922 0.15346304 -0.20721804 -0.0453815 0.13076545 0.081255205 0.007445914 -0.013845339 -0.020631125 0.2793777 0.29524362 0.5150438 0.20468467 -0.1522298 -0.09064486 -0.39693877 0.12284352 0.023759857 -0.08294722 0.14218222 -0.59773976 -0.12589923 -0.008193783 -0.69651103 0.20240186 -0.2412774
2606 0.5126536 0.4467062 -0.027621828 -0.21207644 0.01768591 -0.42243648 0.6316825 0.3586523 -0.3120761 0.07915715 -0.13563628 -0.030169304 0.16812062 0.027009055 0.5045296 0.16696082 0.22869381 0.1702182 0.36790797 -0.17892955 -0.06823542 -0.31054854 -0.13792488 -0.096737675 -0.12679848 0.28169042 -0.4878204 -0.014827558 -0.29328707 -0.375731 0.27237955 -0.50732434
301 -0.08510488 -0.21455407 0.109154016 -0.59476054 0.26567447 -0.18399695 0.11732096 0.28839567 -0.39401087 0.47513267 0.09386209 -0.102426685 -0.11932068 0.0051714564 0.12556235 -0.2638082 0.11637288 -0.13838533 0.46538344 -0.5971017 0.5062678 0.056588113 0.26539913 -0.4331818 0.073613904 -0.17783293 -0.11157733 -0.1464303 0.10237286 -0.20041582 0.056477346 -0.36445662
789 -0.069296405 -0.06969311 -0.6178727 -0.40159217 -0.108787134 -0.18150364 0.50394917 0.054013453 -0.10749983 0.33652112 0.05962269 -0.31944442 -0.21375215 0.376538 0.046884317 0.3445285 0.038147163 0.7887496 0.16970293 -0.5639656 0.3929 0.034035634 -0.031575397 0.17357224 0.20288202 -0.0100656785 0.06651235 -0.227667 -0.2923583 0.021502765 0.07394937 -0.11313304
2610 0.13842349 0.52650213 0.44717368 -0.21695074 -0.1153627 -0.1651908 0.26259708 0.49747846 -0.08355006 0.0076160957 0.04101267 0.10029115 -0.281953 -0.12517932 0.07222085 0.28278807 0.6046007 0.37178773 0.13496302 -0.40249 0.081409454 -0.24960911 0.06543526 -0.25130874 -0.16799255 -0.22037597 -0.35768142 -0.029688928 -0.21996006 -0.28742003 0.17476434 -0.29414693
173 0.35538948 0.1865717 -0.00088072487 -0.74221116 0.06601783 -0.09461397 -0.22884388 0.21134074 -0.07931572 0.49194 0.10661424 -0.2993058 0.16620722 0.18244356 0.023948861 -0.26505643 0.11792602 0.61134166 -0.03851689 -0.20287903 0.1911703 -0.024423419 0.13541536 -0.08904177 -0.26356298 0.088279836 -0.34025094 -0.28796157 -0.05099653 0.2590094 -0.6160321 -0.25057465
2525 -0.19421397 -0.15039447 0.19015643 -0.53118765 0.108995005 -0.07715674 0.1820837 0.29637426 -0.16114295 -0.4340601 0.15197967 -0.1257709 0.317004 -0.5974545 0.29091036 0.016273158 0.5000031 0.43567073 -0.015093605 -0.17499638 0.14232604 -0.1635807 0.10936057 -0.030816885 -0.11722395 0.45635828 -0.45368814 0.05956563 0.08344404 -0.50258607 -0.2917361 -0.4330437
206 -0.027930884 -0.36594993 -0.2124576 -0.43412527 -0.12899381 -0.38496375 0.6366269 -0.40562648 0.12476132 -0.02674362 0.16092835 -0.02098964 -0.053316396 0.2171359 0.15759751 0.05691122 0.08429951 0.51134014 0.47912818 0.13581084 0.52993214 0.30296543 -0.33328572 0.07458613 -0.1305263 -0.16093782 -0.14950801 -0.45999295 -0.4109667 -0.06460939 -0.1747291 -0.00938774
23 0.031324666 0.079695314 -0.13663097 -0.6227346 -0.12543526 -0.07338571 0.059896052 -0.057969645 -0.0817156 -0.31217214 0.12092819 0.16634554 -0.09253461 0.16305292 0.29850602 -0.0405651 -0.001646636 0.28293875 0.52454007 -0.26156718 -0.08198698 -0.16501243 0.25976175 -0.14342153 -0.25106856 -0.07330204 0.07601947 -0.22825205 -0.08661185 -0.14102499 -0.039224688 -0.35260263
1117 0.078689344 -0.24948043 0.17063506 -0.5574741 -0.043298982 0.011624745 0.01889089 0.038765818 -0.45112202 -0.13154861 -0.14529976 0.38161218 0.013493222 -0.0755516 -0.017628154 -0.18689029 0.04421519 0.5862672 0.35309124 -0.38792127 0.34012198 -0.20958343 0.14403348 -0.3982326 -0.23352462 0.10177639 0.1590986 -0.24992041 0.30436593 -0.119914435 -0.24809742 -0.25615034
360 -0.38280386 0.20537773 -0.058683194 -0.16045678 -0.06665311 -0.15316935 -0.1674302 0.07601739 -0.21447575 0.45363832 0.03915274 -0.08502939 0.19978724 0.41236782 0.1914673 -0.39867222 -0.06758551 0.5250325 0.40146372 -0.6424346 0.28614852 0.062312968 0.26757666 -0.0589 -0.024187885 -0.053415872 -0.021177888 -0.20771585 -0.31734735 0.16950852 0.14408241 0.02815314
300 -0.0041282033 -0.27279246 -0.06938891 -0.3354147 -0.05018354 -0.072866514 -0.26894027 -0.06888378 -0.2619501 0.19916223 -0.0014216588 -0.185995 0.03328433 0.25758108 0.24774459 -0.4544978 -0.12839177 0.45027226 0.55843794 -0.50164694 0.22061251 -0.24356768 0.29061815 -0.034399584 0.06500031 -0.06588103 0.38772118 -0.1646872 -0.31334934 0.005623645 0.078030795 -0.2096643
2718 0.09458524 0.31984404 0.14153802 -0.5392957 -0.09304211 0.35518146 -0.1508332 -0.31345823 0.073165424 -0.022832105 -0.068902716 -0.3165986 0.1007885 -0.2975914 -0.1632107 -0.13306552 0.35495162 0.8174507 0.24757297 0.011685151 -0.2288287 0.16430879 0.34336397 -0.12403691 0.0008033255 -0.5430539 -0.37555477 0.31001073 -0.19819646 -0.12451984 0.15643032 -0.073442
2727 0.031622387 -0.40546426 0.07119968 -0.20041314 -0.32259688 -0.1829857 0.30464867 -0.27182055 -0.20888813 0.24630445 0.0488191 0.2616185 -0.3296715 -0.41489822 0.21284944 -0.45760277 -0.06673506 0.103990674 0.19404423 0.21156369 -0.21070828 0.53311855 0.32125616 -0.64520407 0.1209005 -0.40484658 -0.16386133 0.0738294 0.28064 -0.33598334 -0.22830996 -0.6333703
2708 0.28717002 0.20894568 0.3013576 -0.09206589 0.05855801 -0.094367914 0.4805767 0.049882554 0.04585061 -0.015631652 -0.1367638 0.03799354 -0.34671104 -0.2894712 0.45154896 -0.36301592 0.3306422 0.2740072 0.38325098 -0.37739888 0.44407216 0.024048068 -0.15411277 -0.06271072 0.000351974 -0.45630085 -0.55143875 0.3894274 0.11916768 -0.29373837 0.009862229 -0.16065437
2631 0.09081002 -0.1187274 0.16582558 0.26136965 -0.21098517 -0.49172607 -0.047677927 0.052048612 -0.045925893 -0.031874016 -0.0673081 -0.20708805 -0.38468844 -0.13915932 0.24573405 -0.2030697 0.036057673 0.4936454 0.48279247 0.23283626 -0.03888652 -0.30852434 -0.06965893 -0.049824007 -0.093550235 0.059420455 -0.18852903 -0.19134998 -0.32293943 -0.18789108 0.039905455 -0.4405389
2648 -0.14325234 0.67727894 0.014864313 -0.055040386 -0.045903485 -0.38090348 0.42315748 0.69929045 -0.3343724 -0.5045683 0.050225414 0.3821225 -0.18026908 -0.07064039 0.2295619 0.40221766 0.6641363 0.54052013 0.14825064 0.22703551 -0.097463444 -0.3288714 0.5276254 0.0128827 0.34377393 -0.028100029 -0.24308366 -0.16097 -0.11211605 0.10573832 -0.17452468 -0.8134885
2734 -0.24593909 -0.034682825 0.67486227 -0.2464656 -0.2639903 -0.15437786 0.08912614 0.25885725 0.31240427 0.22078583 0.19967899 0.09594813 0.04992388 -0.18899983 0.18841967 -0.3932588 0.1284664 0.24237882 -0.030060558 -0.16492604 0.07850086 -0.41397473 0.27322048 -0.3658943 0.21765694 0.06255467 -0.576343 -0.30864567 0.29861367 -0.3997524 -0.12594141 -0.109919645
2698 -0.21694627 0.116169594 0.078422144 0.43237227 -0.14420198 -0.17011315 -0.12657653 -0.31565866 -0.045894913 0.31618214 -0.028382137 0.10143572 0.2850052 -0.3588037 0.27352825 -0.46403474 -0.017122606 0.58973306 0.54216576 -0.59552884 -0.073974885 -0.093284175 0.17552151 -0.17893589 -0.12448412 -0.23420323 -0.22406988 0.085625626 -0.23107903 0.09807487 0.46302706 -0.12643193
2493 -0.24511808 0.0061603095 -0.39601636 -0.17971031 -0.5961287 -0.052014202 0.23329966 0.07434802 -0.4333476 0.20155135 0.64269257 0.09041631 0.25810677 -0.44040847 0.21552093 -0.34331894 -0.14031479 0.59486896 -0.14457743 -0.13045512 0.15481727 0.0013238864 0.31196457 0.10566597 -0.1301687 -0.173922 -0.18602392 -0.022669869 -0.41521025 -0.23706077 -0.09709798 -0.12451757
217 -0.3097184 -0.12539418 -0.17589691 -0.36229914 0.13449389 -0.27583092 0.3308628 0.34044713 -0.3017476 -0.24348545 -0.20775513 -0.2659425 -0.10486965 -0.36549145 0.13967964 0.123711735 0.17832445 0.16343373 0.40780222 -0.21745677 0.2016734 -0.19367073 0.32659513 -0.0007249584 0.012486167 0.052055556 -0.23245345 -0.5673897 0.146657 0.0972949 -0.15742832 -0.61919403
2516 0.43766198 -0.17604119 0.25044054 -0.35177436 -0.3664831 -0.25819623 -0.1494045 -0.17696756 -0.22381228 -0.044932377 0.11472683 0.58442384 0.31822166 0.21710125 0.24256584 0.0004056872 -0.032079443 0.59690464 0.2928332 0.08025537 0.1654016 -0.46962285 0.060293853 -0.85953283 -0.05579794 0.20667556 0.18484104 0.16819046 -0.06644967 0.07128381 0.088666685 -0.6046142
2609 0.3784857 -0.04669185 0.27590314 -0.2118002 -0.28820518 -0.40086105 0.26297882 0.01645228 0.1956651 0.0053728083 0.06850416 0.09510644 -0.38084167 -0.31044123 0.3052275 0.004343699 -0.38359588 0.27232614 -0.15450029 0.113530084 0.16450556 0.28751612 -0.09169625 -0.41399336 -0.103760496 -0.64452577 -0.25428265 -0.19979285 -0.38038632 -0.32676363 -0.15103121 -0.22526488
2532 -0.4793021 -0.20902598 1.0650506 0.053642675 -0.4716794 -0.082230106 0.2305136 0.16930021 0.047305387 0.07322226 0.05094818 -0.18375795 0.28645566 0.045626085 0.62491477 0.35594293 0.1314681 0.64573956 -0.41453004 -0.5715408 0.056673054 -0.1714839 0.32207766 -0.209273 -0.48314512 -0.61256915 0.002202686 -0.037383694 0.09270242 -0.034019377 0.09659075 0.33101627
2597 0.25539348 0.016927069 0.6238233 0.19691797 -0.2967978 0.025576407 -0.26319575 -0.17193532 -0.11034676 -0.27517235 0.25301343 -0.090986595 -0.061772343 0.030784361 0.30219316 0.34842497 0.13052742 0.33923686 -0.17709883 -0.3277056 1.0206982 0.009438074 0.46131465 -0.20034489 -0.64042574 -0.019701967 -0.71053547 0.18373385 -0.11758715 -0.32546383 -0.4164974 -0.47194192
84 -0.18033232 0.0855456 0.16490574 -0.34138006 0.09462433 -0.12158151 0.0020168275 0.11738256 -0.47203255 0.029938813 0.21567708 -0.33218917 0.04797965 -0.1990389 0.14547099 -0.06934971 0.44579867 0.2945647 0.4700004 -0.16720757 0.18109438 -0.1646417 -0.11231625 -0.3833829 -0.35899398 -0.004744842 0.03777732 -0.30978817 -0.25594366 -0.06265203 -0.397864 -0.21913269
59 -0.0352602 0.36607242 -0.11534455 -0.23911367 -0.05463372 0.2636055 0.5000592 -0.08825752 -0.022211093 -0.09438387 -0.36208513 -0.030056555 -0.006814521 0.080859385 -0.006402718 0.04266836 0.38964105 0.61091715 0.48125094 -0.3563898 -0.059246078 -0.004389815 0.25199473 -0.4012478 -0.01423565 -0.45117208 -0.11030686 -0.28852597 -0.043454103 -0.31251273 0.023296962 0.13816302
383 -0.22052187 0.14726324 -0.016187156 -0.42478547 -0.53246695 -0.33716136 -0.027514534 -0.21988504 -0.09754985 0.018208958 0.100349925 -0.20046167 0.40662387 0.07750853 -0.041790716 -0.40571 -0.14340211 0.3331492 -0.1564585 -0.15005991 0.51319593 0.5759714 0.45546108 0.14114311 0.12861495 -0.17038183 -0.32286257 -0.60999316 -0.49174938 0.11505997 -0.29796267 -0.19727176
2862 -0.11471982 -0.42644614 0.188681 0.15876172 -0.09435487 -0.27619052 -0.02599501 0.0479457 -0.08079918 -0.23214157 0.23852518 -0.17205383 -0.3549623 -0.25190666 0.30735844 -0.2034667 -0.09329486 0.53647715 0.41482666 0.39573383 0.04628674 -0.6639151 -0.0004978232 0.08799668 -0.17693073 0.0039623054 -0.06693231 -0.36257616 -0.3732638 -0.20873779 0.17711553 -0.40726265
182 0.0072941985 0.4530678 -0.009652629 -0.2754265 0.022651233 0.024080615 0.30475926 -0.057522055 -0.14665675 -0.2510581 -0.11989406 0.0065876124 0.23702587 0.3242973 0.35941768 0.111930214 -0.18471234 0.25548926 0.2548743 -0.7222554 -0.20967984 -0.18056262 -0.016944278 -0.20199594 0.19028634 -0.01856046 -0.4592369 -0.39001825 -0.2770043 -0.123825945 -0.043052133 -0.0559709
2472 -0.29764733 0.34835485 0.21466723 -0.0061300755 -0.53004926 -0.07797674 0.057428524 -0.028900312 -0.5962622 -0.008791818 0.40702245 -0.12759553 -0.3243638 0.17169136 -0.14639507 -0.09271068 0.15295854 0.4252396 0.31677634 -0.06292036 0.048985217 0.21191853 0.15627204 -0.13227846 0.060986336 -0.004068658 -0.3813798 0.4079766 -0.46891353 -0.3992948 -0.10864844 -0.32936022
2790 -0.39776894 -0.23034163 0.3369193 -0.39617214 -0.27928358 -1.1411501 0.10152909 -0.6934086 0.2551011 0.23669082 0.32181978 0.40112618 0.16234463 0.08207043 -0.07659395 -0.059047736 -0.327226 0.655979 0.06626523 0.06219419 0.4658344 0.22303319 0.25247192 0.10342503 -0.2281321 -0.146222 -0.4251093 -0.45026645 -0.23641531 0.17842846 0.21724686 0.36911994
2492 -0.23318145 -0.27100977 -0.24479023 -0.04527766 -0.32651177 -0.2205868 0.89956266 -0.35785276 -0.15461056 0.52194446 0.9241977 -0.062387742 -0.19644989 0.3221739 0.17857523 0.4452848 -0.16298254 1.0383104 0.07624063 -0.030045481 0.33688152 0.07986436 -0.31631047 0.26714826 -0.09267983 0.29074362 -0.19115937 0.11827745 -0.14358371 -0.20011416 -0.21646784 -0.05292393
2462 0.11466534 0.05703943 -0.015574176 -0.5387781 0.026966164 -0.10372357 0.090449885 -0.046112426 -0.0030007996 0.28390065 -0.11660753 0.033453368 -0.21030354 -0.27368772 0.5832058 0.05408958 -0.13206638 0.49203584 0.111490846 0.22574563 -0.06804276 0.10338545 0.27529407 -0.18560751 -0.1604054 0.10452533 -0.38593295 -0.07106482 -0.039691787 -0.044101704 -0.00949227 -0.14593881
2680 0.30482814 -0.096649505 0.23713611 -0.32404456 0.023225296 -0.107374646 0.54030436 0.032427266 -0.30632794 0.06260136 -0.15865435 -0.089902654 -0.09253854 -0.53441244 0.3482608 0.13440253 -0.07435744 0.314773 0.008754474 -0.33093306 0.42283818 -0.16118595 0.6270545 0.123883635 0.1671492 0.06971335 0.01647239 -0.2981274 -0.115535736 0.29982603 0.3601771 -0.5577672
2479 -0.24021329 -0.035480306 0.56965536 -0.65087885 0.46724975 -0.2743416 -0.0062350635 0.46675402 -0.6769862 -0.042124663 0.38737223 0.28415483 -0.14257844 -0.0850681 0.93161744 -0.15458511 -0.32923448 0.04356934 0.25186738 -0.008645316 -0.19583325 0.28383562 0.12922136 0.18729325 -0.17787376 -0.05207004 -0.1167655 -0.14179224 0.20493641 -0.22741725 0.6664668 -0.26643136
2656 0.17801091 -0.060304128 -0.12623279 0.33545586 -0.19713393 -0.7846044 0.08577063 0.23113321 0.15529926 0.030609857 0.16616213 -0.24066684 -0.20423293 -0.30199558 0.09278751 -0.28020084 0.23148301 0.7523375 0.5733838 0.010841969 -0.1606584 -0.13032946 0.09866748 0.099442996 -0.14601077 0.14646913 -0.08021938 -0.15337223 -0.30202937 -0.12106783 -0.082179554 -0.22261389
2545 -0.06700232 -0.26493362 -0.3619948 -0.24818279 -0.29964533 -0.33341965 0.1962411 0.0590722 -0.16772647 -0.18533574 -0.23750688 -0.17550495 -0.84315187 0.40446973 0.03965433 -0.33722687 -0.026647922 0.66941035 -0.31835717 0.24947993 0.19061105 0.32916337 0.14061664 -0.28768572 0.33178875 -0.24200092 -0.40026903 0.07565615 -0.3434231 -0.31732178 0.07322388 -0.094896875
2728 -0.04689446 -0.07111113 0.84620273 -0.28045174 -0.5602571 -0.25854486 0.40629193 -0.35290426 -0.5715731 -0.029411199 -0.014388496 0.25734484 -0.5301654 -0.28399643 0.1859466 -0.4055633 -0.06863362 0.24959216 -0.062058225 -0.18050566 -0.64229816 0.35123116 0.14369752 0.30858764 0.12894137 0.050780263 -0.10023242 -0.18722638 0.32524595 -0.19428112 -0.5295336 -0.58973825
2716 0.3391753 0.21272296 0.0608905 -0.63245374 -0.060837876 0.13744825 0.27232894 -0.40625972 0.10050065 -0.3032669 0.21576732 0.31897148 -0.04889608 -0.19746928 0.22925295 0.020337906 0.48546273 0.71895707 0.22676454 -0.12742995 -0.25992045 -0.07769067 0.22954124 0.04770649 -0.6409814 -0.2734019 -0.22349644 0.36659122 0.07920145 -0.019793076 0.1805339 -0.3380043
117 0.034619447 0.39224413 0.3671525 -0.119174376 0.090309955 0.2684664 0.0010359022 0.17074858 -0.2274419 -0.07148891 -0.10149703 0.009643785 0.25390342 0.099071585 0.30324912 -0.035625976 0.15527123 0.32184234 0.38476014 -0.27400324 0.06277384 0.010141901 -0.08324131 -0.40481266 -0.339449 -0.09127536 -0.04673602 -0.6157035 0.21518148 -0.5395841 0.34522256 -0.39365098
2730 0.055369284 -0.29763275 0.10956821 0.096049346 -0.16893514 -0.0796917 -0.10676157 -0.45453188 0.000502475 0.47393036 -0.3339148 0.27704656 0.07442642 -0.07545846 0.2705672 -0.29304922 0.21573636 0.32126096 -0.27179724 -0.2527878 0.1324467 0.32002014 0.15210433 -0.22956674 0.042942964 0.3509971 -0.61032426 -0.35881022 -0.5968158 -0.070314616 0.032199334 -0.6800654
2520 0.22413622 0.6073407 0.29720882 -0.17659263 -0.043520123 -0.047277328 0.2061031 0.27170512 -0.10605434 0.05771111 -0.070471995 0.22868021 0.067326955 -0.16094138 0.34105554 -0.04616589 -0.009649828 0.54769564 0.012655991 -0.39064026 0.045150727 -0.2185568 0.0034624147 -0.11326655 0.024781926 0.16927025 -0.4247005 -0.35512996 -0.3300584 -0.17261644 0.20975628 -0.081418134
2456 -0.122074984 -0.054396186 0.28442746 0.2888919 -0.1958388 -0.40260503 0.14219463 -0.17189367 0.049265433 -0.12896204 0.107191965 -0.5362134 -0.4326117 0.043211978 0.65491813 -0.15199283 0.25892714 0.46783298 0.33969322 0.19875948 -0.121023044 -0.46855015 0.19160715 0.04627288 0.4021395 -0.105345085 -0.0056404504 -0.16774926 0.03544321 0.036688756 0.3470553 -0.18489881
2496 0.27220714 -0.31577748 0.32535294 -0.12303578 0.09840756 -0.162142 0.28954574 0.3491825 -0.3465066 -0.010640938 0.037071247 -0.046872452 -0.17852746 -0.07352706 -0.003527333 -0.010015276 0.084065504 0.5247632 0.06585505 -0.41827375 0.17306246 -0.19999403 0.415099 0.024951871 0.17516458 0.024933567 0.045113884 -0.019385012 -0.27713603 -0.10506359 0.37201753 -0.3820785
2501 -0.15012397 0.18501517 -0.03838505 -0.32765567 -0.3450248 -0.25293216 0.20608664 0.2768626 0.11067871 -0.02889467 0.15312633 -0.11712122 0.2762245 -0.38326305 0.5205502 0.1716219 -0.35599053 0.4467316 -0.26530176 -0.39586687 0.41907114 0.18152523 0.15113725 -0.007508728 0.46524465 -0.24712513 -0.48273286 -0.07334347 -0.15203185 0.36542946 0.16799629 -0.24286176
1674 0.18415831 0.1140917 -0.29081032 -0.46305722 0.01963328 -0.08307147 -0.2610426 -0.036879804 0.41063318 0.000586973 -0.42075446 -0.028948827 -0.50277853 0.16151436 0.4603067 -0.24038363 -0.006020033 0.44314566 0.43571213 0.0302218 0.13699615 0.39661494 0.17890148 -0.05678947 -0.48738775 -0.4498939 -0.16223359 -0.32751587 -0.05349937 -0.26322475 -0.011858676 -0.30634725
2539 -0.32373255 -0.20646265 0.12895177 -0.092119485 -0.07696144 0.031419467 0.6745707 -0.24834819 -0.034503333 -0.06018571 -0.14671616 0.27691218 -0.27701005 -0.09541083 0.3250557 -0.20773904 -0.4058271 0.87876314 0.27679947 0.09521303 -0.21872123 0.038828593 0.19246475 -0.15719487 0.25104043 0.15400992 -0.03318168 0.040474594 0.37534964 -0.16245255 -0.12615336 -0.1808432
2461 -0.060573895 0.10665346 -0.11101956 -0.7045741 -0.13939878 -0.32083476 -0.21760087 -0.24410082 0.10360026 0.437718 -0.3491801 -0.22755036 -0.24768554 -0.17361489 0.8287789 -0.038521383 -0.15341173 0.48325172 0.243284 0.47311765 -0.1965002 0.150998 0.25522897 -0.009623445 -0.20490949 0.22249377 -0.39446533 -0.026598705 0.016357284 -0.08152462 -0.0021553135 -0.13053532
14 -0.32502103 -0.06631224 -0.2340957 -0.556482 -0.0074802176 -0.32707158 -0.21347262 0.12409026 -0.25844854 0.3233892 -0.21070063 -0.1222752 -0.24065067 0.38971722 0.6149772 -0.61705256 0.0110502355 0.20183504 0.1838174 -0.24743296 -0.20640875 0.23456289 0.2005197 0.041006304 0.040299337 0.11772572 -0.3200066 -0.3820553 -0.17515261 0.082935445 -0.17209615 -0.052352168
2455 0.03498145 -0.3845992 0.085282296 0.20399053 -0.20647098 -0.26808584 0.14540778 0.11685787 -0.039239854 0.036723837 0.07139871 -0.28112775 -0.24175479 -0.17348525 0.32283145 -0.10258872 0.055719394 0.5594553 0.27934274 0.27464807 0.16688587 -0.25868008 -0.011381618 0.040443737 0.19654772 -0.16292067 -0.2753788 -0.11889804 0.057759896 -0.20137994 0.111650825 -0.3705485
180 0.11374981 0.13869113 0.27791563 -0.51132756 -0.094169356 -0.22874747 -0.08427583 0.093174554 -0.43766668 -0.27362895 0.37537 0.2919574 0.022316037 0.20799352 -0.091592826 0.089187175 0.2760356 0.4099414 0.5748297 -0.089814834 0.094061494 0.19449349 0.334053 -0.17872053 -0.21356162 -0.20714797 0.14469695 -0.08016546 0.106829025 0.17652304 -0.18915144 -0.51753455
2570 -0.43711007 0.19162053 -0.15024218 -0.04457278 0.039973512 -0.9851204 -0.06396708 -0.54872596 -0.3209612 -0.114488944 -0.074038945 -0.24540271 -0.041591644 0.3622085 0.5890643 -0.33769485 0.23963548 0.50014186 -0.21441188 0.050765943 -0.0010477133 0.27182856 0.023518806 -0.79365176 0.09260007 0.05283087 -0.2159085 0.40423903 0.0151755335 0.46244565 0.22001112 -0.27191436
1466 -0.13066791 0.0970914 -0.43692064 -0.22713101 -0.4205213 -0.14890759 -0.049268063 -0.29718235 -0.17541096 -0.031074576 -0.1670194 -0.06160706 -0.61525685 0.31129834 -0.012695585 -0.17903799 -0.24470092 0.48228908 0.061271388 -0.39231318 0.30873224 0.30995017 0.20975976 0.0028626213 0.020904088 -0.525111 -0.040540583 -0.3085738 -0.5060461 -0.14355017 -0.045598634 -0.24201742
2552 -0.13188785 -0.107556574 0.59300894 -0.3675606 -1.0314454 -0.74164045 0.054042935 -0.8184108 -0.5041386 -0.12386786 0.036403775 -0.2702528 0.38259697 -0.097200714 -0.45005384 -0.05849667 -0.028681856 0.4055859 0.3270196 0.018702233 0.19809012 0.06225443 0.17257896 0.42393968 0.34170768 -0.23468001 -0.47892925 -0.52273965 -0.25053513 -0.20305601 0.319359 0.20999795
2752 0.48832935 0.07816009 -0.2140061 -0.25705972 -0.2079429 -0.23040693 0.028601963 -0.7852718 -0.24502681 0.25763607 0.08678399 -0.17800157 -0.15730746 -0.14600547 -0.27849105 -0.51225084 0.30932733 0.7658425 -0.34795967 -0.10864582 -0.28732517 -0.11940225 0.20542419 -0.08253851 -0.75702214 -0.45790038 -0.7054779 -0.011339519 -0.15189603 0.364026 0.087092504 -0.15007348
2486 -0.0517004 0.28257963 0.5330984 -0.15207532 -0.45609447 0.57780725 0.046632398 -0.09105358 -0.58542085 -0.12684175 0.34038004 -0.26147348 -0.11143528 -0.40795934 0.30119088 -0.06930113 0.2823633 0.25978193 -0.002920438 -0.6161837 -0.09750622 -0.07837894 0.042683214 0.110952295 0.13849209 0.24923037 0.08551818 -0.26602033 0.009211249 -0.994828 0.39303797 -0.6611046
2521 0.038785797 -0.6931129 0.025454424 -0.034553055 0.015242788 0.032326154 0.7088665 -0.58695894 -0.18749711 -0.272315 -0.24822834 0.083605155 0.17084305 -0.29861614 0.07258762 -0.36517012 -0.12421438 0.98117447 0.5674482 0.1489916 0.2085085 -0.11835183 -0.04205395 0.13200311 0.15559873 0.004708588 -0.010695697 -0.029215919 -0.050368074 -0.32120258 0.18633185 0.0032857629
2712 0.42631876 -0.1479557 0.43110752 -0.41683137 -0.3259663 -0.21749118 -0.0994174 -0.15322234 -0.17300709 -0.14690603 -0.052637693 0.4833056 0.21181123 0.41646093 -0.1426485 0.060126092 -0.17148134 0.88722324 -0.06304245 -0.04856167 0.06534464 -0.37652463 0.0822367 -0.6602567 -0.12882276 0.0551055 0.45074382 0.031235434 -0.102605894 -0.22709937 0.44043782 -0.56061894
2490 -0.1670394 0.21307582 0.33159927 -0.25503108 -0.26761395 0.09724175 0.13581029 -0.13991274 -0.15292576 0.08197034 0.16927026 0.08612787 0.078441285 -0.10483064 0.13397183 -0.21720259 -0.25146323 0.33405644 0.2557474 0.21534625 -0.05214122 -0.036922026 0.18911743 -0.057212688 0.2739355 -0.13376337 -0.5261237 -0.3415675 0.07773471 -0.3146558 0.44076642 -0.2402189
2596 0.21532857 -0.55621237 0.11282665 -0.5518661 0.073318124 -0.09936615 0.44056508 0.439785 -0.076292634 0.78448457 0.35014564 0.058645695 -0.012076576 -0.113655135 0.14166981 -0.6448708 0.08596638 0.2914575 0.12216416 -0.28212684 0.5140915 0.02410923 0.00941152 -0.25364026 0.29268733 -0.060915906 -0.4441955 0.21730149 -0.085398994 -0.01679334 -0.30487707 -0.3033959
83 -0.30079266 0.49429256 0.06704624 -0.21259235 -0.08689482 -0.2780278 0.2967762 -0.022325 -0.08307855 -0.52532536 0.0762009 0.23061761 0.28180024 -0.13934836 0.43916646 0.30381098 0.35498545 0.39742285 0.32172337 -0.22773154 -0.19624846 -0.39565864 -0.07925622 -0.18381697 0.041007735 -0.057015397 -0.09990951 -0.4813959 -0.19283283 0.044269554 -0.35533285 -0.30456296
1690 -0.03790533 0.14421907 -0.40033537 -0.4153899 0.012149091 -0.12100938 -0.03305812 -0.23405914 0.3321231 -0.005526513 0.046789475 -0.3710214 -0.3099787 -0.30751306 0.25350982 -0.019416722 -0.25821564 0.3278352 0.44776994 -0.07835413 0.11799557 0.008611586 -0.3104329 -0.16848688 -0.18156648 -0.6243935 -0.12301625 -0.4057064 -0.010765112 -0.033790097 -0.1598836 -0.60754716
423 -0.32098576 -0.14934322 -0.026358118 -0.6354182 -0.6028606 0.05474708 -0.18385871 -0.69831336 -0.40088454 -0.1620028 -0.11367245 0.11061569 0.52459574 -0.0043167323 -0.25593722 -0.19704041 0.25842273 0.7109797 -0.05455464 -0.2923024 0.24921004 -0.1551317 0.41092965 0.07277562 0.05148639 -0.36705583 0.021343939 -0.49009293 -0.16684085 -0.13942151 0.11995052 0.09938141
2491 -0.3165264 0.108362205 0.10264169 -0.08177046 -0.22046135 -0.07587355 0.40800598 -0.09479481 -0.3267668 0.08460332 0.34242952 -0.10178738 -0.1860937 0.15736197 0.19243495 -0.15399852 -0.13894819 0.30191007 0.20396622 -0.021842266 -0.0012548759 0.022930434 0.37263864 -0.013822787 0.16725317 0.04282392 -0.370763 0.27759007 -0.46253708 -0.20534289 0.06391455 -0.35225078
2478 0.121519715 -0.036139794 0.025472894 -0.8115237 0.12292035 -0.31498572 0.21606748 0.029204568 -0.061298642 0.04386336 -0.16788797 -0.1945411 -0.23122618 -0.255988 0.15655616 -0.35911697 -0.11696941 0.50281835 0.13060349 -0.21401897 0.17022374 -0.21572486 -0.34340993 -0.32867396 0.07458075 -0.30647644 -0.29295996 0.42353627 0.3281834 -0.21320145 0.27288437 -0.13871656
2514 0.25569177 -0.33486676 0.18441208 -0.15409562 0.025349678 -0.2953276 0.16069904 -0.2759783 -0.42725965 0.1631211 -0.37196395 -0.2059192 -0.42840952 -0.6116151 0.10899417 -0.29424495 -0.28623882 0.52001 0.14520022 -0.578819 0.3665489 -0.059563942 0.31183782 0.06336767 0.14924462 0.02354433 -0.030614829 -0.16183048 -0.36416617 0.37233323 0.17909034 -0.2128137
116 0.15003663 -0.006612372 0.31659317 -0.2697631 -0.12588361 -0.34970838 -0.03472451 -0.24982895 -0.11889484 -0.11945329 0.16540208 0.10877109 0.09213932 0.4951505 -0.04098613 -0.19194606 0.02428924 0.7255279 0.43758008 0.01746587 0.088723026 -0.16924371 -0.05888435 -0.59259576 -0.019180333 -0.107506275 0.6775264 -0.43637413 -0.28952733 0.06106586 0.10890234 -0.18911706
2714 0.19480918 0.2730604 0.5310554 -0.13602254 -0.019499982 -0.08831786 0.0731008 0.07038181 -0.15770859 -0.14252284 0.018669765 -0.08718165 -0.21756952 0.0027944916 0.30340722 0.0609338 0.024939438 0.44984546 0.1838802 -0.22742234 -0.040956274 -0.16037971 -0.019217808 -0.0038133538 -0.013151176 0.1438605 -0.51298666 -0.07694568 -0.25022754 -0.21673296 0.13565099 -0.08052014
2494 0.012335515 0.0860747 -0.28823927 -0.18089963 -0.42465612 -0.40295297 0.08366493 0.06292098 -0.2760627 0.08383217 0.051689573 0.19209826 -0.22980458 0.04877182 -0.009892082 -0.44345537 -0.2800767 0.5563934 0.21089518 -0.3176704 0.1937624 0.16039915 0.6149166 -0.12890515 -0.11826424 -0.22340427 -0.011802095 0.37972158 -0.38274208 -0.16868319 0.2910854 -0.2592953
2717 -0.0057043675 0.04686265 0.2673158 -0.5394804 0.19568044 0.19013233 -0.041055594 0.091227114 0.30724102 0.05603259 0.26272509 -0.09702418 -0.14868167 0.13954298 0.17084041 0.22186685 0.029950077 0.8741097 0.09800852 -0.00841261 -0.17440306 0.021741355 0.10224331 0.047820993 0.046612266 -0.3152446 -0.19730094 0.23184839 -0.40549237 -0.06863583 0.2185599 -0.08085565
129 -0.23537278 0.08715458 0.150523 -0.5765062 0.13673018 0.034977134 0.2885086 0.19507912 -0.07630024 -0.14517665 0.108481616 -0.07830819 0.094982706 0.29433644 0.46819326 0.09945233 -0.17386752 0.20340097 0.17207605 -0.25546178 0.10678118 -0.094442286 0.28111878 -0.15811814 -0.27714512 0.19676697 -0.11426307 -0.5010756 0.17192872 -0.29139048 0.05863137 -0.3261955
2502 0.6484573 0.18473773 0.11406719 0.21754195 0.2966957 -0.0069259126 -0.082491644 0.069206625 -0.513216 -0.44536227 0.047659203 0.5594847 -0.35254097 0.10056262 0.17729454 -0.2068464 0.1166159 0.96747065 0.18618628 -0.23295845 0.07663521 -0.37548175 0.057946377 -0.23557651 0.42206457 0.25432643 -0.5611269 -0.14993991 0.03176274 0.09023961 -0.33306763 0.023892958
1461 0.09835502 0.016310498 -0.40162897 -0.21654621 -0.41704628 -0.25166813 -0.28744602 0.072842434 -0.02709991 -0.010238467 -0.21025743 -0.16241048 -0.6497045 0.41373548 0.23649606 -0.062629096 -0.3291021 0.35102376 0.14790605 -0.078749456 0.18859904 0.64308643 0.06990991 -0.31874156 -0.13113993 -0.6304303 -0.18383601 -0.23200443 -0.3930554 -0.31361663 -0.1956241 -0.32703483
669 -0.1314582 -0.14530373 -0.2776277 -0.2054197 -0.0043154326 0.06587732 0.1475532 0.098124854 0.02273019 0.38378257 0.22498225 -0.1095681 0.20986266 0.010654631 0.119514436 -0.58024067 -0.09663261 0.50781906 -0.040301505 -0.56728274 0.24001719 0.08805155 -0.029160412 0.25370887 0.1695534 -0.34928197 -0.31126955 -0.47199365 0.002211596 0.19127683 -0.24791074 -0.39715967
1081 0.02507068 0.1793893 -0.2546753 -0.534675 0.21401843 -0.18284923 0.48223534 0.031687587 -0.21910338 0.49981558 0.6134895 -0.23731366 0.19762847 0.22967541 0.09349368 -0.6246224 0.3208607 0.27594632 0.2707758 -0.04205919 0.12929249 0.08073684 0.10335646 -0.15839185 0.1035959 0.10558613 -0.28945392 0.09612966 -0.13539958 0.20906714 -0.7232838 -0.5839511
2736 0.07750137 0.09396662 0.020856893 -0.4333701 -0.18582809 -0.4702989 -0.1512655 0.50961477 -0.29925302 0.22449988 -0.037533075 -0.11142452 -0.13283908 -0.11926981 0.31063625 -0.38459307 0.10468809 0.2904631 -0.05709301 -0.11940426 0.060982186 -0.36152613 0.5917074 -0.45249626 0.17610958 0.14848262 -0.5145091 -0.08438144 -0.15535048 -0.25483885 -0.2417003 0.27088794
205 -0.55288005 0.46057412 0.3149228 -0.2403514 0.3002647 -0.14075916 0.15014592 0.35191688 -0.12040139 -0.26447654 0.27828807 0.22646122 0.019184673 -0.027495231 0.3514134 -0.040292438 0.2088677 0.26752973 0.3420227 -0.2620354 0.12174526 -0.22797178 -0.11044905 -0.047006007 -0.01087762 -0.26470995 -0.09423315 -0.40745693 -0.0939814 -0.0629894 -0.26478198 -0.41860378
2554 0.14014237 0.15027896 0.5357099 -0.18343602 0.042442307 -0.43927822 0.14849523 -0.054161146 -0.27418205 0.21593365 0.2582271 -0.5159338 0.07639444 0.01018859 0.11948225 -0.58656985 0.0469338 0.34895593 0.19409315 0.31555605 0.1006215 0.65470403 0.12156608 -0.6655782 0.20932533 -0.11206332 -0.0445815 -0.09548833 -0.25538975 0.38231337 0.19553858 -0.20400253
1233 -0.23051941 -0.085777886 -0.40967876 -0.5847212 -0.17351262 0.04431024 0.2626489 -0.5762274 -0.18543993 0.18645701 -0.42055634 -0.043796077 -0.5478761 0.0749464 0.3063143 -0.105164 0.022120673 0.19053455 0.22171849 -0.2134165 0.26471138 0.23456384 0.13112204 -0.09856739 -0.090105735 -0.19838604 -0.16226433 -0.18568768 0.040625017 0.06578435 0.006407895 -0.7012091
2754 -0.35717675 0.41089258 -0.008210745 -0.030619381 -0.10209428 -0.31733334 0.57929987 0.01589259 0.0287114 -0.027229229 0.44875416 0.07961458 0.52439034 -0.018269477 0.06596922 -0.7517017 -0.2724974 0.53299135 -0.12581289 0.09118246 0.10251373 0.18672037 0.55997854 0.021513492 0.12573993 -0.01292561 -0.46768302 0.22938967 -0.22979793 -0.24342287 -0.50392306 -0.42429578
60 -0.08584374 0.279593 0.05683807 -0.5262256 0.024211215 0.07518184 0.09727146 0.06735056 0.10303623 0.08719778 -0.41789922 -0.27820796 0.18070969 0.3077976 0.38002938 -0.33720347 -0.1222979 0.34982085 0.35179326 -0.12595268 -0.03001911 -0.0945719 0.1616888 -0.056001175 -0.21648046 -0.27113792 0.08740308 -0.17996274 -0.1504393 -0.24117465 0.005587979 -0.47219804
2585 0.1357938 -0.22345315 0.16658565 -0.009419138 0.18541327 -0.22506161 -0.1532088 -0.13709326 0.14952146 0.25231332 0.42415512 -0.32720035 -0.08702468 -0.011879069 0.40222794 -0.18435918 -0.15706494 0.4955422 0.254427 -0.36916718 -0.28885916 0.22866876 0.43442228 -0.117108054 0.067273185 0.1194775 -0.22550668 -0.0020342332 -0.24735282 -0.13251987 0.26565197 0.053625695
2555 -0.18484408 0.25373822 0.04699575 0.117520444 -0.0023056315 -0.2895513 -0.16014798 0.23381118 -0.3655759 0.118497685 0.56063634 -0.24288797 -0.01286431 -0.18403918 0.32102638 -0.28322384 0.34392068 0.5936028 -0.0990574 0.2407819 0.13468803 -0.05219612 -0.4465423 -0.8113007 -0.04936073 0.033392888 -0.19075722 -0.35266486 0.10288767 -0.30655518 0.35333008 -0.08632341
2566 -0.53834444 -0.07773287 0.214326 -0.39117655 -0.17716476 -0.1552015 0.04461426 -0.40961176 -0.303 0.3494688 0.05292582 -0.14672597 -0.015067052 -0.16147873 -0.017082078 0.4280542 0.4772133 0.41941795 0.21723306 -0.08986819 0.26761028 -0.3471162 0.54911757 -0.4774032 0.25477612 0.35739484 -0.46619686 0.087173514 0.7057481 -0.08859082 0.2676153 -0.3449102
1507 -0.14531425 0.64066863 -0.051733594 0.068143375 -0.2206056 -0.06361936 0.4960957 0.50435644 -0.27296555 -0.06900323 0.075201765 -0.009439201 -0.015725799 0.24231577 0.14823057 0.39061797 0.52207494 0.29482713 0.37546173 -0.2654309 -0.17721994 -0.14102474 0.27592078 -0.41348657 0.0041621095 -0.16938585 -0.47999707 -0.42811373 -0.086238585 -0.09981453 -0.052747764 -0.24729852
1339 0.36738256 0.47059646 -0.09513699 -0.4214786 -0.11602312 -0.04938791 0.40278456 0.0104469815 -0.16261148 -0.25135145 0.22670418 0.08616937 0.08292883 0.09247167 0.16197014 0.2462257 0.3506056 0.24804343 0.35131174 -0.63280094 -0.3516532 -0.055560455 -0.020805689 -0.0862775 -0.16918917 0.01433738 -0.5795178 -0.4410305 0.055215664 -0.08320725 0.072866224 -0.2092208
643 0.21078813 -0.31064507 -0.041413352 -0.50674886 -0.04977775 -0.070288174 0.457966 -0.25981176 -0.4693617 0.006274504 -0.68001443 -0.055667948 0.055504184 -0.2426024 -0.0129591385 0.28631133 -0.3200462 0.69792867 0.29428187 0.04355036 0.175305 -0.088349044 0.117344074 -0.4498425 -0.086162224 -0.36741096 0.41398522 -0.478994 -0.0050730673 -0.17129284 -0.20088968 -0.1560211
2504 0.151496 0.037916854 0.06529721 -0.003837844 0.35302386 -0.48964205 0.24212408 0.07240514 -0.2032869 0.102852456 -0.0354628 -0.20629124 0.15040436 0.018398259 -0.50495875 -0.3612837 -0.054575514 0.55954987 -0.10244282 0.023379447 -0.5470968 -0.07622155 0.18499827 -0.4335061 -0.56110734 -0.08636071 -1.0173322 -0.09703307 -0.20895325 0.18438008 -0.13698392 -0.4357196
2713 0.7780616 -0.03693593 0.6880517 -0.052182205 0.0071282783 -0.1924376 0.018213144 -0.20407845 -0.2548165 0.15848656 0.5320348 -0.17502986 -0.12114443 0.09946237 0.25997403 0.11352195 -0.0734097 0.5706482 0.36429465 -0.2251268 -0.293416 -0.050718494 -0.06734333 -0.013684721 0.042704515 0.0139321955 0.014818385 -0.020602558 -0.42068014 0.41864884 0.14317392 -0.30288014
2649 -0.024864802 -0.07726065 -0.10606173 -0.25289914 0.33044094 -0.4706628 0.60285056 -0.0819956 0.26652113 0.28696436 0.5100231 0.19618522 -0.31249553 -0.101104915 0.30239582 -0.67396504 0.6323268 0.3653935 -0.021283602 -0.1683512 -0.14156532 -0.20681585 0.5804644 0.0028104705 0.27277106 0.09189379 -0.21002755 -0.10646999 0.05019501 0.11844413 0.09211161 -0.27134317
2476 0.10100669 0.104972206 -0.26856297 -0.14870133 -0.42138937 -0.084159724 -0.017479474 -0.12920777 0.15845191 0.012521717 0.113684215 0.030406399 -0.4790927 -0.09179993 0.47413096 -0.28798348 -0.46470812 0.6360742 0.08815361 -0.09454658 -0.28357217 0.22174491 0.41901112 -0.0713228 -0.17166084 -0.2850036 -0.17762555 -0.12754238 -0.27579618 -0.2550197 0.26649946 0.095001176
1270 0.28575253 -0.001581488 0.18017615 -0.6850594 0.081475325 -0.33281136 -0.15742245 0.16598183 -0.5994391 0.11254585 0.3520307 0.1647533 -0.031000292 0.033951253 0.21163218 0.070039146 -0.1902837 0.020337645 0.34925827 -0.46721545 -0.025964584 0.39884555 0.065006524 -0.29164237 -0.09161326 0.047437575 0.0077866116 -0.52349347 -0.021081874 0.092872985 0.2901527 -0.41254812
2707 -0.48268187 -0.05240037 0.028543519 -0.04417831 0.25431848 -0.5383166 -0.009279543 0.19929162 -0.35060284 0.22293197 -0.3723881 0.008965721 0.42269012 -0.25338778 -0.060852878 0.040328283 -0.21299481 0.51726294 0.6288849 -0.2169811 0.29499707 0.27975714 -0.283938 -0.21309228 0.18751994 -0.21648118 -0.65228057 0.53343076 -0.009993322 -0.2997953 0.20025982 -0.43777403
556 -0.30176988 0.18549941 0.08803075 -0.3546737 -0.861903 -0.8756091 0.05961195 -0.42483693 0.020889366 -0.061510928 0.38648978 0.24147399 -0.025625372 -0.0734581 0.08428389 0.08367235 0.08452101 0.44886065 0.29264978 -0.1523724 0.04327052 -0.02804556 -0.2821686 0.41001523 -0.46450686 -0.55535245 -0.35877255 -0.70609045 -0.3918683 0.24741943 -0.13192832 0.19497648
1230 0.070429385 0.10414467 -0.023905981 -0.16489604 0.057741236 0.00036019628 0.042693473 0.21628964 -0.1051616 -0.08640358 -0.20027414 -0.044663396 0.1891171 0.023824 0.41979226 0.15122323 -0.00913163 0.22356896 0.46728852 -0.37097216 0.05244835 -0.11356109 0.14105774 -0.26046053 0.05021886 -0.22336034 -0.48002547 -0.5194663 -0.14593081 -0.2707559 -0.26238972 0.06055713
2746 -0.049674254 0.08528544 0.02671729 -0.4185251 -0.0042619095 -0.15643737 -0.070678115 0.0648462 -0.063604414 0.22136095 -0.31143272 -0.20230761 -0.26887336 -0.35025826 0.80424523 -0.0623968 0.13385324 0.34089643 0.102696285 0.02850645 -0.19006227 0.095590815 0.33168346 -0.26409468 -0.07291805 0.030915784 -0.19963296 0.19005363 -0.0749102 -0.19115567 -0.11580078 -0.22395982
2691 0.1001079 -0.2900347 0.17004365 -0.2796319 -0.010745329 -0.10746138 0.4352767 -0.17788883 0.30280247 -0.308837 0.26945934 0.2547342 0.042186107 0.43313995 0.7302912 0.18035534 0.11938225 0.44652554 0.20470767 0.1406301 0.09518655 0.002666305 -0.027187439 -0.22702849 0.20794338 0.026962008 -0.48188373 0.19855379 -0.49221396 -0.15131164 -0.008202337 -0.0074648727
2534 -0.037462983 0.41558236 0.4592202 -0.307132 -0.253851 0.0944953 -0.053811893 -0.13706684 0.11506258 -0.09581496 -0.031075362 -0.07280273 0.31326255 0.15526563 0.46868488 -0.12570797 -0.014694992 0.5233511 -0.1081499 0.18788369 0.1034372 -0.38450345 -0.13945374 -0.55689883 -0.07351292 0.100295864 0.020892255 -0.06316963 0.10387817 -0.6234953 0.45773545 -0.5664855
433 -0.115422316 0.3192663 -0.001436158 -0.20432536 0.0035044875 -0.07615656 0.38914925 0.4693277 -0.015067171 -0.14124168 0.13069455 -0.14775605 0.12950341 0.25605944 0.27848452 -0.16085184 0.198367 0.040254317 0.2933374 -0.148812 -0.04165443 -0.21511592 0.30177364 -0.46196112 0.048996184 0.010848488 -0.5542239 -0.73442984 -0.11295447 -0.39302483 -0.06316097 -0.042222794
2611 0.111656584 0.5038298 0.18237379 -0.12670742 -0.4256393 -0.4089794 0.3634719 -0.6126597 -0.40113372 -0.53914744 -0.08843568 -0.17593823 0.26454636 0.09569217 1.0012532 0.2651198 -0.11291797 0.04344065 -0.30127677 -0.6305455 -0.3994109 -0.65010077 -0.5655292 -0.5342572 0.7032362 -0.17492458 -0.5511008 -0.03147207 -0.43715456 -0.0029609227 -0.16921704 -0.13222323
1538 -0.19065024 0.028049808 -0.3256369 -0.25932565 -0.5536906 0.019230003 -0.13483468 -0.35152113 -0.06607226 0.30146113 0.019345805 0.15243782 -0.51265955 0.16433549 0.26502135 -0.27410612 -0.17810686 0.331686 0.47554 0.04309485 -0.11095961 0.117140606 0.274477 -0.31690833 -0.35499325 0.08289287 0.062863655 -0.4120719 0.07385644 -0.3938094 -0.37267932 -0.60985935
1194 0.07789668 0.26355875 0.005696087 -0.18984523 -0.090771124 -0.082871065 0.13165882 -0.0052151293 -0.15148365 -0.16512871 -0.09415283 -0.2856148 0.0551618 0.114417106 0.35935602 0.11848788 -0.1355683 0.21011044 0.31266358 -0.58301127 -0.2355841 -0.23062266 -0.056723226 -0.058621883 0.11022713 0.048398208 -0.27829382 -0.6852018 -0.3610984 -0.18161963 -0.01188732 -0.13056758
27 0.20024921 0.21361732 0.11146992 -0.3424836 -0.26218006 -0.19227135 0.07942267 0.24124274 -0.082690395 -0.36367136 0.14741853 0.3001561 -0.015316361 0.5727337 0.047225717 0.029271867 -0.56319284 0.41911304 0.105891235 -0.77171165 0.009352846 -0.11090716 0.61345965 -0.31698608 -0.089363314 -0.00484581 0.23538633 -0.30644184 -0.30221874 -0.13529788 0.12282084 -0.31630322
2684 0.23452549 -0.27402723 0.14639704 -0.27426255 -0.39006597 -0.09162586 -0.24023156 -0.30686045 -0.13395044 0.0875823 0.1989963 0.15160827 0.36738095 0.22660865 0.088210344 -0.13191967 -0.09147605 0.67924654 -0.0054158717 0.23083587 0.008725735 -0.79449826 0.036864568 -0.93973696 0.2247702 0.11867078 0.26818365 0.0131461965 -0.09026193 0.11951359 0.054781716 -0.8497684
2598 0.37412524 -0.5925653 -0.13448599 0.2653431 -0.061182715 -0.11655469 0.08637434 -0.677504 -0.5738125 -0.7873791 0.31052193 -0.3820855 -0.2569201 -0.090014406 0.46481487 -0.42476505 -0.050216842 0.5906282 -0.32571396 -0.36300856 0.59033513 -0.12253595 0.42444715 -0.24187604 -0.3167578 0.7429233 -0.5922841 -0.40191057 0.52442986 -0.35837385 -0.14408042 -0.05117876
2477 -0.15648964 0.008271472 -0.0693987 -0.20759824 0.042000446 -0.18834741 0.09765956 0.06919716 0.0653542 -0.078374885 -0.12448592 -0.11667653 -0.47391868 -0.20159213 -0.029194813 -0.03392712 0.21277696 0.4441215 0.39778978 -0.1409019 -0.018604275 0.078325756 0.08892174 -0.2931031 0.1837859 -0.5389914 -0.47765824 0.26854312 0.13213727 -0.20103747 0.45521334 -0.3260085
1215 0.03609651 0.54305416 -0.16566078 0.025870007 -0.27306908 -0.13678442 0.49371073 0.44406232 -0.18988189 -0.13640642 0.14251158 0.02228649 0.11671511 0.29006863 0.049890783 0.4437236 0.54684365 0.42706025 0.5307987 -0.12840138 -0.102197655 -0.1679049 0.08574837 -0.08610587 -0.11211424 -0.1960162 -0.466602 -0.29996994 -0.25203207 -0.2526855 -0.17648752 -0.3350859
202 -0.049636625 0.10710163 0.1717826 -0.45360184 -0.085956804 -0.32059166 0.22640155 0.18237309 -0.40666378 -0.011640985 -0.2386378 -0.4162852 -0.12332574 0.18881139 0.0013709267 -0.5860628 0.294167 0.39683393 0.08019485 -0.01243929 0.28115353 0.30292258 0.736134 -0.3725827 0.09591942 0.1750173 0.033664107 -0.57256246 0.52380294 -0.09835578 -0.1331622 0.021265429
2550 0.08756685 -0.1914483 0.13279346 -0.1101162 -0.027724715 -0.42177692 0.05656816 0.07434935 -0.005081947 0.086954266 0.046610285 -0.14146216 -0.33869675 0.06607761 0.22579816 -0.12042551 0.07528645 0.2592235 0.4300125 -0.16699131 -0.32902482 -0.09104236 0.55727845 -0.20733246 0.2990299 -0.21203236 -0.1717689 0.14991027 0.038071178 -0.09468705 0.5125909 -0.29116252
2747 0.059154335 0.09384762 -0.041864865 -0.52422494 0.085041896 -0.015744355 -0.37999797 -0.07370263 0.05782958 0.43255526 -0.11393085 -0.08079725 0.006133479 -0.34491318 0.611504 -0.09305127 -0.041802865 0.60978097 0.11675583 0.14308538 -0.035265654 0.04064499 0.26987016 -0.20967694 -0.12507345 0.18020937 -0.38733828 -0.045844562 -0.016394248 -0.3842346 -0.070164286 0.04298097
2484 -0.45584795 0.12987529 0.29419675 -0.28935298 0.110255025 0.21887566 -0.5420107 -0.14865324 -0.5947812 -0.2974259 -0.12850888 0.593101 0.107343726 0.13119376 0.23675026 -0.29353115 0.051625524 0.9790061 -0.21174605 -0.27717358 0.25535277 -1.0398335 0.27290112 0.08662016 0.62320673 -0.12574272 -0.2819389 0.08554701 0.10861808 -0.16291666 0.020748287 -0.024107324
2665 -0.055668727 0.14712289 0.49867022 0.34912333 0.021539448 -0.1318363 -0.17478003 -0.36413816 0.52970034 0.25900984 0.46095094 -0.3404198 -0.700052 -0.13548134 0.13636652 0.53086746 -0.04886998 0.73624116 0.0014928168 -0.2677469 0.2863462 0.08959912 0.5201926 -0.29603243 0.16940422 -0.18994623 0.06033069 -0.14735481 -0.00774203 0.23426424 -0.100123085 -0.5775813
2697 -0.19259372 0.0125813 0.43890846 -0.57070005 0.12929158 0.109633125 0.059617996 -0.21880381 -0.07603734 -0.10195549 0.36169556 -0.0023266666 -0.23892725 -0.25656253 -0.06662665 0.004704571 0.26857886 0.61987233 0.12020885 -0.08489376 -0.2609207 -0.007496745 0.012333933 -0.026316827 0.050421882 -0.67698705 -0.36116138 0.26233107 -0.02200073 -0.013220636 0.18471962 -0.04523544
2725 -0.0794664 -0.12124879 0.5760372 -0.069522575 -0.2860069 -0.0679252 0.036930095 -0.6096387 -0.31688607 0.39331344 -0.13595383 0.12109611 -0.65985215 0.031824477 0.31435695 -0.17916891 -0.3927777 0.19834736 0.31281263 -0.2586526 -0.4660896 0.40852463 0.08357824 -0.37083018 0.046234235 -0.08734783 -0.31162956 0.13965848 0.48078868 -0.2672028 -0.0065142447 -0.47643983
2527 -0.27068135 0.4743314 0.42925182 -0.25999528 -0.07964462 0.049033333 0.23285173 0.041625466 -0.7841229 -0.16535118 0.13454081 0.0011111397 -0.62363887 0.71562415 0.21192585 0.97401226 -0.23099847 0.9693339 -0.6263088 0.5549945 0.28156245 0.08084105 -0.21679293 -0.4596481 -0.058142096 0.09207969 -0.29249215 -0.41081914 -0.34952396 -0.010459789 -0.10683186 -0.33671877
2803 -0.22910205 0.4418652 0.84214306 -0.16910958 -0.14436032 -0.34562182 -0.04499432 -0.063219525 -0.4081441 -0.017274959 0.08602071 0.57641906 0.018357515 -0.21053259 0.9266062 0.3918472 0.38089666 0.36871275 0.4143145 0.03921536 -0.11418067 -0.34327835 -0.39801246 0.06522572 0.20252039 -0.30660954 -0.27616096 -0.2639843 -0.7295892 0.20686415 -0.5206216 0.10400975
2805 -0.24371214 0.45471197 0.86868566 -0.19134006 -0.123594 -0.33838215 -0.02968668 -0.05463371 -0.40712443 -0.008144239 0.09679503 0.58065265 0.026490044 -0.22071981 0.93394816 0.40355268 0.36720267 0.37346786 0.40249306 0.026207449 -0.10295659 -0.31962582 -0.4188177 0.091809615 0.2050404 -0.306362 -0.27808246 -0.27419615 -0.75135744 0.23239888 -0.5284815 0.105513334
1338 0.38218513 0.21102819 -0.10265062 -0.23521182 0.051782466 0.14744096 0.3397041 0.080442764 -0.19717331 -0.111751564 0.1571468 -0.29620236 0.36087713 0.2516904 0.3528829 0.27530012 0.24235488 0.110828646 0.46093044 -0.4321733 0.10276668 0.0025326922 0.3420661 -0.14095046 -0.17924091 0.21468747 -0.47722965 -0.4524936 -0.10154718 -0.27472982 0.26070574 -0.2990528
2863 0.26381582 0.34710452 0.52768224 -0.15311322 0.020854123 -0.12772687 0.3211382 0.034593746 -0.06972039 -0.13603032 -0.21931137 0.0128513845 -0.15617365 0.070417054 0.29589534 0.20930488 0.28661913 0.35437104 0.1576808 -0.24755265 -0.17198983 -0.1008715 0.009203034 -0.035443757 -0.06081517 0.098501265 -0.6070353 -0.08327674 -0.20499815 -0.45958558 0.15213168 -0.15939131
2804 -0.22372562 0.4242811 0.87123734 -0.18106101 -0.13353617 -0.3558757 -0.034946814 -0.06664369 -0.4006574 -0.010113004 0.07186672 0.59430707 0.022365188 -0.20093682 0.9418821 0.38154507 0.37327725 0.36551282 0.40129453 0.047315855 -0.09984946 -0.33596188 -0.41217732 0.06421776 0.20292152 -0.31436303 -0.25062728 -0.27177963 -0.75578654 0.22666913 -0.51895756 0.096888706
2676 0.18782717 -0.593897 0.64509153 -0.2491313 -0.18988264 -0.19021277 0.11900526 0.21289945 0.16810635 -0.65469205 -0.18655033 -0.08029544 0.14959335 0.39598975 0.30698168 -0.27729428 0.64445925 0.53470975 -0.09927214 -0.22569941 -0.40700004 0.4171565 0.13665906 -0.18206368 -0.068053395 0.33556145 -0.3320816 0.11811729 -0.20863685 -0.24659754 -0.023508074 -0.30484033
2457 -0.19905315 -0.071635894 0.10794432 0.31157348 -0.7153753 -0.79164267 -0.25138256 0.12233241 -0.020101544 -0.4097003 0.44600955 -0.013014389 -0.43825498 0.19571859 0.343791 -0.050135475 0.3398017 0.67059064 0.30276072 -0.022638902 0.017325757 -0.32511416 -0.17897208 0.6089392 -0.29227892 -0.2979013 -0.385022 -0.20938434 -0.039494675 -0.32709673 0.40923163 0.00823528
2574 -0.08160049 0.20810582 0.41345975 0.002727045 0.2940754 0.2181237 0.0809197 0.17808867 0.1822648 0.45742944 0.46040598 -0.013711996 0.2408898 -0.18227258 0.6034468 -0.2104483 -0.079560384 0.74372655 -0.062757134 -0.18419303 0.19179001 0.11140233 -0.08343288 0.06533688 0.10619353 0.07406616 -0.16480383 -0.13548744 -0.23208606 -0.008769443 -0.0070193107 -0.2767016
2793 -0.035234816 -0.2993776 -0.28728792 0.05306648 -0.192502 0.23759684 -0.10851016 -0.12425995 0.17941914 0.12178198 -0.23740686 0.34392288 -0.060424995 0.14434493 0.40340525 0.06679725 0.4710588 0.554105 -0.07234238 0.34802637 0.28104958 0.21272212 0.18562286 0.011157972 0.105901286 0.13103986 -0.8852414 -0.54863405 -0.07866853 0.002340437 0.4605403 -0.80742776
2650 -0.37809488 0.06637866 0.35718137 0.019961976 0.29427102 0.024858417 0.21339421 -0.022333758 -0.19949423 0.02242584 0.170706 -0.097000495 -0.21517545 -0.13331525 0.1746793 -0.3678844 -0.05105172 0.42358297 0.28022906 0.3075298 -0.36821136 -0.22441027 0.47548392 -0.3391015 -0.12144761 -0.03448301 -0.35011387 -0.067367606 -0.41118282 0.44746542 -0.11896872 -0.50302935
135 0.05051303 -0.47460163 0.20198373 -0.5354913 -0.16013108 -0.2668526 0.06323646 0.05254996 -0.098349765 -0.29654512 -0.05320415 0.2507396 0.36817122 0.5316043 0.16566597 -0.1218977 0.25804237 0.3622971 0.3725616 0.027088808 0.39737585 -0.1111495 0.2662812 -0.20789856 -0.1135005 -0.26474974 -0.04139984 -0.37877122 -0.109403834 -0.023676662 0.21742801 -0.03517548
2538 -0.06480707 0.22380744 0.12569952 -0.17754337 -0.23978722 -0.3683755 0.089004666 0.14755136 -0.38054636 0.4055142 0.26763508 -0.36821857 0.15580952 0.0915828 0.15102613 -0.5376225 0.6460842 0.67718244 0.18052492 0.32462537 0.06657447 0.3263581 0.31107196 -0.44461617 0.3320655 0.33650294 -0.071083836 -0.108893596 0.110663526 0.049694125 0.12343868 0.043944746
2711 -0.2438089 -0.00917768 0.007516161 0.1402548 0.22118282 -1.0670679 0.22759075 -0.02459936 0.03627461 -0.093809545 0.35308132 -0.49740648 -0.09985419 -0.464044 0.29888052 0.15129127 -0.041057102 0.79310006 0.063832544 -0.19072047 0.32849923 -0.41036925 -0.07880408 0.20817882 -0.23443596 0.065204166 -0.3686619 0.052302025 -0.14337929 0.18135461 -0.4145085 0.061358225
1159 -0.043629464 0.08008579 -0.28456676 -0.4595691 -0.10225808 0.058392253 -0.11283243 -0.33515355 -0.056053855 0.2636762 0.09889981 -0.5209243 -0.5541082 0.7391556 -0.12836279 -0.17563748 0.3130334 0.6946482 -0.2232624 -0.31230062 0.14549638 0.30378944 -0.21944621 -0.20135787 -0.0057465066 -0.24617237 -0.23224902 -0.14257047 -0.1262557 -0.011612505 -0.0692797 -0.26594928
303 0.2520684 -0.30501577 -0.34171215 -0.34499773 -0.024253776 0.0330391 -0.05350722 0.2834313 -0.26409557 0.92169017 0.21516226 0.4080328 -0.11549018 0.10877538 0.20085292 -0.20956221 0.19724323 0.43465465 0.27398175 -0.32897636 0.37800315 0.29149425 -0.30381402 0.02551886 0.15460663 -0.3589121 -0.45760953 -0.20722601 0.2811366 -0.13562056 -0.376089 -0.51481235
2658 0.16103937 -0.07840583 -0.1294883 0.36937004 -0.21578564 -0.768606 0.06614899 0.24332716 0.17685013 0.032629356 0.15883802 -0.27250788 -0.18351078 -0.3156159 0.07958335 -0.25650075 0.2466093 0.7846124 0.5837548 0.013951143 -0.1466123 -0.11359426 0.11397248 0.10608176 -0.15591505 0.104175754 -0.10147323 -0.12089704 -0.32186705 -0.090370476 -0.10575839 -0.19330272
2920 -0.037198484 -0.4477997 -0.34318438 0.013765473 -0.22968091 0.13123791 -0.41420615 0.03451971 -0.36440533 1.0064509 0.023301762 0.05954724 0.08562785 0.10760095 0.65778714 -0.64430845 0.30219 0.98622876 -0.26446494 -0.3713583 -0.08195256 0.014078751 -0.15925318 0.3375811 0.25227493 -0.21874103 -0.6691685 -0.0755044 0.14657828 0.60794896 -0.030193668 -0.14213893
2600 0.08242283 -0.012600215 0.30376196 0.37303022 -0.192897 0.03399805 -0.21277958 -0.2810986 -0.31771576 -0.10319235 0.21057998 -0.67767817 -0.2576421 -0.3205745 0.60564 -0.09688587 0.04843413 0.20487297 -0.09808132 -0.40296704 0.46786156 0.0060951104 0.97090626 -0.35370082 0.032321118 0.12886442 -0.35660705 -0.029644277 0.308689 0.026499687 -0.16501588 -0.35520044
2584 0.3785117 0.28106064 0.25620753 -0.686602 0.14738669 0.038642168 -0.56956685 0.0026870046 0.055476625 0.120959274 0.49936286 -0.3140584 -0.06530501 -0.6604671 0.032162786 0.05749223 0.048046067 0.6650984 0.097062945 0.32896873 0.083012484 -0.12882026 0.0025056018 -0.05387189 -0.04384281 0.07123661 -0.38800123 -0.24804917 -0.091377944 -0.15571816 -0.42781448 -0.44985917
1148 0.08266094 -0.437429 0.06991891 -0.07854011 0.15560709 0.09975097 0.17609005 -0.4132337 -0.23551272 -0.027301155 -0.32871673 -0.5238653 0.025735134 -0.2584875 0.4017253 -0.11158528 0.08281855 0.29733762 0.46492788 -0.29259723 0.52549905 0.024672877 0.13180587 0.035483964 0.042430215 -0.2409476 0.27976865 -0.5224139 -0.29277506 0.012556113 0.1379137 -0.43774357
1236 0.20989873 0.41862077 -0.3179149 0.1026125 -0.29987743 -0.5515546 0.37863877 0.3315063 0.12335894 -0.15075397 0.0062903035 -0.18467627 0.08923018 0.14916874 0.02803502 0.18799268 0.31721115 0.4113522 0.6865596 -0.34052357 -0.38591522 -0.40698448 0.2176885 -0.020750092 -0.36496446 0.13884543 -0.4248671 -0.54699445 -0.29640186 -0.35320246 0.14754122 -0.19783778
2678 0.040617898 -0.22866525 0.09370453 0.12033443 -0.34714434 -0.38221234 -0.36407012 0.2928095 0.14314711 -0.6007438 -0.44028294 -0.3739307 0.15019003 0.02586083 0.4523786 -0.005911904 0.17176132 0.665797 -0.07892781 -0.26328775 -0.23758622 0.9097649 0.08986851 -0.15785906 0.10415495 -0.18331061 -0.4232788 0.09649074 -0.19239275 -0.24635622 0.17926984 -0.22208314
2571 -0.039466497 0.22028293 0.15962516 -0.1579823 -0.24801697 -0.32537326 0.110088415 0.12600474 -0.386875 0.40303615 0.26197457 -0.38081095 0.10454486 0.10953061 0.12231891 -0.53938544 0.65725636 0.65038806 0.1870398 0.3324662 0.043571845 0.32036334 0.29335165 -0.46377906 0.33228585 0.32041895 -0.11732834 -0.1251962 0.13214387 0.025374848 0.12819159 0.04789677
2928 -0.25743815 -0.47997713 0.31783 -0.42897308 -0.7883413 -0.79568386 0.19696794 -0.48303792 -0.20612356 -0.001711884 0.30386686 0.08243337 0.64881104 -0.109139174 -0.22958015 -0.051908366 -0.03127941 0.6400731 0.18601401 0.19189216 0.22782253 0.41428918 0.123701856 0.40806666 -0.033848695 -0.36195865 -0.4608069 -0.57533 -0.29561242 -0.058166724 0.32845896 0.3981198
2459 -0.22780056 -0.2200016 -0.008030973 0.22525221 -0.33358103 -0.61282724 0.06939093 0.03587441 0.27583477 0.013963408 0.22913064 -0.30055517 -0.2537933 -0.2870428 0.22368616 -0.06511694 -0.050655242 0.5530857 0.00069826865 0.11000484 -0.08321393 -0.35126156 -0.14141425 -0.16088988 -0.010987951 -0.1470738 -0.20162076 -0.43376452 -0.077148385 0.001440754 0.23381543 -0.42634204
2743 -0.27826896 -0.08921959 0.06666622 -0.05980712 0.1362429 0.109648965 -0.38808718 -0.3272477 0.05022799 -0.106067196 0.39410108 -0.45495236 0.09440986 -0.6721537 0.373862 -0.3424924 -0.24072035 0.6681138 0.0045157634 -0.17883945 0.23490195 0.02399449 0.068987094 -0.1528404 0.124069355 -0.462482 -0.3133401 -0.035351798 -0.17168449 0.40516815 0.15508384 -0.16152802
2724 0.2745826 0.08458332 -0.069517374 -0.31082126 0.07032126 0.086869664 -0.004834291 0.32017806 -0.14747643 0.42939213 0.28407937 0.46654907 -0.24967523 -0.13416949 0.5136883 -0.42111182 -0.24859743 0.2703618 0.008665512 0.10126411 0.034312278 0.0182608 0.23401394 -0.20107019 0.07088588 -0.07082312 -0.55651397 -0.1329964 0.026835773 -0.2295118 -0.10254115 -0.5132729
1540 0.38287327 -0.020110385 0.26335165 -0.23889352 -0.13597563 -0.12947115 0.43843117 -0.4819721 -0.14109215 -0.50230885 0.16326791 0.21613008 0.1976301 0.24909976 0.9546454 0.4234821 0.113145955 0.18910195 0.4344811 -0.26368 0.04446204 -0.31890675 -0.27229807 -0.46435174 0.3679916 -0.18036017 -0.18419217 -0.44746867 -0.47002223 0.29914054 -0.2680753 0.16888146
2719 -0.05740715 -0.19060692 0.15583025 0.23415956 0.5122552 -0.73338413 0.082018904 -0.3421795 0.10744247 0.005892776 -0.26505914 0.45089084 -0.08659557 -0.30237022 0.23237936 -0.11745092 0.11945759 0.26495215 -0.20847616 -0.95378953 -0.33286607 -0.4069109 0.24448529 -0.47202918 -0.34344366 -0.44252196 -0.15527956 0.35813415 -0.38104075 0.05304512 -0.072441496 -0.85087687
195 -0.3851111 -0.13722833 0.20980997 -0.23726413 -0.11731127 -0.08678292 -0.16210291 -0.2358871 0.12605187 0.112631276 0.2512694 0.07540379 0.06489435 0.1973871 -0.1379788 -0.38613123 0.1456037 0.37088746 0.42977858 0.20631589 0.052633557 -0.94742477 0.02349884 -0.6671884 0.16172454 0.010569929 0.06327856 -0.59151924 0.1994414 -0.098863095 -0.29007676 -0.76961017
2535 0.40644795 -0.176319 0.4542336 -0.27271083 -0.59355074 0.110301234 -0.27710426 -0.6021163 -0.2663344 -0.02722083 0.060031988 0.17063332 0.68511474 0.15387398 0.12495613 -0.34145352 -0.15140237 0.73288894 0.13598041 0.09425505 0.14673634 -0.38011825 0.0060686874 -0.7718405 0.30710575 0.052930597 0.23436806 0.14515007 0.08660255 -0.17177652 0.080234885 -0.49501017
2583 0.014243089 0.09454474 0.032684367 -0.6046512 0.16051657 -0.1376038 -0.16405359 -0.17305885 -0.07139644 0.3107527 0.6694006 0.11782979 -0.28241158 -0.48717782 -0.16225858 -0.21428795 -0.0046681133 0.4635089 0.47849876 0.16917703 -0.017914053 -0.22982424 0.0444448 -0.4318675 -0.0558005 0.297953 -0.29023322 0.05507341 0.09387272 0.055761453 -0.31692332 -0.78809613
187 -0.24556182 -0.18098684 -0.28023884 0.07755745 -0.024797535 0.35837826 -0.28384906 -0.15453221 -0.23794286 0.7361973 -0.40246952 0.18918803 0.099308796 0.3535536 0.14942464 -0.23189002 0.17901212 0.7445289 0.2261861 -0.5340834 0.1842139 -0.053062156 0.024900166 -0.11010311 -0.09559789 -0.10531914 -0.24289791 -0.3930031 -0.27934453 0.32515764 0.35198295 -0.47999123
2549 0.12339237 -0.25541556 0.3850439 -0.6083358 0.00993834 -0.28111047 -0.20777456 -0.3544115 0.10916811 -0.015166387 0.068185806 -0.12854832 -0.15660512 -0.10584376 0.34271035 0.1454187 -0.05173288 0.36510485 -0.2703084 -0.20256291 -0.15037346 0.02322478 0.035076573 -0.10398944 0.26293367 0.1571785 -0.35976133 -0.07393534 -0.20303102 -0.16860028 0.08898643 -0.27534825
1918 0.18884996 0.3009113 -0.4188613 -0.5083489 -0.5973126 -0.17686415 0.15043375 -0.79561985 -0.13796131 0.066293135 0.045197897 -0.23574933 -0.22517453 0.10112201 -0.19977081 -0.13790537 0.100098655 0.6387676 0.2385177 -0.3514839 -0.14234932 0.2568167 0.20585732 0.24785244 -0.7393149 -0.64653236 -0.16176547 -0.0008040004 -0.03212714 -0.016653087 0.041730303 -0.19802621
2470 -0.06277074 0.16036372 -0.15204784 0.10863894 -0.24197647 -0.31436995 0.044190746 0.037537705 -0.3939396 0.15730119 0.30158377 0.28785807 -0.31170046 0.351793 0.08254992 -0.1128346 -0.15600689 0.6473092 0.059344824 -0.2548935 0.60338086 0.15290956 0.97712904 -0.0905977 -0.09171913 0.050496124 0.015651278 0.39731747 -0.65179825 -0.4314912 -0.055718835 -0.123897895
1483 -0.037609655 0.23063551 0.044235293 -0.14805877 -0.094333544 -0.28825685 0.5565847 -0.12907462 -0.5374707 -0.15826654 -0.29047644 -0.20239699 0.4051372 0.16705091 0.83263034 0.31064865 0.034168083 0.0008701197 0.5125925 -0.55158037 -0.26070833 -0.31229785 -0.21680532 -0.31617865 0.04548612 0.046694763 -0.3198824 -0.0718252 -0.43057716 0.08671871 -0.15511902 -0.17562333
1632 -0.36665845 -0.2094081 -0.3874933 -0.38778815 -0.15820989 -0.17024261 -0.016631102 -0.2135099 -0.085927665 -0.30037615 -0.58944505 -0.2585589 -0.51661825 0.30835322 0.4170023 -0.13138965 -0.36173365 0.6572483 0.14023656 -0.0728122 -0.010460847 0.35167912 0.009004943 -0.24906993 0.2640202 -0.07451673 0.0621944 -0.2865799 -0.14192514 -0.3863118 -0.38843343 -0.010774689
2692 0.09128879 -0.38685408 0.2816692 -0.3151004 0.07213654 0.0965315 0.23816864 -0.120836414 0.12665392 -0.22715887 0.32940683 0.07434553 -0.083741434 0.106959425 0.43562648 0.25111985 -0.09626028 0.48539102 0.20825243 0.032382134 0.21526338 0.08340454 -0.00577109 -0.18749028 0.12178638 -0.050234832 -0.5506494 0.068391986 -0.41402796 -0.06673056 0.08656013 0.00068958156
2607 0.523096 0.057391223 0.18873036 -0.02516811 -0.10495837 0.040423226 0.17629659 0.08857519 -0.032069337 -0.15306936 0.22652271 0.22403795 -0.06979694 -0.3256228 0.10970469 -0.117623165 0.10219392 0.508102 -0.13368437 -0.10698978 0.17543007 0.06764776 -0.21706842 -0.25702697 0.17869411 -0.47482195 -0.2769184 -0.30930233 -0.40751743 -0.22898617 0.20084406 -0.35482553
2635 0.3226009 -0.1868858 0.006693622 -0.053018082 -0.104159206 -0.66960734 -0.17814326 -0.7363582 -0.25418693 0.17656744 0.21572714 0.19926105 0.038011312 -0.2428973 0.3942701 0.643814 0.50692606 0.5590154 0.2704448 -0.6519928 0.009087903 0.2900506 0.23382497 -0.325708 0.63251114 0.121431164 -0.20678493 0.044041656 -0.04978752 -0.6229021 -0.33066386 0.35612264
2469 -0.10107491 0.40964884 0.504066 -0.29150486 -0.08759983 -0.24956143 0.28345537 0.26722988 0.35568887 -0.27120274 0.040772934 0.31404054 -0.0097162 0.28712723 0.2759344 -0.05183845 -0.26460528 0.42834017 -0.099299684 -0.33103558 -0.2619561 -0.367224 0.4996741 -0.2339937 0.02723038 0.22879782 -0.3170271 -0.09355696 -0.29389468 -0.38277838 -0.031913634 -0.24839947
1421 -0.26611733 0.036291856 0.07757842 -0.09170443 0.20459728 -0.66303843 -0.06133444 -0.7472376 0.14004917 0.2980034 -0.28045326 -0.06899907 -0.26916426 -0.16810207 -0.011204468 0.17181197 0.110923134 0.5417102 0.22090328 -0.60095054 0.44512254 0.2924932 0.23781241 -0.2003866 0.0044887373 -0.2890845 0.24784628 -0.47671053 -0.16485178 0.34016064 0.024757862 -0.26843664
94 -0.0060774526 0.44585487 0.17510103 -0.2392252 -0.1478875 0.08903952 0.34460968 0.11674514 -0.12717378 -0.32185104 0.35068 0.14746422 0.12186653 0.2561765 0.47591937 0.47520664 0.58128536 0.5622839 0.2386133 -0.4695847 -0.28988177 -0.14279443 -0.15956871 0.032711398 -0.17848171 -0.1376592 -0.32660857 -0.3011381 -0.036269125 0.08965239 -0.25358978 -0.037842486
2791 -0.25724837 -0.30524474 -0.4393552 -0.25373074 0.017610319 -0.16234352 0.010221242 -0.07519422 -0.01296094 -0.094597615 0.14066114 -0.30815038 -0.21318638 -0.2783477 0.2603408 0.3121551 -0.42028338 0.5750072 -0.056484178 0.021312838 -0.14240633 0.30939093 0.2776802 -0.38707477 0.33121842 -0.2482962 -0.3017626 0.013220547 -0.05718769 -0.18912731 0.27180225 -0.3249837
2651 0.24884193 0.02524468 0.63766325 -0.05660901 0.32847068 -0.20244321 0.29818404 0.1456751 0.28915203 0.16667005 0.077108346 0.12938088 0.2958657 -0.12392548 0.5742118 -0.21122979 -0.10199238 0.6429073 -0.08589144 0.114019334 -0.16451557 0.32959884 -0.30331984 0.011704207 0.3646935 -0.039912175 -0.19619209 -0.34772614 -0.056074355 -0.45193768 -0.09557477 -0.1796931
2837 -0.09078476 -0.3842453 -0.4330012 -0.21271932 -0.747934 -0.46187577 0.06009698 -0.58526134 0.12042629 0.3358413 0.21944867 -0.20607498 -0.344411 -0.2355585 0.34443524 0.10485398 -0.18453865 0.3291287 0.21833414 -0.21903305 -0.3694721 0.34079206 0.27153882 -0.41990227 0.26236486 -0.30301806 -0.33714452 0.030244939 0.41822273 0.08230044 0.25890452 -0.2607885
2720 0.57994795 0.07059867 0.5049689 -0.070755444 0.08085197 -0.22053786 0.27280363 0.047223955 0.2154989 0.20048133 0.3135684 0.054503683 0.06692944 -0.08593169 0.61921215 -0.36466694 -0.13707367 0.5304304 0.06094431 -0.010897577 0.096446715 0.3430712 -0.035311107 -0.06439092 0.38675216 -0.019264713 -0.09451861 -0.20620054 0.1981501 -0.29309538 -0.037194375 -0.11840194
2705 -0.51376367 -0.058838245 0.03343177 0.026336359 0.22220758 -0.56917334 0.001361369 0.21510877 -0.35139436 0.22122313 -0.3912439 -0.028114917 0.45851701 -0.23609617 -0.056118954 0.090690486 -0.21338192 0.5349195 0.6095776 -0.21096693 0.30249268 0.2894162 -0.30155754 -0.19596928 0.1720603 -0.19954976 -0.67493194 0.55519986 -0.042856432 -0.31793043 0.1654156 -0.45959064
2742 0.054100554 -0.075827666 0.37895885 -0.1345259 -0.1543671 -0.15861177 0.184547 0.16846035 0.2103786 -0.004315714 0.08244993 -0.28654814 -0.20971656 -0.32920262 0.48614967 0.044014305 0.15948886 0.46282986 0.25037125 0.18270119 0.03760352 -0.19611247 -0.094577715 0.20783594 -0.004304108 -0.36131597 -0.16993542 -0.18032971 -0.28318584 -0.060638294 0.16137761 -0.30288982
2608 0.54498315 0.052178275 0.20959832 -0.021781778 -0.095474854 0.031032465 0.18363395 0.055420417 -0.050398447 -0.16407703 0.23080884 0.2086436 -0.06495291 -0.34706885 0.1185948 -0.09975915 0.107660785 0.49560603 -0.12989685 -0.11195081 0.21409334 0.09887717 -0.21110977 -0.2629785 0.16557372 -0.48644435 -0.25170684 -0.2950247 -0.3823165 -0.23125878 0.18311416 -0.35965014
865 -0.1342689 0.10956537 -0.07907429 -0.02248724 -0.21627742 0.09952472 -0.12354953 -0.13716756 0.22507633 0.31162724 0.26816133 -0.4138197 -0.34030747 0.066360116 0.21796145 -0.1428529 -0.24671201 0.08475511 0.23676483 -0.6850865 0.1874597 0.0019106063 0.91113967 -0.29775137 0.34244055 -0.124908514 -0.089472815 -0.59094286 0.19657974 -0.024541952 -0.22554894 -0.46462154
1219 -0.04096086 -0.04405332 -0.2795531 -0.3429764 -0.30525446 -0.3198014 0.41355252 0.021181034 0.26738727 -0.21937342 -0.119834736 -0.16171448 -0.24872077 0.09026445 0.5663037 -0.1873748 -0.14603162 0.24965033 0.1616189 -0.5351218 0.18820749 0.25799638 -0.03699051 -0.013742127 0.054500643 -0.5373272 -0.17843494 -0.18188916 0.16471517 0.10538719 -0.30508837 -0.23676202
2652 0.3657706 -0.16622962 0.35929283 0.06129817 0.21343027 -0.2915847 0.2208321 0.10929784 0.26174664 0.27824858 0.14271456 0.39508668 0.18827009 -0.19867624 0.49903268 -0.36062357 -0.2370178 0.55436057 0.25264183 -0.102736585 0.0784396 0.38112932 -0.2687029 0.076309115 0.540506 -0.04161077 -0.18213566 -0.1832741 0.15040505 -0.47249207 -0.011990475 -0.3793937
561 -0.29059845 0.0025322489 0.68381816 -0.10483818 -0.35702452 0.02836576 0.095868014 0.15648423 -0.2197762 -0.19503164 0.041542176 0.048002545 0.20614943 0.100526586 0.6912958 0.38055584 0.21492897 0.20077105 0.041679367 -0.6930963 0.17457609 -0.35828307 -0.08704953 -0.19137673 -0.05122579 -0.5208147 -0.24851076 -0.41900223 -0.46385875 0.1488463 -0.2891941 0.16660047
1692 -0.36894006 0.181775 -0.29190895 -0.4799824 -0.2680816 -0.52523094 -0.1795318 -0.13109267 0.3600565 -0.11587971 -0.2306821 -0.33977568 -0.15188882 -0.01874184 -0.08349784 0.1720208 -0.31766155 0.6272337 0.16951565 -0.5800702 -0.03829344 0.13826346 -0.2860665 -0.22461556 0.2513004 -0.5883276 -0.019582123 -0.08831752 0.37452927 0.09992557 -0.08113469 -0.5866145
1311 0.052313086 0.42913523 0.06336836 0.2162666 -0.18139791 -0.22852105 0.30669597 0.3847322 -0.1712075 -0.15576877 0.08983957 -0.124491744 -0.034874264 0.12104927 0.21308953 0.2777282 0.45300454 0.14252613 0.5604245 -0.37086636 -0.13451485 -0.13794693 -0.017757403 -0.16812855 -0.30145636 -0.29365855 -0.7388876 -0.3897946 -0.0443901 -0.13107882 -0.24108669 -0.2842979
1649 0.06428234 -0.14146708 -0.29160428 -0.8532273 -0.19103041 -0.10762594 -0.018756792 -0.33043817 0.10977612 0.18908744 0.26363903 0.10834789 -0.43404278 0.06733797 0.1305909 0.4600457 0.032080963 0.33851966 0.3941579 -0.11813846 -0.11336832 0.13757166 0.2974365 -0.53894484 -0.21783458 -0.30296513 0.019544978 -0.10096129 0.5139071 0.22578868 -0.15226583 -0.6561262
2399 -0.49845457 0.4677522 0.096142344 0.18192312 0.10363776 -0.2833765 0.56256133 0.39958778 -0.10656341 -0.08685057 -0.24091712 0.27624395 0.17150746 0.12164812 0.0057686237 -0.15297869 0.34244087 0.2624397 0.31890061 -0.19783089 0.3240191 0.10877856 0.47001648 -0.1505608 -0.12817892 -0.14030346 -0.12864338 -0.3159545 -0.21228257 -0.31949264 -0.18703279 -0.74730104
940 -0.27204552 -0.07043271 -0.25312304 -0.19233157 -0.08647793 0.09603433 0.22068138 0.41300365 -0.31606954 0.5544658 0.68358797 -0.18501997 0.20119292 0.3416554 0.19774716 -0.23573565 -0.20894729 0.567565 0.30496326 -0.45629668 0.31970987 0.32414165 -0.06666619 0.15694603 0.1323074 -0.122584835 -0.1612818 0.25518912 -0.093874484 -0.06497242 -0.63332903 -0.49445885
112 -0.27932623 0.35447958 0.07789093 -0.33351907 0.019001385 0.07540479 0.08205364 0.10014897 -0.18039644 -0.022589104 0.33137333 -0.04615203 -0.18529883 0.1540602 0.28606117 -0.18765782 -0.2663134 0.48553514 0.32761142 -0.5891533 0.049584277 0.1332109 0.15423495 -0.06528117 -0.41045842 -0.0745576 0.21630754 -0.31779888 -0.046457984 -0.27339813 -0.003607114 -0.070838325
32 0.26991063 0.07609494 0.32619318 -0.28805497 0.27564174 -0.25119048 -0.008785805 0.24916084 -0.44460988 -0.13288622 -0.002514831 -0.31976265 0.4895789 0.19428618 -0.25873533 -0.58394235 0.280911 0.5114198 0.23305209 -0.17748123 0.025401877 0.41392052 0.12899068 -0.41908926 0.27226728 -0.022466803 -0.20825972 -0.5227509 -0.22403432 0.16861175 -0.1971699 0.015974717
1310 -0.31856856 -0.23134685 0.8084695 -0.12937476 -0.13941754 0.035696648 0.15072818 0.10482194 -0.060549766 -0.039714295 -0.11967269 -0.058895137 0.036528226 0.5340643 0.3259616 -0.08764205 -0.038732227 0.3771003 -0.011552011 -0.8380115 0.066814564 -0.29396716 0.3450852 -0.64203846 -0.38530543 -0.13180068 0.27737182 -0.2831212 -0.16230853 -0.18038921 0.18225974 0.13791911
2666 -0.20594192 0.12563686 -0.29239714 -0.21967065 -0.33535337 -0.48968 -0.13511188 0.019280717 0.26902384 -0.17470403 0.3719742 -0.23397298 -0.25098303 -0.24645671 0.32027084 0.378257 -0.25510418 0.40191346 -0.16333738 -0.34547386 -0.10047605 0.15885933 0.005982762 -0.58955866 0.23329441 -0.13625817 -0.37066695 0.21548952 0.15147851 0.24575327 -0.016734008 -0.7735276
165 0.19422245 -0.26338732 0.40586227 -0.32763577 -0.15416758 -0.10742401 -0.14551719 -0.0017970423 -0.41260484 0.26399058 0.59009093 0.14468165 -0.26086476 0.28018197 -0.008371018 0.1858934 0.00020865034 0.29244807 0.54543734 -0.35452095 0.24642366 0.014342365 -0.08482831 -0.36144164 -0.5014335 0.05931838 0.08783163 -0.13543384 0.14431137 -0.20725203 -0.21354875 -0.5415828
2741 0.07165399 0.1956706 -0.061098997 -0.14005579 -0.38304636 -0.008405124 0.07150002 -0.07869382 0.16327564 -0.02596555 0.14241421 0.039793372 -0.49151495 -0.090172514 0.5740642 -0.31815234 -0.53637666 0.5550686 0.17151311 -0.036190987 -0.054026183 0.16329555 0.5173238 -0.06719918 0.061139133 -0.22057763 -0.11955585 -0.16168234 -0.25109637 -0.17522678 0.18314536 0.07628956
3700 0.05258192 0.14809394 0.38609147 -0.04469842 -0.08970912 -0.29502878 0.24800104 0.17143291 -0.43998504 -0.023227127 -0.5053468 -0.17900556 -0.23163745 0.0733233 0.19021775 0.13080901 0.05747324 0.5021754 0.32242653 0.25595358 0.2310017 -0.22514236 0.026168056 0.0660439 -0.08571955 -0.20052373 -0.6061758 0.05399892 0.08531128 -0.17472467 0.3061132 -0.20284757
2704 -0.22794491 -0.052223913 0.05261847 -0.24674502 0.18279241 -0.28863266 0.16939503 0.17151134 0.0938272 -0.07405692 -0.12573954 -0.055906214 -0.284928 -0.22808255 0.05120332 -0.19549851 0.09645639 0.37099308 0.3193437 -0.21160248 0.23246661 0.11994349 0.008425723 -0.20214663 0.13383606 -0.38357204 -0.49724627 0.30057046 0.24309231 -0.32534793 0.43497306 -0.39336482
2544 0.0054669892 -0.23892519 0.010961641 -0.035840627 0.13647969 0.014471862 0.23337047 -0.051571492 -0.6652937 0.045579564 0.25606927 -0.37066397 -0.37456083 0.01906253 0.2051087 -0.06657614 0.29767063 0.7133794 -0.5352624 -0.32809293 0.20732886 0.22067416 -0.25418302 0.06187291 0.46207413 -0.06959555 -0.30612403 -0.006366095 -0.12291725 -0.3289525 0.23626351 -0.09231635
2710 -0.1557441 -0.33736473 -0.0438267 -0.28900698 -0.14551477 -0.36307612 -0.030258873 0.3203587 -0.111516364 0.095191866 0.16436622 -0.17182611 0.4191463 0.17228773 0.29631972 0.06909072 0.18093397 0.9670728 -0.118642814 -0.2350459 -0.24496672 0.025260352 0.20003256 -0.044109926 0.01976322 0.5308187 -0.16449706 0.18139796 -0.45552877 0.19978535 -0.056309927 -0.039612085
1739 -0.5299512 0.29189068 -0.47345123 -0.3149651 0.105465 -0.6681143 -0.048241235 0.035459038 0.106772184 -0.511422 0.0018956318 -0.72220397 0.27479935 0.26084077 0.37678188 -0.23716131 0.12078961 0.44031778 0.2066064 -0.1240271 -0.014783976 0.53675765 0.15780942 -0.27113897 0.22571766 -0.11554815 -0.10175634 0.22917831 -0.06318511 0.052043863 -0.3514286 -0.4686013
2672 -0.01970199 -0.43972486 -0.022444706 -0.2602531 0.19549285 -0.0021467751 0.28087077 -0.27739224 0.119409874 -0.15133725 0.31944197 0.08122829 -0.18351974 0.09896569 0.5041264 0.20168097 -0.16638954 0.5332119 0.21717653 0.0715645 0.038671173 0.09402445 -0.14055625 -0.20406988 0.10971156 0.03657774 -0.5653888 0.13120067 -0.34191945 -0.103288814 0.039015718 -0.08369801
1661 0.19564316 -0.32746276 -0.015104203 -0.5972189 -0.25362262 -0.27434286 -0.20290472 -0.048533946 -0.3290636 0.2502687 0.17612238 0.60325855 -0.024371767 0.18929152 -0.12488436 -0.09750919 -0.16738692 0.57468927 0.6959505 0.03221742 0.008541746 -0.071643874 -0.013057417 -0.6040267 -0.36461177 -0.043000467 0.19567066 0.06596976 0.33892056 0.05371611 -0.31334135 -0.74841976
2547 -0.1338775 -0.3573309 -0.14919859 -0.5011251 -0.14690879 -0.21468814 -0.13490343 -0.26943934 0.052381657 0.009343321 0.3355116 0.118667476 -0.26037717 -0.2614904 0.20651762 0.20660259 -0.019827738 0.39927387 -0.14351316 -0.025882663 -0.1939845 0.26372322 0.08228706 -0.23550172 -0.059306752 -0.1632024 -0.45646584 -0.15803239 -0.19838716 -0.20664561 0.3305373 -0.27707878
2471 -0.33113143 0.07002732 -0.42031616 -0.1473067 -0.81062007 -0.12657216 0.25782105 -0.2723284 -0.40863827 0.23384087 0.590313 0.05683175 -0.003954128 -0.39226028 0.013842868 -0.30433404 -0.09854782 0.5891686 -0.05275909 -0.27703732 0.21247964 0.111389436 0.37438017 0.16402443 -0.24014407 -0.1050403 -0.17341311 0.023886986 -0.4112817 -0.21328923 -0.00870428 -0.18961819
2618 0.048111714 -0.010754873 0.3118903 -0.22053652 -0.51634 -0.3338833 0.086734 -0.26301157 -0.12260109 -0.11677455 0.1930719 0.10892346 -0.024887381 -0.46743673 -0.013570509 -0.043504864 -0.004157377 0.45887512 0.039076403 -0.010915094 0.05484059 0.09029985 -0.13507812 -0.069396935 0.25553563 -0.6657679 -0.22894607 -0.26535594 -0.32359508 -0.10136771 0.15982865 -0.06242795
1805 0.1455345 0.45403484 0.1542996 -0.030304532 -0.29984784 0.029024094 0.09963269 0.1268837 -0.10170522 0.029449569 -0.31355244 0.33681378 -0.09457565 0.33112493 0.5043222 0.14734541 0.3596475 0.08873342 0.32923323 -0.051713128 0.16144292 -0.14765915 0.26787946 -0.33263442 0.24737549 -0.0075441133 -0.8558456 -0.81974167 -0.26327753 -0.015803615 -0.4238397 -0.07157427
2647 0.07587252 0.085424 0.15128404 -0.21903938 0.22237569 0.027612481 0.43140984 -0.04341224 0.15491176 0.09066739 0.42101982 -0.10174913 -0.3637073 -0.22378643 0.39226568 -0.4191246 0.43556836 0.47448993 -0.028469853 0.117248364 -0.50553477 -0.08749492 0.43530583 0.02303543 0.123853184 0.0776102 -0.10667161 -0.22338937 -0.021894619 -0.02526415 0.0035449485 -0.4389762
294 -0.26954952 -0.13478722 0.08784212 -0.42843887 -0.20284757 -0.21463358 0.050623044 0.15348274 -0.20836082 0.005910995 0.21274845 -0.109870054 -0.0014293524 0.30572087 0.3311433 0.0012353713 -0.2727724 0.23616056 0.48048583 -0.318146 0.15181075 -0.017184045 0.054651033 -0.16685227 -0.2784037 0.010117993 0.034964107 -0.33083797 0.09051442 -0.13181935 0.07105925 -0.22983539
2068 -0.3982803 0.19077323 -0.30987254 0.19960211 -0.24541016 -0.3713682 0.044720374 0.13407324 -0.3446554 -0.13253112 -0.22670496 -0.15553549 -0.5985442 0.61202216 -0.18237533 -0.4881897 0.019379368 0.31249496 0.45669064 -0.13632946 0.123689674 0.014405987 0.4586405 -0.18173611 0.0054175393 -0.15108842 -0.2970539 -0.19241074 -0.60259396 -0.3289566 -0.25836045 -0.33201703
479 -0.26542315 0.08818716 0.08376985 -0.40963867 0.0141515555 0.056096617 0.21798925 0.3594018 -0.06162885 0.21307889 0.35486716 -0.24780604 -0.053407505 0.10617872 0.10913352 -0.5479773 0.2689348 0.33141038 0.25823638 -0.57932276 0.29974383 0.14752182 -0.1323072 0.041810937 0.09739397 -0.12672421 -0.33261636 -0.072342336 0.102165796 -0.26766464 -0.55689 -0.18344119
2595 0.23338896 -0.58227843 0.13186505 -0.5066317 0.2092814 -0.11505781 0.29929224 0.45997956 -0.22551991 0.7680105 0.24222127 0.15335228 -0.038369413 -0.11728902 0.3326335 -0.5502328 0.09133793 0.08456147 0.21667822 -0.44000047 0.3808833 -0.0524414 0.17463209 -0.358298 0.27951184 0.088766396 -0.5187878 0.20822851 -0.029826041 -0.030589556 -0.26234245 -0.32709116
295 0.0039057054 -0.104808986 0.06750428 0.08851734 0.20795898 -0.14155735 0.5055349 0.0048298333 -0.077124976 0.37172103 -0.08075663 -0.063347526 -0.2584771 -0.01854776 0.23019966 -0.12422343 0.13337544 0.24267298 0.71706724 -0.4850455 0.15609495 0.11512156 -0.44336805 -0.089357674 0.09434982 -0.5446013 -0.036898423 -0.20484984 -0.1682936 -0.2687345 -0.25873387 -0.35996634
2528 0.038819093 -0.084969535 0.2864949 -0.0057331473 -0.044354722 -0.075744696 0.1732471 -0.022882463 -0.23917626 -0.26259235 0.35577598 -0.2867101 -0.16934748 0.007686362 0.400448 0.041994408 -0.4203401 0.4496747 0.055904165 -0.36109048 -0.017926365 -0.094329014 0.31428614 0.089648105 0.095348075 0.17133346 -0.4104048 0.026590724 0.25448075 -0.028570347 0.3307415 -0.29548302
522 -0.200595 -0.0882882 -0.3961897 0.11799723 0.028898217 -0.3796583 -0.66816294 0.1820362 -0.08590041 -0.052837443 -0.2911901 -0.46207836 0.48462477 0.27031764 0.4080665 -0.5923765 -0.0022369865 0.60081726 0.28936094 -0.62391114 -0.032848526 0.5944952 -0.3612455 -0.16863237 -0.04358054 -0.27570537 -0.34531695 0.028221924 -0.34033844 -0.31150037 0.00020771389 -0.11792721
1655 -0.01685233 -0.109596804 -0.29235175 -0.16870925 0.11110065 -1.048155 -0.25195268 -1.0578507 -0.11389054 0.123505756 -0.028270213 0.036959786 0.3988892 0.13262708 0.5091337 -0.121319264 0.38477516 0.26182252 -0.032685816 -0.4835837 0.41584092 0.2982749 0.35380834 -0.31301174 -0.060160633 0.14473322 -0.11117778 -0.2844795 0.020406997 -0.5263175 0.025784697 0.0065029636
1268 -0.10012874 -0.20618916 -0.04878603 -0.2202776 0.06429777 -0.124839224 -0.37786123 -0.2082832 -0.00022890446 0.052813586 -0.18198855 -0.40774858 -0.3835448 0.13384107 0.4035848 -0.1269825 -0.3189796 0.3781723 0.6383943 -0.31967857 0.1763433 -0.043923505 0.2716827 -0.05521603 -0.009258193 -0.19716097 0.3763033 -0.4210749 -0.8641591 0.0007073249 0.09059847 -0.15495865
2674 -0.21050315 -0.2860226 0.1516575 0.05085176 -0.06971531 0.041432153 -0.1769351 -0.46883604 0.047505077 0.49119768 -0.24440213 0.2749281 0.018986734 0.101787165 0.5055025 -0.25644723 0.4285662 0.44442138 -0.27344832 -0.008420081 0.23683165 0.35880628 0.020268496 -0.14433384 0.08182892 0.3070883 -0.5225498 -0.36315936 -0.20687911 0.24575835 0.3652859 -0.8616963
1417 0.32999533 -0.30601382 -0.029638596 -0.574925 0.09565206 -0.026601246 0.42725366 -0.5239149 0.24658336 -0.22884734 0.21439339 -0.14311412 0.032956768 0.17158681 -0.22088677 -0.7459567 0.87593377 0.3923757 0.024953118 -0.30442637 -0.82274926 0.18224844 0.455584 -0.20518567 -0.5392704 -0.27016336 -0.38901642 -0.16459578 0.041275717 0.19935727 -0.18080102 -0.41412413
2775 -0.08639224 0.12330099 0.24593218 -0.18687214 0.28069562 0.18797465 -0.086629026 0.1028915 -0.43654263 -0.2882316 -0.10381423 0.31504157 0.058287464 0.24906653 0.103273265 -0.42452818 0.053120594 1.21326 -0.10632759 -0.2410382 0.023695474 -0.61782044 0.0843336 0.10811209 0.76316935 0.12962347 -0.29560542 0.05300379 -0.008454212 0.043630704 -0.07738781 0.1317402
90 0.069586 -0.4392218 0.07804268 -0.15817042 -0.084716186 -0.40488574 0.15614286 -0.43342268 -0.3374566 0.1450947 -0.17687179 -0.10985986 -0.09518464 -0.34012067 -0.107880585 -0.39679936 -0.09508883 0.7367168 0.668068 -0.49944213 0.038186543 -0.28127897 0.0055344454 0.36945882 0.15956835 -0.0125239 0.4110421 -0.60771245 -0.29443574 0.38715413 -0.13990419 -0.15167397
406 0.20135249 -0.17556024 -0.16990931 -0.48832712 -0.041911803 0.14074062 0.13651733 0.10690173 -0.18182012 -0.04123898 -0.06955919 0.17750943 0.059466 0.32392785 0.17310964 -0.3898991 -0.3320722 0.4590271 0.17906478 -0.03854407 0.41139734 -0.41718575 0.22067416 -0.24610972 0.4781906 -0.14391465 0.1580062 -0.41697955 -0.25048238 0.12036946 -0.27649045 -0.5915016
72 -0.20280668 0.37848917 0.70317423 -0.10508132 -0.27918196 -0.25398892 -0.09843083 -0.009673526 -0.5125873 0.344316 0.145362 0.1798583 0.27182192 -0.004596518 0.6154624 -0.6043795 0.23232643 0.3441791 0.04487309 -0.2053214 -0.18708493 0.33807305 -0.01143468 0.17127118 0.15512031 -0.23323996 -0.19605483 -0.6053205 0.043378316 0.38772672 -0.7262276 0.024854291
2483 -0.30228698 -0.265873 0.033491146 -0.3568881 0.26190653 -0.11593014 -0.012793653 -0.119544 -0.1940373 0.24693623 0.08794972 -0.20662388 -0.030721316 -0.25125295 -0.07621933 0.3140942 -0.48980463 0.65776503 -0.09187454 0.14902242 0.13751376 0.08886438 0.06168374 -0.07255023 0.39580396 0.048092183 -0.6281401 -0.16496941 -0.15511578 -0.009552188 -0.007714317 -0.38406998
2640 -0.15850744 0.14072955 -0.34438682 -0.1045315 -0.045444466 -0.56217027 -0.13161987 -0.15458718 -0.40052 0.2250799 0.5327887 -0.379 0.008162871 -0.09525634 0.49469253 -0.40156347 0.14324643 0.5022567 -0.23980151 0.17050554 0.06430721 0.16719827 -0.3237015 -0.7178767 0.118981525 -0.02165139 -0.16644809 -0.222637 -0.020074302 -0.18080583 0.49290162 0.03566162
4374 -0.15173274 0.14736995 -0.3447073 -0.11479408 -0.045326106 -0.5650917 -0.14011006 -0.15241238 -0.41482967 0.21825725 0.5332735 -0.39149642 -0.019109523 -0.0889416 0.47876313 -0.42514405 0.11376416 0.5033908 -0.24722117 0.156151 0.06582554 0.17722167 -0.33582777 -0.6953279 0.12178791 -0.0025492285 -0.18103997 -0.21714945 -0.016453488 -0.21274841 0.48409215 0.038376193
2696 0.23294973 -0.13089854 -0.13748057 -0.23562032 -0.0040327436 -0.45962778 0.20195766 0.014915869 -0.44023973 0.20736086 0.10241521 0.12192684 -0.19178376 -0.22956626 0.14278916 -0.0428337 0.060572583 0.616783 -0.23927982 -0.37687722 0.24795838 0.038447227 0.45159554 -0.15170753 0.22576955 0.16261706 0.0504903 -0.20204517 -0.26092562 0.18257138 0.33249328 -0.14685184
153 -0.041004233 -0.23008691 -0.25201848 -0.463007 -0.006510853 0.11524215 -0.014937556 0.42307684 -0.35485622 0.08082281 0.09341412 -0.067710765 0.29365954 0.49701083 0.26443335 -0.25232613 0.26674193 0.88184035 0.041935466 -0.32869533 0.1986381 -0.13996491 -0.084298626 0.09546663 0.30900592 0.06423244 -0.24791206 -0.118482284 0.09579148 0.22534816 -0.40702078 -0.046005137
2546 -0.018278599 0.10039988 -0.19317244 -0.15970345 -0.4189942 -0.36379346 0.08000467 -0.11507589 -0.16949111 0.00024339846 -0.0063532745 -0.13621232 -0.32944223 -0.01818872 0.20366511 0.06036975 -0.3017536 0.5826078 -0.17973775 0.019138912 0.04423663 0.17624861 0.16053417 -0.017011706 0.018072892 0.005709861 -0.52281415 -0.099709764 -0.3788783 -0.26429048 0.052732892 -0.0483986
376 -0.03190051 0.05901337 0.19564283 -0.527677 0.33384815 -0.027500404 -0.27364954 0.020253358 -0.40274316 0.017162504 0.1456834 0.13863797 -0.08050305 0.29479328 0.13704184 0.016353933 -0.18302998 0.2995137 0.3585418 -0.41980597 0.16987413 0.25198898 -0.120444365 -0.17928177 -0.015272857 -0.012129835 -0.0735219 -0.47604606 -0.08388815 -0.094602525 0.23353866 -0.35696855
588 -0.35366124 0.2729821 0.1805877 -0.5035191 -0.48191854 -0.5025439 0.07772334 -0.5503101 -0.57404816 -0.04932026 0.09422845 -0.46507394 0.53018695 0.19621603 -0.40783367 -0.27168444 0.26898736 0.22549999 0.58332205 0.16398421 0.3614661 0.6288852 0.20072012 0.029887037 0.16890402 -0.26410785 -0.35888827 -0.34171587 -0.110540435 -0.1913613 0.23051545 -0.070795156
1378 -0.22432248 0.2545079 0.15339673 -0.60141206 0.03088086 0.5039777 0.38919073 -0.3610936 -0.2996203 -0.39738715 0.4533658 0.12274382 -0.15087228 0.037381794 0.17975624 -0.46208587 0.30925474 0.32520917 0.27986524 -0.07921099 -0.4952146 0.18761256 0.3329973 0.18400764 -0.35585415 -0.7029933 0.028982785 0.022294512 -0.03282751 -0.06671353 -0.28469974 -0.5441308
1511 -0.3475387 0.0424169 -0.025951093 -0.11505371 0.039754923 0.045362324 0.324814 -0.1838629 0.26716775 -0.124849916 -0.15797338 -0.2586602 -0.059554238 0.07461898 0.32510725 -0.15927213 -0.22197813 0.6119118 0.4716084 -0.01642291 0.16744342 -0.15083271 0.19456641 -0.13227443 0.16077082 -0.19193368 0.026731424 -0.4490196 0.3154405 -0.011198353 -0.4199153 -0.25291106
2715 0.24363698 -0.061826684 0.11061123 -0.5809466 0.11695131 0.19963622 0.38465935 -0.2743906 0.24493536 -0.13800168 0.40083078 0.1207604 -0.012634631 0.048628278 0.014551414 0.09339653 0.32538748 0.7444192 -0.10010912 -0.10354211 -0.3326739 0.17925173 0.09589855 -0.09528391 0.09626517 -0.33511108 -0.4200966 0.08475819 -0.2598459 -0.23803401 0.19490777 0.056309387
2464 0.31324595 0.1352095 -0.037714504 -0.6039163 0.011063937 0.06854883 0.23703447 -0.543782 0.27871192 -0.38393706 0.20660822 0.29280826 -0.14029814 -0.20911503 0.24334213 -0.042013366 0.4893221 0.74804825 0.2891583 -0.06925343 -0.2815835 -0.0180415 0.24709283 0.029726343 -0.7318845 -0.43267617 -0.27839273 0.41745052 0.21308179 0.05812777 0.19012009 -0.36830777
2586 0.16812937 -0.08566433 0.6119326 -0.33515754 0.344 0.13453677 0.067227274 -0.118161514 0.035764925 0.12925088 0.3913981 -0.4261423 -0.39365473 0.7329513 0.402852 0.18241319 -0.13996445 0.48098755 0.70901036 0.31148323 -0.11824338 -0.014491888 0.3527358 -0.15965848 0.04931475 0.1849029 -0.40106162 0.11912084 -0.20415033 -0.10560562 0.43717018 0.09618869
198 -0.055819426 0.28669316 0.46275756 -0.53441226 -0.6119663 -0.50620013 0.21008794 -0.36860213 -0.09450633 -0.29704055 -0.057507377 -0.3021351 0.18733898 0.35671476 0.09031048 0.069037914 -0.0137367025 0.021329818 0.016398143 -0.75572145 -0.15510085 -0.4638225 -0.32483917 -0.31171188 0.4091495 -0.04187427 -0.4093055 -0.30464834 -0.21333355 -0.23800695 -0.25721872 -0.04685288
809 -0.028067414 -0.38105425 -0.21495265 -0.48708087 -0.022096142 -0.057663947 0.06301996 0.12623233 0.22053511 0.4948735 -0.0414994 -0.012798885 0.1359758 0.11216259 0.18773687 -0.485983 0.031812504 0.30143344 0.150836 -0.513691 0.105939545 0.047559317 0.046683215 0.046789158 0.100310475 -0.15940222 -0.36103094 -0.32497498 0.05382388 -0.20546865 -0.39120576 -0.37118128
1818 -0.3769098 -0.14617883 0.118394725 -0.25767168 0.29508644 -0.39389977 -0.11644244 -0.14060463 -0.064212985 0.24716687 -0.7076574 -0.06142321 0.57704425 0.19348766 -0.24694741 0.119536206 -0.35503602 0.5858284 0.65734416 -0.32804042 0.23981182 0.25029805 -0.15176013 -0.15513569 0.042028427 -0.08249209 -0.16856596 0.035026867 0.19730134 -0.1618208 0.119700804 -0.8647312
2581 -0.35781708 0.1510383 -0.019556258 0.009352666 -0.034510437 0.086465195 0.60338384 -0.3876421 -0.45530218 -0.09653226 0.57104385 -0.16908436 -0.20113315 0.2817226 0.3432019 -0.047037244 -0.06426704 0.4512616 0.28100982 -0.020919 -0.39934307 0.3930911 0.46718165 0.20020908 0.34723228 -0.12242261 -0.0685388 0.5027155 -0.44889376 -0.16551563 0.12034135 -0.47164917
4562 -0.35606 0.16545679 -0.021437375 0.02516007 -0.04405908 0.098143645 0.5749059 -0.36200523 -0.44173542 -0.116196446 0.5606017 -0.19318934 -0.19131638 0.25889617 0.33895683 -0.0389226 -0.05607816 0.46923763 0.25682163 -0.03214894 -0.39498943 0.39101332 0.44224045 0.2278951 0.3298033 -0.11390134 -0.07159088 0.47997278 -0.4547385 -0.14842789 0.14659582 -0.494767
1848 0.08288247 0.1676132 -0.4369 -0.21425204 0.210794 -0.082173444 -0.06241769 -0.46495682 0.17297077 -0.05157697 -0.17777482 -0.4307942 -0.3979279 0.18541057 0.00660537 -0.37210047 -0.020598525 0.48587707 0.3477593 -0.33811024 0.20626377 -0.0715922 0.3851855 0.03502661 -0.32347834 -0.50684005 0.026537046 -0.077037 -0.4019738 -0.105260946 0.04128436 -0.48752245
1382 0.13315657 -0.11710191 -0.054928355 -0.009986099 0.07080836 -0.6897777 -0.4153393 -0.49232215 -0.45432508 -0.37337306 -0.13713987 0.65574676 0.452771 0.66643476 0.46159947 -0.22917955 0.24114498 0.74468106 -0.08354211 -0.19763526 0.21965161 -0.58437455 0.092977464 -1.1002431 0.12306634 -0.077786826 0.34221026 0.2972604 0.11134673 0.2788035 -0.063508734 -0.5839354
98 -0.02381556 0.4305074 0.5029401 -0.6299756 0.28664476 -0.075507455 -0.39155805 -0.056433126 -0.29096195 -0.028528616 0.12173634 -0.29849318 0.010973107 0.019362383 0.010790069 -0.16878377 -0.10340758 0.3993413 0.106668144 -0.62647367 0.111669995 0.22838381 -0.3114759 -0.30578008 -0.015642539 -0.0012173688 0.08488035 -0.4560456 -0.04426396 0.09559009 0.18822806 -0.3573306
2873 -0.49193877 0.009540265 0.1584844 0.15735547 0.0457234 -0.80213225 -0.17264657 -1.3058085 -0.4253784 0.558703 0.17480078 -0.3699404 0.02161024 -0.010456421 0.023941113 0.09172901 -0.9517554 0.628724 0.6581668 0.015343553 0.9654198 -0.28312346 -0.03642304 -0.25638193 -0.3539207 -0.24853218 -0.92878616 -0.20687537 0.2020031 -0.01709601 -0.26983714 0.21242121
146 0.29627854 0.128117 -0.13198029 -0.51420146 0.15912847 0.1335631 0.039478578 -0.19215205 0.13451992 -0.14587674 -0.06249922 0.059972443 0.14940661 -0.031935792 0.28994492 -0.32303083 0.5523271 0.6493144 0.4821481 -0.48785803 -0.058794506 0.14752616 0.13680977 0.122841865 -0.5733911 -0.28359184 -0.292248 0.06367151 0.18511933 0.08223624 -0.26372808 -0.12928212
89 -0.12303032 0.30447376 0.026475197 -0.43442982 -0.041057926 0.36674064 0.15334223 0.28238395 0.015474525 -0.08426799 -0.16509874 -0.29877803 -0.06710887 0.13882136 -0.09020693 0.12322095 0.6530846 0.4856773 0.53147924 -0.354901 0.01022655 -0.18232515 0.22698131 -0.14085115 -0.19985493 -0.91549635 -0.34177625 -0.071405284 -0.11816216 -0.1332129 0.21749832 -0.0028974344
35 0.19138576 -0.20803851 0.21742578 -0.60373896 -0.23950696 0.05495163 -0.042497627 0.25043026 0.01515116 0.2709693 -0.02207553 -0.08127925 -0.22967874 0.37400013 0.21864505 -0.09559438 0.35847017 0.3380211 0.111319244 -0.46618646 0.31047714 0.18181992 -0.02381266 -0.05808894 -0.13702041 -0.34991324 -0.4678247 -0.053528085 0.32557267 -0.22240484 -0.5344351 -0.08045497
3663 -0.16872242 0.1166979 0.3590401 0.024151478 -0.18250582 -0.26370087 0.15446366 -0.19527376 -0.23621598 0.16922529 -0.28349268 -0.09945403 -0.02091615 0.1609704 0.1451847 -0.18131667 0.14166598 0.6767288 0.3560093 0.115896605 0.33718362 0.08481859 0.24395548 0.11070188 -0.13029136 -0.19044244 -0.5827026 0.5513558 0.057169717 -0.06657264 -0.080226414 -0.089383274
2075 -0.5993086 -0.29164496 -0.8013302 -0.002142524 -0.30175614 -0.33981848 -0.55521166 -0.13873538 -0.455669 -0.083601356 -0.09273687 0.16005854 -0.20303014 0.4322934 0.46508798 -0.004989958 0.5566559 0.5873675 -0.54731554 -0.19088408 0.44085005 0.34305906 0.12323697 -0.32399127 0.024229692 -0.3135278 -0.36195296 -0.2716868 -0.4247378 -0.009389088 0.06007783 -0.33121046
3553 -0.027725637 0.114821 0.3817274 0.15759648 -0.091489635 -0.3270848 0.18990831 0.03863414 -0.1860745 0.12840408 -0.23857453 -0.061952304 -0.10754258 0.23368305 0.17350534 0.23409586 0.21161945 0.6039837 0.24599339 -0.08295382 -0.07515569 0.10970177 0.11841186 0.09567321 -0.07187858 0.006734472 -0.6267501 0.13022353 -0.13170756 -0.22964305 0.23686065 -0.09789492
110 -0.31202388 0.05104313 0.18733078 -0.20040354 -0.08466689 -0.076608054 0.35540184 -0.030126017 -0.3271553 -0.13030106 -0.26169154 -0.037790664 -0.27378613 -0.0147742545 0.14924775 0.14441085 0.014588215 0.6992606 0.118172385 -0.13976188 -0.0048443098 0.050247807 -0.33621302 -0.29595572 -0.09851968 -0.15910955 0.15317456 -0.41867924 0.18551591 -0.02387313 -0.47337723 -0.30868104
2575 0.37558287 0.19012831 0.14689928 0.075120255 -0.35288435 -0.19918631 -0.007511698 0.0063151545 0.40933213 0.4426851 0.17999204 -0.45269224 -0.069559306 0.06926758 0.4767315 -0.24659567 -0.5702078 0.54478383 0.019011643 0.00822723 -0.00808706 0.2971682 0.082919605 -0.05394896 0.19597535 -0.01792749 -0.4265697 -0.11636292 -0.5222752 -0.05195171 -0.32352465 -0.23093556
